{"embedding_instance.weight": [[0.6003292798995972, 0.33028191328048706, 0.16125018894672394, 0.32577115297317505, 0.8451679944992065, 0.3305869400501251, -1.1987818479537964, -0.8849961757659912, -0.7397846579551697, 0.6811251640319824, 0.7328956127166748, -0.5524373054504395, 0.30251747369766235, 0.3318507969379425, 0.014970692805945873, 0.17187219858169556, -0.4627920389175415, -0.9297384023666382, -0.1317037045955658, -0.8678293824195862, 0.5481352806091309, 0.4150005877017975, -0.44387632608413696, 0.013797125779092312, 0.7147983312606812, 0.652126133441925, -0.9187657237052917, -0.9037082195281982, -0.5839629173278809, 0.3698442578315735, 0.19039326906204224, 0.32490482926368713, 1.3139524459838867, 0.911949634552002, -0.35063162446022034, -0.06747464090585709, -0.027063246816396713, -0.6384236812591553, -0.1474299430847168, -0.5419182181358337, -0.26224321126937866, 0.4810633659362793, 0.344686359167099, -0.7051649689674377, -0.4123343825340271, 0.5797070860862732, 0.5603181719779968, 0.4059085547924042, -0.888587474822998, 0.29411056637763977, -0.4803561866283417, 0.13461361825466156, 0.06103629991412163, -0.7283720374107361, 0.4478961229324341, 1.470018744468689, 0.24240237474441528, 0.08960209041833878, -0.49357324838638306, 0.7831635475158691, -0.147436261177063, -0.2000260055065155, 0.26046642661094666, 0.3526652455329895, -1.6684271097183228, 0.8846452236175537, 0.3319064676761627, -1.2488973140716553, -0.6666637659072876, -0.2452383190393448, 0.05019007623195648, 0.17113234102725983, 1.1787797212600708, -0.3881479501724243, -0.644129753112793, 1.351874589920044, 0.9855896234512329, 0.15465423464775085, 0.42797034978866577, 1.0489176511764526, -0.23291072249412537, -0.46563929319381714, -0.5831655263900757, -1.5454336404800415, -0.3626038432121277, -0.9187207221984863, -0.736480712890625, 1.3911638259887695, -0.6880770325660706, 0.20764562487602234, -0.005329360719770193, 1.2158437967300415, 0.2974260151386261, 0.08421049267053604, 0.6773011088371277, -0.6829028725624084, -0.22728386521339417, 0.0651613250374794, -0.47740936279296875, 0.11095824092626572, -0.4133053123950958, 0.5543175935745239], [0.04342858865857124, -0.22811008989810944, 0.6082998514175415, -1.4014281034469604, -0.5400285720825195, -0.12110724300146103, 0.14578136801719666, -1.071254849433899, -0.6808785796165466, 0.031722161918878555, -0.7918550372123718, 0.3964037001132965, -0.09513317793607712, 0.2531300485134125, -0.48554226756095886, 0.44185498356819153, 0.5100505948066711, -0.7291331887245178, -0.31742921471595764, -0.2427358776330948, 0.2658737301826477, -0.023929599672555923, -0.2102990448474884, -0.6690323352813721, 0.364990234375, 0.35219284892082214, 1.2091275453567505, -0.8928815722465515, -0.30585259199142456, -0.28941261768341064, -0.4099540412425995, -0.36293381452560425, 0.006557012442499399, -0.025637993589043617, -0.8934887051582336, 0.5316510796546936, -0.3452070355415344, 0.2735814154148102, -0.07280300557613373, -0.417807936668396, 0.7072955965995789, -0.4682949483394623, 0.6478195190429688, 0.6480746865272522, 0.33852577209472656, 0.9281864166259766, -0.01742127723991871, -0.09284375607967377, 1.281675934791565, 0.059257227927446365, 0.7450982332229614, 0.2583380937576294, -0.6281302571296692, -0.6316772103309631, 0.15393655002117157, 0.1432916522026062, -0.14107249677181244, 0.19344943761825562, 0.9729699492454529, 0.8035825490951538, -1.2042107582092285, 1.0448046922683716, 0.6303683519363403, -0.2810240089893341, 0.6782895922660828, -0.26992347836494446, -0.5677407383918762, -0.15291908383369446, 0.44741952419281006, 1.2671431303024292, -1.6133699417114258, -0.33259034156799316, 1.0186928510665894, -0.10804641991853714, 1.0848616361618042, -0.8055601119995117, 1.2599918842315674, -1.4424548149108887, -0.9080168008804321, 1.4449032545089722, 0.15343178808689117, -0.6584140062332153, 0.053040504455566406, 0.9367312788963318, -0.8424476981163025, -0.7087565064430237, 1.7141916751861572, 0.25363680720329285, 0.8908075094223022, 0.06546003371477127, 1.0153650045394897, -0.6324905753135681, -0.19941279292106628, -0.9035340547561646, -0.42240163683891296, 0.5334265232086182, 0.717714786529541, 0.20298685133457184, -0.5415208339691162, 0.22235575318336487, 0.5249300003051758, 0.0007814065902493894], [-0.1153392568230629, -0.04116411507129669, 0.23977287113666534, -0.024402640759944916, 0.46982690691947937, -0.3468745946884155, 0.40422898530960083, -0.2302941381931305, 0.2707817554473877, 0.4186209738254547, -0.03338761627674103, 0.21218818426132202, -0.5102580785751343, 0.05698319151997566, 0.36871886253356934, 0.5123982429504395, -0.5330175161361694, -0.4565232992172241, -0.1706504225730896, -0.0957048088312149, -0.3122902810573578, 0.11596409231424332, 0.06203509122133255, -0.08563714474439621, 0.3755474388599396, 0.11173427850008011, 0.24391688406467438, -0.0809316486120224, -0.12512728571891785, -0.21344703435897827, 0.0711115375161171, 0.34014081954956055, 0.5554390549659729, 0.5257087349891663, 0.10859272629022598, -0.14082790911197662, -0.16173699498176575, 0.054975513368844986, -0.2914738357067108, 0.2307737022638321, 0.8982098698616028, -0.7028317451477051, 0.8917670845985413, -0.20900075137615204, -0.4800611436367035, -0.4358515441417694, -0.20020252466201782, 0.7979611158370972, -0.329220712184906, 0.39203178882598877, 0.15251301229000092, 0.4730667173862457, 0.5251220464706421, 0.10621006786823273, 0.43958935141563416, -0.504531741142273, -0.5776769518852234, 0.6689811944961548, -0.49262821674346924, -0.3160339891910553, -0.6874260306358337, 0.22452262043952942, 0.7329988479614258, 1.1446185111999512, 0.7353044748306274, 0.12393807619810104, -1.0435140132904053, 0.8095359206199646, -0.278758704662323, -0.17352570593357086, 0.07282426208257675, -0.9637505412101746, 2.1570560932159424, 0.48774999380111694, -0.6658302545547485, -0.025470701977610588, -0.05907364934682846, -0.9569046497344971, 0.5582798719406128, 0.8316992521286011, -0.36588039994239807, 0.1152230054140091, 0.39947471022605896, -0.561115562915802, -0.04602294787764549, 0.7101187109947205, 0.4012695550918579, 0.9617443680763245, -0.3542915880680084, 0.9755057692527771, -0.9927021861076355, -1.2160558700561523, -0.7084713578224182, 0.024996742606163025, -0.36216631531715393, -1.454283595085144, 0.5392842888832092, 0.294737309217453, -0.3693803548812866, -0.10279862582683563, -0.7397876381874084, 0.32660675048828125], [0.11677965521812439, -0.28860729932785034, 0.2955639064311981, 0.09635141491889954, -0.07711265981197357, 0.4193546175956726, 0.43655815720558167, -0.472561776638031, 0.6556367874145508, 0.9874721765518188, -0.014220894314348698, 0.1973121017217636, -0.05645793676376343, 0.04202224686741829, 0.8370547890663147, 0.09378693997859955, 0.3133491277694702, 0.1483900249004364, -0.3616352677345276, -0.21674036979675293, -0.4590585231781006, -0.31687048077583313, 1.5238670110702515, -0.4117862582206726, -0.17301616072654724, 0.7726984620094299, 0.03573998436331749, -0.2785440683364868, 0.8877178430557251, 0.6462920308113098, -0.03492774814367294, 0.03738320246338844, -0.2739631235599518, 0.47618865966796875, 0.3804473876953125, -0.2722947299480438, 0.9054636359214783, 0.09234561026096344, 0.4293386936187744, 0.22597259283065796, 0.6309999823570251, 0.21320925652980804, 0.7096513509750366, -0.8178882002830505, -0.578475832939148, 0.7783978581428528, -0.8010329008102417, 0.3977701961994171, 0.7394298315048218, -0.22542911767959595, -0.5426018238067627, 0.49985021352767944, 0.693056046962738, 0.8564035296440125, -0.29990845918655396, 1.0758095979690552, -0.8376591205596924, 0.3479905128479004, -0.0411120168864727, 0.20022323727607727, -1.8140186071395874, -0.9182661771774292, -0.04471098631620407, -0.6307436227798462, -0.4581422507762909, -0.44698566198349, -0.2624032199382782, 0.17756500840187073, -0.09326275438070297, 0.1313251256942749, 1.3179008960723877, -0.15909327566623688, 0.9489884376525879, 1.0812420845031738, -0.5397507548332214, 0.5092800855636597, -2.1995809078216553, 0.34173598885536194, 0.14546726644039154, -1.3546135425567627, -0.2877432405948639, 0.05975672975182533, -1.2275645732879639, 0.17473679780960083, 0.14079511165618896, 0.915952742099762, -0.5194597840309143, -0.3812218904495239, -0.4075486660003662, -0.6022095084190369, -0.8036771416664124, 0.22408215701580048, 0.18611332774162292, -0.937559962272644, -0.8353623151779175, -0.28139346837997437, 0.2452438473701477, -0.8048361539840698, 0.6295951008796692, -0.06038858741521835, -0.5488870739936829, -0.2879846394062042], [-0.0253513865172863, -0.0004928163252770901, -0.004374914336949587, -0.001702082809060812, -0.004064244218170643, -0.0007248709443956614, -0.002872352721169591, -0.024966204538941383, -0.00948816817253828, 0.011456716805696487, -0.0119307367131114, -0.03457995876669884, -0.021706193685531616, 0.03751912713050842, 0.0008314282167702913, 0.0034414727706462145, -0.004755756817758083, -0.017187243327498436, -0.000950670859310776, 0.01433042623102665, 0.02154707908630371, -0.0011611264199018478, -0.0034643246326595545, -0.003455773228779435, 0.0020337922032922506, 0.0012128014350309968, 0.0029781784396618605, 0.011137330904603004, 0.012850431725382805, -0.014650230295956135, 0.012093420140445232, 0.029442841187119484, 0.006267638877034187, -0.03592276945710182, 0.002182329772040248, -0.00016653144848532975, -0.004019690211862326, 0.01107590552419424, 0.0025552953593432903, -0.020299077033996582, -0.003212255658581853, -0.0076452214270830154, 0.00015080225421115756, -0.0007840069592930377, -0.009008155204355717, 0.0007866634405218065, 0.002454642904922366, -0.002539335750043392, -0.0063459500670433044, -0.004641741048544645, -0.013730132952332497, 0.0070752245374023914, -0.00504082627594471, -0.013179026544094086, -0.00014790653949603438, -0.0009758270462043583, -0.008480269461870193, 0.009343798272311687, -0.002022475004196167, 0.007499168161302805, -0.01233951561152935, 0.0016906311502680182, -0.003337347647175193, -0.007573791779577732, -0.00034687930019572377, -0.0009470076183788478, -0.0003267846768721938, 0.011201479472219944, -0.023219410330057144, 0.0024918962735682726, -0.00827682763338089, 0.00607250165194273, 0.002581187756732106, 0.0029501481913030148, 0.0024633093271404505, -0.013765600509941578, -0.006691874470561743, 0.00038313923869282007, -0.0003355976368766278, -0.01027094479650259, 0.003432512516155839, -0.0012324851704761386, 0.003078359179198742, -0.0025228329468518496, 0.0004499120987020433, 0.005418729968369007, -0.01183024700731039, 0.004342880565673113, -0.006349081173539162, -0.0005152861122041941, 0.0007992942119017243, -0.004804740194231272, -0.0043455371633172035, -0.002328264992684126, 0.005518237128853798, -0.008955261670053005, 0.0013316954718902707, -0.0039476449601352215, 0.00387830613180995, -0.0034125838428735733, -0.00027840875554829836, 0.001924422336742282], [0.01117591094225645, -0.06415946036577225, -0.04661913588643074, 0.015711238607764244, 0.03784075379371643, -0.018455466255545616, -0.036750443279743195, 0.021797392517328262, 0.0016002906486392021, 0.026877548545598984, 0.00854995846748352, 0.013609949499368668, 0.011945466510951519, 0.023372242227196693, 0.0023273497354239225, 0.013157208450138569, -0.006501868367195129, -0.012240048497915268, -0.001561998506076634, 0.05461397394537926, -0.011453969404101372, 0.055131085216999054, 0.06105610728263855, -0.011480516754090786, -0.029139917343854904, 0.01566717028617859, 0.037871893495321274, -0.007736601401120424, 0.0031063116621226072, -0.021723855286836624, 0.0018205168889835477, -0.01011752150952816, -0.0021992309484630823, -0.01808476634323597, 0.006494936998933554, -0.008012493140995502, 0.015523595735430717, 0.016322549432516098, -0.005395880434662104, -0.042340099811553955, 0.004920309409499168, -0.0060525680892169476, 0.0026114953216165304, -0.0055761015973985195, -8.758059266256168e-05, 0.00687423488125205, 0.0025086374953389168, 0.01090528815984726, 0.0008666122448630631, 0.0039244177751243114, -0.00544354785233736, 0.002062645275145769, -0.006097130943089724, -0.00594173651188612, -0.0023317183367908, 0.0012136750156059861, -0.008973752148449421, 0.009156313724815845, 0.005186532158404589, 0.01316478569060564, -0.006628498900681734, 0.002699091797694564, -0.0065468791872262955, -0.003191788215190172, 0.011382331140339375, -0.004740739706903696, 9.538483573123813e-05, -0.009615069255232811, 0.0038884037639945745, 0.005695970728993416, 0.009476309642195702, 0.009627239778637886, -0.006663519889116287, 0.016177445650100708, -0.013222487643361092, -0.00010284710879204795, -0.006735620088875294, -0.007360266987234354, 0.01158925611525774, -0.002368887886404991, 0.0018317450303584337, -0.0088925426825881, 0.001892686472274363, 0.0010107224807143211, -0.0004268864286132157, 0.0030719556380063295, 0.006621773820370436, -0.0015219468623399734, -0.0013734009116888046, 0.007202157750725746, 0.0037604335229843855, 0.003345391945913434, 0.001281237113289535, 0.0045568435452878475, 0.007913564331829548, 0.004378599114716053, -0.005267444998025894, -0.00014752453716937453, -0.0007352234097197652, 0.011012036353349686, 0.003559661330655217, 0.005343570373952389], [-0.001510304631665349, 0.011883489787578583, -0.03422264754772186, 0.028676077723503113, 0.008567769080400467, 0.02562999166548252, -0.023385675624012947, 0.018754633143544197, 0.008829223923385143, -0.006272554863244295, -0.03849992901086807, -0.01695767045021057, 0.02870541252195835, -0.005055096000432968, -0.01820203848183155, -0.06782204657793045, -0.020962398499250412, -0.025135885924100876, -0.011529792100191116, 0.0037332072388380766, 0.0005762079381383955, -0.006399140227586031, 0.04404609277844429, -0.025939710438251495, 0.0009535950957797468, -0.02332167886197567, 0.02196427620947361, -0.023287178948521614, -0.004288984462618828, 0.009212518110871315, 0.03854956477880478, 0.010432464070618153, -0.019451061263680458, 0.002127439482137561, 0.03160889819264412, 0.07174132019281387, 0.030304303392767906, 0.0253826305270195, 0.004205889999866486, -0.0057701608166098595, 0.002884435234591365, 0.0012110862880945206, -0.005012798588722944, 0.003694166662171483, 0.003976232837885618, 0.0064107803627848625, 0.009713388979434967, 0.0090422872453928, -0.011364711448550224, 0.008478567004203796, 0.01187036745250225, 0.00600136024877429, 0.002907362999394536, 0.0024456754326820374, 0.007382746320217848, -0.0009832580108195543, -0.005017878487706184, 0.004275608342140913, 0.0016671153716742992, -0.002314765704795718, -0.006582291796803474, 0.0029352905694395304, -0.000855456106364727, 0.0028157206252217293, 0.0024731201119720936, 0.02672683820128441, -0.00885759200900793, 0.005811619106680155, -0.005823301617056131, 0.020728878676891327, 0.006105643231421709, 0.009883547201752663, -0.012518801726400852, -0.0011322982609272003, -0.006960537284612656, 0.0028214731719344854, 0.00015386122686322778, -0.0027923895977437496, -9.198902262141928e-05, 0.002684897743165493, 0.010968553833663464, -0.010097173042595387, 0.0016241931589320302, 0.009526821784675121, 0.0028784610331058502, -0.00920181255787611, 0.006616445258259773, 0.0040921615436673164, 0.006132904905825853, 0.01192415226250887, 0.008292743936181068, -0.004138514399528503, -0.00418056221678853, 0.004919516853988171, 0.009935262612998486, -0.0010544135002419353, 0.002078533172607422, -0.006111104041337967, 0.0012753800256177783, 0.006789532955735922, 0.0028943847864866257, 0.008245715871453285], [0.01975281909108162, 0.013197598047554493, 0.027848051860928535, -0.028299832716584206, 0.0030854365322738886, -0.027973636984825134, 0.008006765507161617, 0.02908862754702568, 0.011837835423648357, -0.007083033211529255, 0.0010197536321356893, 0.019378693774342537, 0.018910018727183342, -0.018004633486270905, 0.025444161146879196, 0.006816679611802101, 0.004850498866289854, 0.03135986998677254, 0.0034826467745006084, -0.015911905094981194, -0.03239539638161659, -0.009710513055324554, -0.029764199629426003, 0.021788716316223145, -0.0009729980956763029, 0.017302939668297768, -0.005632604006677866, -0.014873825944960117, -0.007502625696361065, 0.014500469900667667, -0.0033293734304606915, -0.02144601009786129, -0.021642716601490974, 0.02162577211856842, -0.02166598290205002, -0.0075280386954545975, -0.006805839948356152, -0.027546195313334465, -0.01001258660107851, 0.01191395428031683, -0.00025293027283623815, 0.012036826461553574, 0.001871186657808721, -0.003647776087746024, 0.001240986050106585, 0.002602513413876295, -0.006986273918300867, -0.0020093959756195545, 0.006903612054884434, 0.00187475245911628, -0.00037948423414491117, -8.782449003774673e-05, -0.007222921121865511, -0.0031684963032603264, 0.0056468346156179905, 0.0013562659732997417, 0.009622549638152122, 0.00011433876352384686, 0.0021134468261152506, 0.0002529751800466329, 0.010127601213753223, -0.001679841778241098, 0.0030806453432887793, -0.0003427727206144482, 0.004537390545010567, 0.002775091677904129, -0.004717803094536066, -0.005689799785614014, -0.006077675148844719, -0.007805570028722286, 0.01041688397526741, 0.004995752591639757, -0.00391395715996623, -0.007874783128499985, 0.0009716558852232993, 0.002362586325034499, 0.0032486736308783293, 0.0013445235090330243, -0.003031127154827118, -8.325379167217761e-05, -0.0009330285247415304, -0.008202442899346352, -0.004910079296678305, -0.002922137500718236, -0.003771678078919649, 0.0013097838964313269, 0.009104486554861069, 0.004369488451629877, 0.00013738882262259722, 0.006180641707032919, -0.0019794923719018698, 0.005994909908622503, 0.0011583053274080157, -0.00585571676492691, -0.00014822317461948842, 0.005561245605349541, -0.0013803060865029693, 0.005468165036290884, 0.005090195219963789, -0.0020247746724635363, -0.0040055192075669765, -0.0008627802017144859], [0.32913297414779663, 0.19234590232372284, 0.3237974941730499, 0.35755470395088196, -0.1494174599647522, 0.21632295846939087, -0.3628905117511749, -0.4172229468822479, -0.4829317629337311, -0.06163742393255234, 0.05899236351251602, -0.24473917484283447, 0.46894341707229614, 0.3948463201522827, -0.1274251937866211, 0.13921824097633362, 0.32489916682243347, 0.8753810524940491, 0.09164874255657196, -0.5328009724617004, 0.04792327806353569, -0.553589940071106, 0.3930134177207947, 0.3414783179759979, 0.0022136338520795107, 0.02393324300646782, -0.1992221176624298, -0.7142611742019653, -0.6704768538475037, -0.658359944820404, -0.15257327258586884, -0.6723318099975586, 0.18775060772895813, -0.16974741220474243, -0.20668157935142517, -0.7130678296089172, -0.15865328907966614, 1.0044996738433838, -0.004961307626217604, -0.35770484805107117, -0.8238056898117065, -1.162441611289978, 0.11840551346540451, 0.4294743835926056, 1.313082218170166, 0.3304693400859833, 0.044232722371816635, -0.18700411915779114, -0.8285578489303589, -0.7949396371841431, -0.33634963631629944, 0.785223662853241, -0.6654967069625854, 0.9893410205841064, 0.17008894681930542, -1.0769234895706177, -0.7815167307853699, -0.4619300365447998, -0.2915964722633362, 0.39371731877326965, -0.38398733735084534, 0.01631958968937397, 0.8141255974769592, -2.2800936698913574, 0.8219475150108337, 0.3929791748523712, 0.4713163673877716, 1.330977439880371, -0.23521000146865845, 0.9330478310585022, 1.1557629108428955, 0.40012481808662415, -0.39203256368637085, -1.3120592832565308, -0.20326431095600128, 0.4158191382884979, -0.9263061285018921, -0.20799526572227478, 0.9571014642715454, 1.0450078248977661, -0.8134480118751526, 0.16399270296096802, 0.6140888929367065, 0.029250314459204674, 0.47550448775291443, 0.5238117575645447, -0.6401835680007935, -0.31331655383110046, -0.06953202188014984, 0.2689584791660309, -0.33650046586990356, -0.2951120436191559, -0.3292253315448761, 0.7816949486732483, 0.5388391017913818, 0.6693984866142273, -0.10285687446594238, -0.3283236026763916, 0.04759635776281357, -0.24350875616073608, -0.6518527269363403, 0.0001064566386048682], [-0.36171308159828186, -0.8771858215332031, -0.03420326113700867, 0.6859556436538696, -0.2626746594905853, -0.35053709149360657, 0.5219889879226685, 0.5666552186012268, 0.006343488581478596, 0.5081355571746826, -0.09149432927370071, -1.0174728631973267, -0.3769659399986267, -0.5373656749725342, -0.997852623462677, -0.447867214679718, 0.4996037185192108, -0.021112417802214622, 0.5185785293579102, 0.8752047419548035, -0.45851731300354004, -0.15058889985084534, 0.22206175327301025, 0.9003617167472839, -0.2710190415382385, -0.8152123093605042, 0.41436824202537537, -0.11260785907506943, 0.016005586832761765, -0.15731026232242584, -0.16418708860874176, -0.5675656795501709, -1.074879765510559, -0.5994893312454224, -0.228620707988739, -0.2716964781284332, 0.1970909684896469, -0.34882229566574097, 0.21725642681121826, 0.8957973122596741, -0.6077399849891663, -0.06573124974966049, -0.3001142144203186, -0.284457802772522, -0.22777564823627472, 0.24435479938983917, -0.43466731905937195, 0.7300592660903931, -0.6818461418151855, -1.2477079629898071, -0.6272054314613342, -0.022236810997128487, 0.3682270050048828, -0.5034378170967102, -0.7031528949737549, 0.7948883175849915, 0.5216515064239502, -0.24941112101078033, 0.5239574313163757, -0.08842361718416214, 0.00911015085875988, 1.020277500152588, 1.256602168083191, -1.0142419338226318, 0.49485793709754944, -0.4735419750213623, 0.09080701321363449, 0.396191269159317, -0.7124572396278381, -0.4124641716480255, 0.2827816307544708, 1.3100289106369019, -1.2892614603042603, 1.1681594848632812, -0.31040555238723755, 0.594629168510437, 0.5654250979423523, 1.2622768878936768, -2.0150742530822754, -1.4709105491638184, -0.2019786685705185, -0.043878648430109024, 0.31564560532569885, 0.7832046747207642, 1.1490411758422852, 0.7451885938644409, 0.5653616786003113, 0.11482137441635132, -0.11358200013637543, -0.46811720728874207, -0.5678423047065735, 0.30165359377861023, -0.10800859332084656, 0.08885486423969269, 0.6808163523674011, -0.3232879936695099, -0.522454023361206, 0.524049699306488, -0.5243762135505676, 0.834952712059021, 0.39861300587654114, -0.021679144352674484], [-0.276725709438324, 0.19248102605342865, -0.07744568586349487, 0.5087344646453857, 0.37600815296173096, 0.556183934211731, 0.757437527179718, 0.5321273803710938, 0.6242251396179199, -0.035176027566194534, -0.0758671760559082, 0.2616632878780365, 0.34192389249801636, 0.6409199237823486, 0.40975725650787354, 0.21525008976459503, 0.6397960186004639, 0.4796089231967926, 0.05337958410382271, -0.07896076142787933, 0.12206051498651505, 0.11995196342468262, 0.20121239125728607, 0.4899548888206482, 0.16736450791358948, 1.1233196258544922, 0.2928398549556732, 0.40289923548698425, 0.1335185468196869, 0.335267573595047, 0.05735025554895401, 0.38497382402420044, -0.08937256038188934, 0.6023656725883484, 0.3393479883670807, 0.28555405139923096, 0.375641405582428, 0.35483187437057495, 0.19736230373382568, 0.08850396424531937, -0.1341354250907898, -0.5371927618980408, 0.3318476378917694, 0.001431264914572239, -0.20592954754829407, -0.5750002264976501, 0.7447201609611511, -0.05576585233211517, -0.295533686876297, 0.5110020637512207, -0.4917508363723755, -0.02222214825451374, 0.055126920342445374, 0.2435738444328308, -0.04287141188979149, -0.4565713703632355, 0.23184528946876526, 0.49798062443733215, -0.05783351510763168, 0.6234270930290222, 0.6539546251296997, 0.014645995572209358, -0.740198016166687, -0.09678926318883896, 0.35408392548561096, -0.03822300583124161, -0.410858154296875, -0.16327720880508423, -0.28792083263397217, 0.40830737352371216, 0.8215010166168213, -0.12328734248876572, -1.4525254964828491, 1.247599720954895, 0.1758207529783249, -0.4252842366695404, -0.3494112491607666, 0.0903390571475029, -0.13890613615512848, 0.29773959517478943, 1.447925090789795, -0.3670072853565216, -0.3903568387031555, -0.46866679191589355, -0.7872347235679626, 0.038245487958192825, -0.49645158648490906, 0.04444872587919235, -0.5299598574638367, -0.5096806287765503, -0.565862238407135, -1.145448088645935, -0.000918353209272027, -0.49493980407714844, 0.2937949597835541, -0.2867109775543213, -0.24381917715072632, -0.07217620313167572, -0.10266014188528061, -0.1661921739578247, -0.7181136012077332, -0.7735819816589355], [-0.2692010700702667, 0.7386309504508972, -0.4325055778026581, -0.022200629115104675, 0.7761421799659729, 0.21829113364219666, -0.3655448853969574, -0.03067653998732567, -0.2711990177631378, 0.34864163398742676, -0.18147175014019012, 0.4749918282032013, 0.9036454558372498, -0.10779760777950287, 0.2558630406856537, 0.22177937626838684, -0.3976505696773529, 0.27160680294036865, 0.022138027474284172, 0.308552086353302, -0.28483179211616516, 0.8034833073616028, -0.3606916666030884, 0.17105570435523987, 0.0853625237941742, 0.4320599138736725, -0.27269822359085083, -0.0949612632393837, -0.09224440157413483, 0.43342018127441406, -0.33004680275917053, 0.30141183733940125, 0.7700746059417725, -0.05104827508330345, 0.6563090682029724, 0.5309388637542725, -0.7958648204803467, -0.2543533146381378, 0.6815752983093262, -0.017398972064256668, 0.1970493644475937, 0.5254842638969421, 0.2600597143173218, -0.39803317189216614, 0.8214690685272217, -0.1772817075252533, -0.8784062266349792, 0.28279152512550354, 0.3743234872817993, 0.972947359085083, 0.9670596718788147, -0.3229913115501404, -0.646880030632019, 0.020019443705677986, 0.8855845332145691, -0.7615399360656738, -1.382228970527649, 0.30975663661956787, 0.07259060442447662, 0.3486917316913605, 0.5299221277236938, -1.672521710395813, -0.435210645198822, -0.4151648283004761, -0.7020222544670105, -0.08334583044052124, -0.7062699198722839, -1.0078527927398682, 1.439697265625, -1.1506931781768799, -0.09896347671747208, 0.07117373496294022, -0.275471031665802, 1.8370637893676758, -0.5732130408287048, -0.8634433150291443, -0.5725741386413574, -0.08755923807621002, -0.0966465026140213, -0.7008106112480164, 1.0588023662567139, -0.20701009035110474, 0.25039565563201904, -0.30678650736808777, 0.3171883821487427, 0.12040509283542633, -0.3365791141986847, 0.42156437039375305, -1.327260971069336, -0.6949130892753601, -0.4361818730831146, -0.5251694321632385, 0.866223156452179, -0.8356994986534119, -0.4125693738460541, 1.016914963722229, 0.3192402422428131, 0.2991459369659424, 0.24021877348423004, 0.256644606590271, -0.49530333280563354, 0.2199603021144867], [0.0934387594461441, -0.446041464805603, 0.14652909338474274, -0.38660362362861633, -0.3186366856098175, 0.5405473709106445, 0.408983051776886, -0.4018245339393616, 0.28382647037506104, -0.4337717294692993, -0.12578319013118744, -0.2627342641353607, 0.5330020785331726, -0.4514339566230774, -1.548369288444519, 0.33294135332107544, 0.6733067035675049, 0.9947249889373779, -0.36282339692115784, -0.7016077637672424, 0.019354645162820816, 0.1564798355102539, 0.1510598361492157, -0.4434262812137604, -0.4982936382293701, 0.21408335864543915, 0.2756671607494354, -0.052839409559965134, -0.09087660908699036, -0.23170581459999084, 0.10638316720724106, 0.12093566358089447, -0.3985525965690613, -0.4660792648792267, -0.7696825265884399, -0.29297181963920593, -0.04179759696125984, 0.5544233322143555, 0.7265865206718445, -0.15028326213359833, 1.344141960144043, 0.3491668403148651, 0.42931243777275085, 0.5019198656082153, 0.20912513136863708, 0.34382861852645874, -0.3623386025428772, -0.39104393124580383, -0.10786091536283493, 0.2757668197154999, -1.6134741306304932, 1.1150494813919067, 0.8174381256103516, 0.7142454981803894, 0.8458429574966431, 1.9406239986419678, 2.092263698577881, -0.39726802706718445, 2.2349917888641357, 0.05106273666024208, -0.5640960931777954, -0.6981150507926941, -0.6784772872924805, -1.1897624731063843, -1.0587782859802246, 0.33718761801719666, 1.0532556772232056, -0.11078162491321564, -0.1463099718093872, -0.05225649103522301, -0.12615640461444855, -0.5125571489334106, -0.7342797517776489, 0.5217717885971069, -0.09003466367721558, 0.012872734107077122, 0.6731324195861816, 0.9896606802940369, -0.6145493984222412, -0.09817817062139511, 0.010169860906898975, 0.5999109148979187, 0.5775686502456665, -0.7122011780738831, -0.513660728931427, 0.6785382032394409, -0.7961146235466003, -0.49464792013168335, -0.006891939323395491, -0.35609081387519836, 0.39349082112312317, 0.03310680761933327, -0.005247116554528475, -0.47343066334724426, -0.18249474465847015, 0.13901318609714508, -0.520438551902771, 0.41207075119018555, 1.1867722272872925, -0.045125812292099, -1.5445175170898438, 0.9404289126396179], [-0.008450066670775414, 0.01328313909471035, 0.004901405423879623, -0.002430929336696863, 0.01351199485361576, 0.009976683184504509, 0.010814305394887924, -0.02730477787554264, 0.006011015735566616, -0.03960726410150528, 0.0157016571611166, 0.028073478490114212, -0.005369503051042557, 0.011571730487048626, 0.022907234728336334, 0.039750196039676666, -0.03238706290721893, 0.025847572833299637, -0.01778986304998398, 0.00015726167475804687, 0.01123739592730999, -0.024117568507790565, -0.008913244120776653, 0.0005341682699508965, -0.017414329573512077, -0.01264954824000597, -0.004698530305176973, 0.026463869959115982, -0.00132092647254467, 0.02194131910800934, -0.013495259918272495, -0.019276240840554237, 0.004521794617176056, -0.008136386051774025, -0.016738906502723694, -0.04586144909262657, 0.023736290633678436, -0.023317504674196243, 0.013853740878403187, 0.0034387651830911636, 0.003412376157939434, 0.0002100231940858066, -0.0006717906217090786, -0.009681356139481068, -0.00014373401063494384, 0.0002621095918584615, -0.003416120307520032, -0.0002758037007879466, -0.00022104132222011685, -0.011771397665143013, 0.0018825974548235536, -0.0022025671787559986, 0.0004910245770588517, -0.008855600841343403, -0.008131707087159157, 0.007125144358724356, 0.007074955850839615, 0.00018921216542366892, -0.005641911644488573, -0.007352534681558609, 0.0015547871589660645, 0.006347145419567823, 0.008099662140011787, -0.000801336660515517, 0.001876337919384241, 0.00882031861692667, -0.003711022436618805, 0.007518208585679531, 0.0064462958835065365, 0.008177691139280796, 0.007458594162017107, -0.008249321021139622, 0.013618345372378826, -0.0018056632252410054, -0.0005813721800222993, 0.0023086536675691605, 0.006799027323722839, 0.010263856500387192, 0.0006611908902414143, 0.01191169023513794, -0.006055756937712431, 0.0045339143835008144, -0.001321678631938994, 0.003185288980603218, 0.0012543717166408896, 0.0010149268200621009, -0.002281425055116415, 0.002513501327484846, -0.0028658700175583363, -0.003661105874925852, 0.0017755617154762149, -0.009692985564470291, 0.007463947404175997, -0.0008390783914364874, 0.0032323587220162153, -0.004332005977630615, -0.0024177837185561657, -0.0008202262688428164, 0.0040408167988061905, -0.006147528532892466, -0.00017538764222990721, -0.0037334496155381203], [0.1824280172586441, 0.033458445221185684, 0.20973269641399384, -0.5492696762084961, 0.028473112732172012, -0.17551185190677643, 0.6762089729309082, -0.3571968972682953, 0.692797064781189, -0.05401941016316414, 0.6108068823814392, -0.09734845161437988, -0.9090427756309509, 0.12125888466835022, 0.832089900970459, 0.37840035557746887, 1.3169212341308594, 0.1382312774658203, 0.36596670746803284, -0.23518197238445282, 0.0639045462012291, -0.108879454433918, 0.02650478295981884, -1.5079131126403809, -0.07922420650720596, -0.5797996520996094, -0.013648857362568378, -0.3886827528476715, -0.20339316129684448, 0.37172216176986694, 0.6779736876487732, 0.18108202517032623, -0.08607539534568787, -0.06281488388776779, 1.0578467845916748, 0.08568567037582397, 0.82374507188797, 0.005935959983617067, -0.3658570647239685, 0.22982844710350037, -0.47645872831344604, -1.0604850053787231, -0.671484112739563, 1.5302355289459229, -0.5115694403648376, 0.7339367270469666, -0.28338342905044556, -0.5554981827735901, -0.4289943277835846, -0.2388654202222824, 1.121219515800476, -1.634805679321289, -0.490770548582077, 0.5558706521987915, -0.9222744703292847, 0.03403059020638466, -0.21522727608680725, 0.6832981109619141, 0.1930672973394394, -0.47991862893104553, 1.7530707120895386, -0.4744851887226105, -0.2189456820487976, 0.7625203132629395, 0.3676643371582031, -0.6632394194602966, -0.9565088748931885, 0.19584429264068604, -2.1129419803619385, 1.049757480621338, 1.2548069953918457, -0.1495501846075058, 0.34855490922927856, 0.010860773734748363, -1.7646760940551758, 0.638274073600769, -0.5731524229049683, 0.8240181803703308, -0.5039479732513428, 0.1455889344215393, 0.2908797264099121, 0.2947220504283905, 0.37363141775131226, -0.045352160930633545, -0.2881041169166565, -0.9525579214096069, -0.05481031909584999, -0.9371411204338074, 0.37808290123939514, 0.3407294452190399, -0.1959536075592041, -0.7738986611366272, -0.5954080820083618, 0.41114869713783264, -0.017712155357003212, 0.003302778583019972, 0.22870106995105743, -1.3632093667984009, 1.3605633974075317, -0.638525128364563, 0.8067799210548401, 0.12284635007381439], [-0.016802659258246422, -0.0342625193297863, -0.021345075219869614, 0.0033681299537420273, -0.018800335004925728, -0.02621159330010414, 0.016174186021089554, -0.013733080588281155, 0.011268219910562038, -0.0013406336074694991, 0.026453332975506783, -0.005999634508043528, -0.015088686719536781, 0.015475497581064701, -0.007930763997137547, 0.0006253686151467264, -0.02881087176501751, -0.01140963938087225, 0.022934865206480026, -0.015043211169540882, 0.0178788173943758, 0.036589186638593674, 0.002934584626927972, -0.01118130050599575, 0.008647104725241661, 0.02953367866575718, -0.02654852718114853, 0.010159272700548172, -0.02042895182967186, -0.0009466793271712959, -0.02874753624200821, 0.016919707879424095, 0.013013801537454128, -0.018748251721262932, 0.0007386314682662487, -0.005988617427647114, 0.01806792989373207, 0.013552860356867313, -0.022547461092472076, 0.018289761617779732, -0.004212435334920883, -0.0021531975362449884, -0.007534502539783716, -0.001979529159143567, -0.004443923011422157, -0.005306515377014875, -0.003173860488459468, 0.0004648210888262838, -0.014919293113052845, -0.0017953651258721948, -0.006253817118704319, -0.0008051952463574708, -0.010520716197788715, -0.00044850216363556683, -0.006155734416097403, -0.0016121185617521405, -0.007400032132863998, 0.006776784546673298, 0.0018180308397859335, -0.007013496942818165, -0.011575388722121716, -0.006607724353671074, 0.0015438133850693703, 0.0065430765971541405, -0.007118429057300091, -0.013382933102548122, 0.003256598487496376, -0.01190883293747902, 0.007039299234747887, -0.006079013459384441, -0.0007642062264494598, -0.014239362441003323, -0.008956696838140488, 0.0053605614230036736, -0.0019317357800900936, 0.007672654930502176, 0.001280159573070705, -0.007990111596882343, 0.00018906424520537257, -0.003650591941550374, -0.008551394566893578, 0.0066285752691328526, -0.005921536590903997, 0.006940169725567102, 0.0017105262959375978, -0.002104520332068205, -0.004185989499092102, -0.00040078177698887885, -0.0035414942540228367, -0.0012304115807637572, 0.00270144734531641, -0.004889539442956448, -0.003399959532544017, 0.0032129690516740084, -0.0010438528843224049, -0.0024537667632102966, 0.001267576590180397, -0.00043560215272009373, -0.01415646355599165, 0.0011720788897946477, 0.0002632002579048276, -0.004515333566814661], [-0.17598752677440643, -0.07307746261358261, -0.22528018057346344, -0.06182221695780754, 0.0023056352511048317, -0.20273983478546143, -0.834581732749939, -0.2311389297246933, -0.7412935495376587, -0.15496599674224854, 0.07041416317224503, -0.3314070701599121, -0.6236324906349182, -0.06377526372671127, -0.31829768419265747, -0.6255117654800415, -0.7805023193359375, 0.007113779429346323, -0.3524584174156189, -0.17417587339878082, -0.5392495393753052, -0.3466884195804596, -0.32266485691070557, -0.04992764815688133, 0.0033158098813146353, -0.5065563321113586, -0.25910916924476624, -0.2616788446903229, -0.17822249233722687, -0.5267288684844971, -0.15854890644550323, -0.6154916286468506, -0.6099520921707153, -0.13250961899757385, -0.30896660685539246, -0.6713154911994934, -0.4719899296760559, 0.002188207348808646, -0.3692588806152344, -0.2869090139865875, -0.5725404620170593, 0.2074829488992691, -0.48544666171073914, -0.1989239752292633, 0.1565280705690384, 0.044839680194854736, -0.23629720509052277, -0.3843922019004822, 0.3472217321395874, -0.4820192754268646, 0.3911956548690796, 0.3551985025405884, -0.16521000862121582, -0.15776023268699646, 0.4604354500770569, 0.10376303642988205, -0.3484574556350708, 0.18833038210868835, -0.002927265362814069, 0.5190925598144531, -0.4062044322490692, -0.14132645726203918, 0.1505216807126999, -0.10564751923084259, 0.3088960647583008, 0.100413978099823, 0.23138771951198578, 0.3118889629840851, 0.2243490070104599, -0.32556208968162537, -0.4993562400341034, 0.004739922937005758, -0.02187640219926834, -0.7129853367805481, -0.33048149943351746, -0.2801780104637146, 0.36674338579177856, -0.24559643864631653, -0.2996022701263428, -0.5442050099372864, -2.1185874938964844, -0.06640394777059555, 0.3597409129142761, 0.6770623922348022, 0.4833689033985138, -0.17274567484855652, 0.06719816476106644, 0.24767225980758667, -0.0353093147277832, 0.470885694026947, 0.20506040751934052, 0.9537841081619263, 0.46794968843460083, 0.3177258372306824, 0.4474312663078308, 0.27516621351242065, 0.326855331659317, -0.08463098853826523, 0.6072983741760254, 0.34051403403282166, 0.656182587146759, 0.19031496345996857], [-0.03540479391813278, 0.008517761714756489, -0.02471708320081234, -0.02981763705611229, 0.03933141380548477, -0.003156686667352915, -0.03876405209302902, 0.0059045287780463696, 0.02622941881418228, 0.06539280712604523, 0.029503433033823967, 0.012885100208222866, 0.027178199961781502, -0.0005672967527061701, 0.08233514428138733, -0.0009474718826822937, -0.06730173528194427, 0.01014656014740467, 0.022909024730324745, 0.03775550797581673, 0.04383007064461708, -0.0094620855525136, 0.02835330367088318, 0.033408720046281815, -0.02913256734609604, 0.0025422796607017517, 0.03487071767449379, 0.00021828379249200225, -0.02163245715200901, -0.047676365822553635, -0.019796553999185562, 0.001114733750000596, -0.028202325105667114, 0.0028335268143564463, -0.07436449825763702, -0.0003000223368871957, 0.06385096907615662, -0.018482055515050888, -0.026777511462569237, -0.028549987822771072, 0.005784970708191395, 0.0028319330886006355, 0.0013383321929723024, 0.0004306469054426998, -0.00440975883975625, 0.0029671317897737026, -0.00019899221661034971, 0.00200175610370934, 0.008959819562733173, -0.0032727867364883423, -0.00343914981931448, 0.0024335579946637154, -0.008556468412280083, -0.00848861038684845, -0.007301358971744776, 0.00042804755503311753, -0.0022161337547004223, 0.0038855941966176033, 0.007562832906842232, -0.004687426146119833, 0.002998923184350133, 0.0026023872196674347, -0.004199556540697813, 0.0045834188349545, 0.006250098347663879, -0.0069666472263634205, -0.0014876003842800856, 0.007088801357895136, 0.0024077226407825947, -0.011720013804733753, 0.0028938038740307093, -0.008092422038316727, -0.003325941739603877, 0.017033591866493225, -0.013616961427032948, -0.009097451344132423, -0.0064070383086800575, 0.007094827946275473, 0.00508596608415246, 0.0004116823838558048, 0.001758179860189557, -0.0040386090986430645, -0.0005263162311166525, 0.002799462992697954, -0.0014986649621278048, 0.0048014079220592976, 0.0020275358110666275, -0.003616578644141555, 0.001532540307380259, -0.0005302374484017491, 0.003607738297432661, 0.003646968398243189, -0.008795167319476604, 0.010143077932298183, 0.006523658987134695, 0.011536622419953346, -0.00029338858439587057, 0.003646991914138198, 0.0007914042798802257, -0.0001634696964174509, 0.0070616151206195354, 0.001075430423952639], [0.6085408926010132, -0.18035690486431122, 0.23178641498088837, 0.7340834140777588, 0.5525702238082886, -0.8033938407897949, 0.7048879861831665, 0.3720076084136963, 0.8738394975662231, -0.24011555314064026, -0.12507642805576324, -0.7088988423347473, -0.23018768429756165, 0.430573433637619, 0.17142872512340546, -0.7005187273025513, 0.7038286924362183, -0.7830082178115845, 0.600922167301178, -0.3296315371990204, 0.4269815683364868, 0.6547707319259644, 0.7992493510246277, 0.143312007188797, 0.43970268964767456, -0.33234673738479614, 0.017014753073453903, 0.19126680493354797, -0.21438190340995789, 0.23040571808815002, 0.25927266478538513, 0.13766264915466309, -0.18975894153118134, -0.027280623093247414, 0.8389726877212524, -0.5698622465133667, 0.22541889548301697, -0.6718953251838684, 0.14779388904571533, -0.3043767213821411, 0.09882602840662003, 0.7387494444847107, 0.3128811717033386, -0.31218603253364563, -0.6643635034561157, -0.271822452545166, -0.14825434982776642, -0.1448557823896408, -1.0941801071166992, -1.6586185693740845, 0.08080041408538818, 0.7080071568489075, 0.52958744764328, 0.6989294290542603, 0.09684402495622635, -1.1102765798568726, 0.442596435546875, 0.849127471446991, -0.7763294577598572, 0.47227945923805237, 0.7271735072135925, -0.5123586058616638, 0.19762450456619263, -1.760500192642212, -0.19077737629413605, -1.1505242586135864, 0.3150780498981476, 0.8452535271644592, 0.19058175384998322, 0.027157597243785858, -0.00997824128717184, -0.04776253178715706, -1.292304277420044, 0.16395151615142822, -0.2373599112033844, 0.2782560884952545, 0.2057407796382904, 0.9308669567108154, -1.2542427778244019, -0.967530369758606, 1.2721927165985107, -0.534124493598938, -0.8212469816207886, -0.25673729181289673, 0.7253255248069763, -0.39395812153816223, -0.2677520513534546, -0.24074599146842957, 0.8604205846786499, 0.028139706701040268, 0.5923730134963989, -0.6554291248321533, -0.5665571689605713, 0.9594478607177734, 0.7874748706817627, -0.4406495988368988, -0.14770115911960602, -0.7436337471008301, 0.013340558856725693, -0.4871942102909088, -0.3413577675819397, 0.21298478543758392], [0.1379549652338028, 0.620705246925354, 0.41340959072113037, -0.2634963393211365, -0.34425920248031616, -0.10637960582971573, -0.3001447319984436, 0.14231142401695251, -0.38428202271461487, -0.35064107179641724, 0.24344459176063538, -0.046898193657398224, 0.6850794553756714, 0.4286038875579834, -0.1856606900691986, 0.0763675719499588, 0.5622920989990234, 0.4095081090927124, 0.2591126561164856, -0.1851687878370285, -0.024928290396928787, 0.16713392734527588, 0.29784122109413147, -0.6858197450637817, -0.1560669094324112, 0.13762766122817993, -0.2620599567890167, 0.12739208340644836, -0.25146472454071045, 0.31782710552215576, -0.2979024350643158, -0.04100196436047554, -0.06056550145149231, -0.019949156790971756, -0.005264489911496639, 0.7534658312797546, 0.11394747346639633, -0.3656935393810272, -0.1445949375629425, -0.46330350637435913, -0.857704222202301, -0.4140762984752655, -1.341506838798523, -0.23406432569026947, 0.36071184277534485, 0.7309626340866089, 0.06211278960108757, -0.30947673320770264, 0.32262492179870605, -0.7490828037261963, 0.8374543786048889, 0.12344712018966675, -0.8490697741508484, -0.21535106003284454, 0.21526999771595, -0.5961114168167114, -0.24427840113639832, 0.26977068185806274, -0.6715219616889954, -1.2324541807174683, 0.8770840764045715, -0.7946983575820923, -0.5605690479278564, 0.08165204524993896, 1.2118563652038574, 0.263762891292572, 0.4243338108062744, -0.9012179970741272, 1.5391970872879028, 0.2816881537437439, -0.44080933928489685, 0.876354455947876, -0.8398283123970032, -0.1809690296649933, -0.6519323587417603, -0.3795049488544464, -0.15031670033931732, 0.13119734823703766, 0.8444533944129944, -1.2430797815322876, -0.2110418677330017, 0.35150983929634094, 0.10939933359622955, 0.597764790058136, -0.15681014955043793, 0.12167458981275558, -0.503639817237854, -0.5191587209701538, -0.09614264219999313, -0.13285115361213684, 0.30246058106422424, 0.17818155884742737, -0.6981702446937561, 1.2731797695159912, -0.12298165261745453, -0.0009245388791896403, -0.6611374020576477, -0.032596491277217865, -0.16037560999393463, 0.5626922845840454, 0.6920136213302612, -0.2623021602630615], [0.013558365404605865, -0.024059057235717773, -0.02745063044130802, 0.003567805979400873, -0.03266746550798416, -0.009936931543052197, -0.014168411493301392, -0.014698516577482224, -0.00886012427508831, -0.023906296119093895, -0.021484872326254845, -0.0045553408563137054, -0.02311217412352562, 0.0236220546066761, -0.01276286318898201, -0.025882506743073463, 0.01055270154029131, 0.022864481434226036, 0.027560964226722717, -0.015097805298864841, -0.01100549940019846, 0.028519149869680405, 0.02417893335223198, -0.0035151424817740917, 0.024700073525309563, 0.01330641657114029, 0.016155751422047615, 0.020699327811598778, 0.0052730729803442955, 0.017804112285375595, 0.02307938039302826, 0.012229577638208866, 0.025450527667999268, -0.012498045340180397, 0.0050047338008880615, 0.03352497145533562, -0.004143705125898123, -0.023330040276050568, -0.024976694956421852, 0.02332792617380619, 0.0004108216380700469, 0.0029045334085822105, 0.006747400388121605, 0.006243233103305101, -0.0011294296709820628, 0.004140020348131657, -0.0021997580770403147, 0.0020660399459302425, 0.010379282757639885, -0.002746045356616378, -0.0029925117269158363, -0.002200704300776124, 0.005039182025939226, 0.008992716670036316, 0.00587683729827404, 0.0060110013000667095, -0.0009214284364134073, -0.008802073076367378, -0.007911537773907185, -2.894403769460041e-05, 0.010093041695654392, -0.002365185646340251, -0.0031744949519634247, 0.007496706210076809, 0.0032149890903383493, -0.00870471727102995, -0.01128560584038496, 0.008424816653132439, -0.007771078497171402, 0.01454355102032423, 0.005172474309802055, -0.001114236074499786, 0.002858042949810624, -0.007235824596136808, 0.007250340189784765, -0.0018708613933995366, -0.0009791315533220768, -0.0005585594335570931, 0.0013703193981200457, -0.009180102497339249, 6.201036012498662e-05, 0.0008324220543727279, 0.010985967703163624, -0.004096528515219688, -0.003337403992190957, 0.002303843153640628, 0.0025464273057878017, -0.00040619054925628006, -0.0035220866557210684, 0.00262142694555223, 0.0025961995124816895, 0.007996032014489174, -0.0008020330569706857, -0.0029713083058595657, 0.0014040368841961026, 0.007615511305630207, -0.0021401678677648306, 0.0050218538381159306, 0.0068177031353116035, -0.001368880388326943, -0.00012559826427605003, -0.002272035926580429], [0.03321891278028488, -0.025044623762369156, -0.030962135642766953, -0.02484230510890484, -0.011009431444108486, -0.0003348382015246898, -0.027160855010151863, 0.024109207093715668, -0.019747044891119003, -0.00039373402250930667, 0.03796062245965004, -0.006040723528712988, 0.0051644169725477695, 0.003769055474549532, -0.03510972857475281, -0.0037089502438902855, 0.013776176609098911, -0.01871028169989586, 0.06328193098306656, -0.005824631080031395, -0.022369995713233948, 0.026078760623931885, 0.0198983047157526, 0.029142683371901512, 0.015666982159018517, 0.008516121655702591, 0.020615583285689354, -0.01268127653747797, 0.014834020286798477, -0.007311402354389429, -0.03458121418952942, 0.004326485097408295, 0.005882651545107365, -0.004542192444205284, 0.037032969295978546, 0.005752125289291143, -0.008242601528763771, 0.013632980175316334, -0.071052685379982, 0.006685675587505102, -0.0006645130924880505, 0.0026127623859792948, 0.003613289212808013, -0.0032059515360742807, -0.003272832138463855, -0.0038974739145487547, 0.0016365296905860305, -0.001393898157402873, 0.00482765631750226, 0.006742366589605808, -0.0011783887166529894, 0.0024678825866431, -0.0063379909843206406, 0.011161761358380318, -0.0029396014288067818, 0.0038816588930785656, 0.010061144828796387, 0.0006718349177390337, -0.0020335253793746233, -0.014169910922646523, 0.004517261404544115, 0.020442001521587372, -0.011913638561964035, 0.010451609268784523, -0.02196706086397171, -0.014748424291610718, 0.00578291667625308, -0.013581587001681328, 0.0005263594794087112, 0.0010382795007899404, -0.0021128507796674967, -0.005939112044870853, -0.007858103141188622, -0.003439884399995208, -0.009632379747927189, 0.0019209060119464993, -0.003226965432986617, -0.0022901513148099184, 0.005841668229550123, 0.00028837882564403117, -0.00794976670295, 0.004955017473548651, -0.004538231063634157, -0.0012775106588378549, -1.2189883818791714e-05, 6.428847700590268e-05, -0.00045343191595748067, 0.0026560237165540457, 0.004651345312595367, 0.0012648769188672304, -0.01102370023727417, 0.00017212954116985202, 0.004446905106306076, 0.0025388130452483892, 0.004826697055250406, 0.0019228856544941664, -0.005737369880080223, -4.291265577194281e-05, -0.003620316507294774, -0.004338380880653858, 0.0014607780613005161, -0.005710274446755648], [-0.009429417550563812, -0.08561413735151291, -0.04348160699009895, -0.05161026865243912, 0.0025122256483882666, -0.011483917944133282, -0.04853197932243347, 0.06867574155330658, 0.1285446137189865, 0.06746251881122589, 0.013947813771665096, 0.005249853245913982, 0.1037515252828598, 0.07635223865509033, -0.14430439472198486, -0.11932282149791718, 0.06401629745960236, -0.016712414100766182, 0.054505325853824615, -0.028822416439652443, 0.008404755033552647, 0.07882781326770782, 0.04982547089457512, 0.042434316128492355, 0.0101063447073102, 0.00912515725940466, 0.04241672530770302, -0.03282753750681877, -0.1257447749376297, -0.06339819729328156, -0.00690066535025835, -0.017440620809793472, -0.08556007593870163, -0.05490861460566521, 0.13458222150802612, 0.11058090627193451, -0.04206586629152298, 0.01894715055823326, -0.04712911322712898, 0.04047756269574165, 0.007682957220822573, 0.0016959093045443296, -0.007040410302579403, -0.011946969665586948, 0.011813964694738388, 0.004127573687583208, -0.0009499879670329392, -0.007584778591990471, 0.00465096952393651, 0.017859088256955147, -0.01800565794110298, -0.013161364011466503, -0.0005844624247401953, -0.002870711265131831, 0.004014468286186457, 0.0015275664627552032, 0.0013810895616188645, -0.001550444751046598, -0.0027779522351920605, 0.00832373183220625, -0.006945409346371889, 0.005019978620111942, -0.023463495075702667, 0.01779639534652233, -0.0064718108624219894, -0.008372459560632706, -0.012354135513305664, -0.028636213392019272, -0.009908614680171013, 0.01504447590559721, 0.004715459421277046, 0.004681671038269997, -0.01598373055458069, -0.004643506370484829, -0.025900542736053467, -0.010338417254388332, -0.028676697984337807, -0.001627567457035184, -0.009085416793823242, -0.031243976205587387, 0.0002530673809815198, -0.004845229908823967, 0.005384675692766905, 0.0023924626875668764, -0.0014570114435628057, -0.007980834692716599, 0.010415012016892433, 0.004204848315566778, 0.009801279753446579, 3.3735202578100143e-06, -0.0032283267937600613, 0.017022589221596718, 0.006087558809667826, -0.018134651705622673, 0.005987850949168205, 0.012358158826828003, -0.001653673010878265, 0.004400582984089851, 0.00332388817332685, 0.011275154538452625, -0.00673510180786252, -0.002439610892906785], [0.8098180294036865, -0.31784358620643616, -0.43381139636039734, -0.19572468101978302, 0.922984778881073, 0.13069500029087067, -0.42761051654815674, 0.487484872341156, -0.9200959205627441, 0.7869530320167542, 0.4301263391971588, 0.05646324157714844, -0.5820954442024231, 0.4108537435531616, 0.20560437440872192, 0.0808042511343956, -1.1007630825042725, -0.5245440006256104, 0.4742065668106079, -0.3377613425254822, 0.12997622787952423, -0.24356254935264587, -0.11446364223957062, -0.6933767795562744, 0.9174993634223938, -0.5349738001823425, -0.3515576720237732, 1.13508141040802, -0.2508249282836914, 0.03957691043615341, 0.4043678343296051, 0.051205992698669434, 0.3810364603996277, 0.7673713564872742, 0.0752904936671257, -0.1303766816854477, -0.2961704134941101, 0.052758242934942245, -0.07528739422559738, -0.594693124294281, -0.784970223903656, 0.4783109426498413, -1.0125503540039062, -0.7885708808898926, -0.25471726059913635, 1.020310401916504, 0.31260815262794495, -0.7847877740859985, -1.5410172939300537, 0.8948944807052612, -0.061237968504428864, -0.4037061035633087, -0.011918101459741592, -0.5897315740585327, 0.39576032757759094, 0.96607905626297, -0.24173375964164734, -0.18673285841941833, -0.13507194817066193, -0.09765060245990753, -0.6655229926109314, 0.6400725245475769, -0.058753855526447296, 0.7682631015777588, 0.4749199151992798, 0.8075108528137207, -0.004419289063662291, 0.0290440171957016, -0.3717646896839142, 1.0726765394210815, 0.8031980991363525, -0.8367360830307007, 0.6096230149269104, -1.3311859369277954, 1.1141988039016724, 0.03305542469024658, -0.989149272441864, -0.017971394583582878, -0.8543043732643127, 0.9873409867286682, -1.4304012060165405, -0.31787407398223877, 0.42137715220451355, 0.410075843334198, -0.15680822730064392, 0.33101800084114075, -0.7702774405479431, 0.9796677827835083, 0.06023619696497917, -0.08500710874795914, 0.45676517486572266, 0.8820677995681763, 0.392364501953125, -0.6274763345718384, -1.9904558658599854, 0.10147687792778015, -0.5948963165283203, 0.18235176801681519, -0.07288806140422821, -0.17868568003177643, -0.10370901226997375, 0.501090407371521], [0.0014017733046784997, 0.022862575948238373, -0.012693787924945354, 0.02537895180284977, -0.012769317254424095, 0.016701366752386093, 0.0013535738689824939, -0.023550784215331078, -0.009328559972345829, -0.012260292656719685, -0.0036020090337842703, -0.01892479881644249, 0.0005126919131726027, 0.01073153130710125, -0.016495799645781517, -0.02840726636350155, -0.034777991473674774, 0.017334086820483208, 0.01312890276312828, -0.02398850955069065, 0.007700119633227587, -0.012463622726500034, 0.005795679520815611, -0.02549266815185547, 0.018666813150048256, -0.013803788460791111, 0.009427111595869064, 0.01500040851533413, 0.021557116881012917, 0.015223659574985504, -0.014614809304475784, 0.025668827816843987, 0.00039033853681758046, -0.006399418227374554, 0.00873338058590889, 0.016902325674891472, 0.03709687665104866, -0.018784331157803535, -0.010129003785550594, 0.02632024511694908, -0.003837816184386611, -0.0027669116389006376, -0.002375701442360878, -0.0006813067011535168, -0.0028407664503902197, -0.004450131207704544, 0.0015795824583619833, 0.0032803916838020086, -0.005359740927815437, 0.0011533790966495872, 0.004960034042596817, 0.009842615574598312, 0.005073060747236013, 0.007084343582391739, 0.00553949223831296, -0.011851336807012558, -0.0053565907292068005, 0.009776996448636055, 0.0038204225711524487, -0.0029785074293613434, 0.0009726807475090027, -0.011302339844405651, 0.010412897914648056, 0.017407715320587158, -0.01347054447978735, 0.012614382430911064, -0.0045861536636948586, 0.0041030109860002995, -0.005118983332067728, -0.006688855122774839, 0.008153256960213184, -0.009719742462038994, 0.011175068095326424, -0.014790629036724567, 0.004688938148319721, 0.0018395953811705112, -0.000507683667819947, 0.0023585730232298374, -0.010338754393160343, 0.00530792074277997, -0.004061262123286724, 0.009927324019372463, 0.005743395537137985, 0.007137075532227755, 0.0026643634773790836, 0.005738688632845879, -0.002299246611073613, 0.0014103517169132829, 0.0023699128068983555, 0.011016021482646465, -0.0020927900914102793, -0.0006545725045725703, -0.005401273258030415, 0.00030728764249943197, -0.0022542993538081646, -0.005020643584430218, 0.0062916697934269905, 0.003241827478632331, -0.006995157804340124, -0.010768701322376728, 0.004203262273222208, 0.002236577682197094], [0.47942012548446655, 0.27439314126968384, 0.10888578742742538, -0.27577945590019226, -0.8821927309036255, -0.663478434085846, -0.7000172734260559, -0.0037552015855908394, 0.23505699634552002, -0.07920456677675247, 0.0472383014857769, -0.692045271396637, 0.08219539374113083, 0.6868533492088318, 0.4312136471271515, 0.40240365266799927, -0.7077410817146301, 0.5312716364860535, 0.33431437611579895, -0.04617137834429741, 0.404013454914093, 0.3497292697429657, -0.09146606922149658, -0.18638859689235687, -0.5837992429733276, -0.2995775640010834, -0.864445149898529, 0.4774942100048065, 0.24790504574775696, -0.2534310519695282, -0.20842474699020386, -0.664721667766571, 0.4968435764312744, 1.0495238304138184, -0.3813042938709259, 0.4976940155029297, 0.00943274237215519, -0.5617327690124512, 0.589846134185791, -0.8018524050712585, 0.9669948816299438, 0.015466015785932541, 0.35800403356552124, -0.502758800983429, -0.97711181640625, 0.5509831309318542, 1.1301051378250122, -0.18247056007385254, 0.9129294157028198, -1.0915557146072388, 0.2750735282897949, -0.6031778454780579, -1.053635835647583, -0.3225124478340149, 0.1219978854060173, 0.18027639389038086, 0.28963202238082886, 0.27175822854042053, -0.16005808115005493, -0.8110193610191345, -1.5777860879898071, -0.059889182448387146, 0.11750510334968567, 0.29987776279449463, -0.9140132069587708, -0.3867437541484833, -0.5254999399185181, -0.4497632086277008, 1.4029450416564941, 1.2378453016281128, -0.2253877818584442, 0.635028064250946, 0.589323878288269, -0.8000656962394714, -0.6484450697898865, 0.4927377998828888, 0.8957492709159851, 0.18718533217906952, 1.3154246807098389, -1.092820405960083, 0.30997234582901, -0.37219104170799255, -0.1634046882390976, 0.5835416913032532, 1.0480989217758179, 0.7695068120956421, 0.01067617442458868, 0.754296600818634, -0.30031439661979675, -0.4118509888648987, 0.3641611337661743, -0.1639738529920578, -0.6104064583778381, -0.5441446900367737, -0.2409173995256424, -1.5370557308197021, -0.08108427375555038, 1.1814956665039062, 0.21380378305912018, 0.2881492078304291, 0.663180947303772, 0.34173300862312317], [0.00651851762086153, -0.03293323889374733, 0.041916124522686005, 0.025543726980686188, -0.00265631009824574, -0.019555989652872086, -0.020621413365006447, 0.020861370489001274, 0.023235663771629333, 0.005105399526655674, 0.00038945916458033025, -0.007562810555100441, -0.019908923655748367, 0.016960155218839645, -0.022064071148633957, 0.008378561586141586, 0.034838054329156876, -0.029283976182341576, 0.013886816799640656, 0.03567981347441673, -0.004745670594274998, 0.032635487616062164, -0.05193770304322243, -0.02220316044986248, -0.0023754024878144264, 0.01742393895983696, 0.01251449715346098, -0.007152116391807795, -0.024039888754487038, -0.014535397291183472, -0.015925493091344833, 0.0033240560442209244, 0.015742484480142593, -0.011556667275726795, 0.017819654196500778, -0.007002486847341061, -0.03265676274895668, 0.026774214580655098, -0.008077606558799744, -0.034885045140981674, -0.004577932879328728, 0.00632139528170228, -0.005790499038994312, -0.004670287016779184, -0.008439277298748493, 0.004422641824930906, 0.006300570908933878, -0.0017110847402364016, 0.001214678050018847, 0.0016551155131310225, -0.021625787019729614, -0.00022345708566717803, -0.01085680816322565, -0.005447569768875837, -0.0023878789506852627, 0.005430690012872219, -0.007981894537806511, 0.008408884517848492, 0.0012693904573097825, 0.015750756487250328, -0.006976058706641197, -0.006505283061414957, 0.007264240644872189, -0.010615047067403793, 0.005350043065845966, -0.0110950181260705, 0.026130205020308495, -0.016531705856323242, -0.01976308412849903, 0.004530023783445358, 0.006008221302181482, -0.0009548006928525865, -0.005898979492485523, 0.009726827032864094, 0.00892635527998209, -0.0060123722068965435, -0.00477265939116478, -0.015008090995252132, -0.011070073582231998, -0.008737840689718723, 0.0006859111017547548, 0.00048393860924988985, -0.005770386196672916, 0.0016813634429126978, -0.0056677935644984245, 0.003500312101095915, 0.002437746850773692, -0.014099890366196632, -0.0071822283789515495, -0.006838799454271793, -0.007030870299786329, 0.0010394277051091194, -0.004311498254537582, -0.009383734315633774, -0.0036785511765629053, -0.001222306047566235, -0.0023821808863431215, 0.00157830398529768, 0.003108469070866704, 0.006637075915932655, -0.0030000214464962482, -0.004449003841727972], [0.02031487040221691, -0.015110419131815434, 0.0036239714827388525, 0.01440530363470316, -0.03542781248688698, -0.01078395638614893, -0.015160640701651573, 0.0007813359843567014, 0.010533010587096214, -0.019071538001298904, -0.0026539089158177376, -0.01108485460281372, 0.0005894608329981565, -0.014657339081168175, -0.0006790118641220033, 0.0010837129084393382, 0.029607973992824554, -0.014734216034412384, 0.029710792005062103, 0.029793834313750267, -0.023966550827026367, 0.019205959513783455, -0.006319526582956314, -0.013180295005440712, 0.025521233677864075, 0.011241408996284008, 0.015562038868665695, -0.008241018280386925, -0.013186784461140633, 0.01734527014195919, -0.004563522525131702, 0.006859164219349623, -0.004597210790961981, 0.006348980125039816, 0.010310852900147438, 0.007923762314021587, -0.0252989549189806, 0.011456849984824657, -0.03425651043653488, -0.029958482831716537, -0.009575702250003815, -0.0034273136407136917, 0.0028647922445088625, -0.007417880930006504, 0.00048465473810210824, 0.003883801866322756, 0.010088198818266392, -0.005822564475238323, -0.0014647204661741853, -0.0004938960773870349, -0.0070617180317640305, -0.0028056115843355656, 0.0072927833534777164, 0.005409094039350748, -0.00691973278298974, 0.0004413615388330072, -0.00794735923409462, 5.706222509616055e-06, -0.010884683579206467, -8.399441139772534e-05, -0.005317675415426493, -0.001032635453157127, -0.002318271202966571, -0.007814457640051842, -0.003214388620108366, 0.006050450261682272, 0.00990558136254549, -0.01179991103708744, -0.0003249193250667304, 0.006974929943680763, 0.005492416210472584, -0.008754659444093704, 0.006224116776138544, -0.0037167593836784363, 0.0021979566663503647, 6.656858749920502e-05, -0.002139987191185355, -0.0031105740927159786, 0.004074164666235447, -0.010923338122665882, 0.005291868466883898, -0.002178280148655176, -0.00836864486336708, -0.0022226276341825724, 0.00010160809324588627, -0.0013271609786897898, -0.005514395888894796, -0.002084349514916539, 0.005619360599666834, -0.0006385617889463902, -0.0047066607512533665, 0.004633553791791201, 0.005964307114481926, -0.005181157495826483, 0.0017137754475697875, 0.0030692825093865395, 0.0007797614089213312, -0.0011306616943329573, -0.005144461058080196, -0.0005209333612583578, -0.00046550031402148306, 0.0013229643227532506], [-0.2807442545890808, -0.014890429563820362, -0.17922286689281464, 0.3066815733909607, -0.8644068241119385, -0.10254405438899994, -0.3315615653991699, -0.28806689381599426, -0.4205392897129059, 0.47955429553985596, 0.08270303905010223, -0.6343975067138672, 0.15653318166732788, 0.27691569924354553, 0.34391698241233826, -0.21750609576702118, -0.88770592212677, 0.1616578996181488, -0.6838778853416443, -0.3654070198535919, -0.23059743642807007, -0.1251477748155594, -0.3857063055038452, 0.25661420822143555, -0.904575765132904, -0.14998656511306763, -0.11197078973054886, 0.045016419142484665, 0.24408505856990814, 0.1528119146823883, -0.0751597061753273, -1.1166605949401855, 0.05189455673098564, 0.4462575912475586, 0.2988816499710083, -0.5005509257316589, -0.309256374835968, -0.1326281577348709, -0.6417441964149475, -0.3759928047657013, 0.2090202122926712, -0.1787189394235611, 0.013258140534162521, 0.08446376025676727, 0.4722820222377777, -0.16870933771133423, 0.17598946392536163, -0.05018454045057297, 0.41990503668785095, 1.3774001598358154, -0.32771268486976624, -0.288781076669693, -0.16833890974521637, -0.12921276688575745, 0.5277869701385498, 0.3026948869228363, -0.35574236512184143, -0.11249890178442001, -0.214307963848114, -0.04936085268855095, 0.5050083994865417, -0.7204870581626892, -0.8600822687149048, 0.1727227121591568, 0.847547709941864, 0.3558909595012665, 0.09178779274225235, 0.09648741781711578, -0.15590687096118927, -0.020607369020581245, -0.02132590301334858, -0.5767582654953003, 0.5251396894454956, 0.0538690984249115, -0.14058656990528107, 0.5220628380775452, 0.19304370880126953, -0.04596385359764099, -0.5748399496078491, 0.11550340056419373, -3.2251675128936768, 1.1195125579833984, 0.24254998564720154, -0.36898019909858704, 0.3430268168449402, 0.07815895974636078, -0.3486365079879761, 0.3670335114002228, 0.018751464784145355, -0.3685203492641449, 0.7181702852249146, 0.12804529070854187, 0.14799286425113678, 0.04916604980826378, 0.8414509892463684, 0.6274261474609375, 0.5623315572738647, -0.1315586119890213, 0.8192819356918335, 0.6640618443489075, 0.05985303595662117, 0.6104212403297424], [0.001429744646884501, 0.005669037811458111, 0.005028807558119297, -0.0274210087954998, 0.011442819610238075, 0.028956199064850807, 0.0003789321635849774, 0.007159384433180094, -0.008957292884588242, -0.0023452735040336847, 0.0024591959081590176, 0.0012951645767316222, 0.03822065144777298, 0.0270709116011858, -0.026613878086209297, 0.027723966166377068, 0.01767529733479023, 0.030460838228464127, -0.017560768872499466, -0.010620956309139729, -0.010568142868578434, -0.010779640637338161, -0.004240047186613083, 0.021385591477155685, 0.003433604957535863, -0.037716884166002274, 0.002259977860376239, -0.013634130358695984, 0.01418367400765419, 0.003638417925685644, 0.006091592833399773, -0.00545210437849164, -0.04017114266753197, -0.02592509612441063, 0.022724302485585213, -0.032849229872226715, -0.02498508244752884, -0.03364519774913788, 0.018692733719944954, 0.005183394066989422, 0.001315786736086011, -0.00613034563139081, 0.004373682197183371, -0.004775453824549913, 0.002108983462676406, 0.0016115832841023803, -0.0055573140271008015, -0.006545764859765768, -0.012089953757822514, 0.005263454746454954, 0.0016181737883016467, -0.005542907398194075, 0.006913718767464161, -0.008629965595901012, 0.011272033676505089, 0.0027153915725648403, -0.005228032357990742, -0.0037096289452165365, 0.0034892328549176455, -0.0002561655128374696, -0.007303803693503141, -0.016101572662591934, 0.012274498119950294, 0.0046212016604840755, -0.010636466555297375, 0.025177258998155594, -0.011868348345160484, 0.000796478649135679, 8.742284990148619e-05, 0.0023925446439534426, 0.002116777701303363, 0.006663871929049492, 0.004963059443980455, -0.002491496503353119, -0.007675420492887497, 0.0061423988081514835, -0.001588516985066235, 0.004292760044336319, -0.0066421665251255035, 0.008780661970376968, 0.003988638054579496, -0.00332823907956481, -0.0017095429357141256, -0.005939319264143705, 0.005928908009082079, -0.00032117031514644623, 0.004500519018620253, 0.004166258033365011, 0.00284061161801219, 0.0034556558821350336, 0.006395974196493626, -0.0047028400003910065, 0.002845941809937358, -0.007267231587320566, 0.0030886686872690916, -0.008658673614263535, 0.0018843907164409757, 0.0012772884219884872, 0.0043859584257006645, 0.003442679066210985, 0.009381333366036415, 0.0017188165802508593], [0.8925080895423889, -0.27196255326271057, -0.3850996792316437, -0.044472355395555496, -0.800001859664917, 0.15866170823574066, -0.26259493827819824, -0.25514745712280273, -0.8945760130882263, 0.20537447929382324, 1.4223904609680176, -0.09957640618085861, -0.3409776985645294, 0.76511549949646, 0.4763502776622772, 0.5186070799827576, -0.7299612760543823, -0.19964076578617096, -0.03263826295733452, 0.10567673295736313, 0.3649754524230957, 0.28089457750320435, 0.3127313554286957, 0.10149496793746948, -1.5143907070159912, -0.08058014512062073, 0.11215339601039886, -0.24564915895462036, -0.727944016456604, 0.19638197124004364, 0.7953231930732727, -0.5581827163696289, -0.5127273797988892, 1.0438591241836548, 0.21345745027065277, -0.2164028137922287, -0.045445069670677185, -0.8241612315177917, 0.22598649561405182, -0.3383185863494873, -0.7915515899658203, 0.15697616338729858, 0.22000031173229218, -1.918311595916748, 0.5686510801315308, 0.11512622982263565, 1.582142949104309, -0.5032796263694763, 0.1902979612350464, -1.2007966041564941, 0.729844868183136, -0.2666536867618561, 0.09386645257472992, -0.9971764087677002, 1.9083157777786255, -0.4436767101287842, 0.0394599586725235, 0.07258941233158112, 0.11524394154548645, -0.4530694782733917, -0.5023776292800903, -1.3759534358978271, 0.9069658517837524, 1.202293872833252, -0.3125593364238739, 0.10203290730714798, 0.14098414778709412, -0.23943591117858887, 1.3141815662384033, -0.23046216368675232, -0.9274802803993225, 0.010904019698500633, 0.07472371309995651, -0.9409815073013306, -0.3773879408836365, 0.0077466513030231, 0.19794397056102753, 0.8291511535644531, -1.4879539012908936, 0.8460983633995056, -0.09643717110157013, 0.419575572013855, 0.09918075054883957, -0.668652355670929, 0.8752065300941467, -0.9781636595726013, -0.25279709696769714, 0.4290023148059845, -0.07243736833333969, -0.4687953591346741, -1.3050434589385986, 1.016997218132019, -0.04929044842720032, -0.47867077589035034, 0.7554290890693665, 0.925786018371582, -0.5608209371566772, 0.9822829961776733, 0.4296908378601074, -0.282658189535141, 0.13294003903865814, 0.24064044654369354], [-0.01132986880838871, -0.1186751127243042, 0.04904213920235634, 0.0624445416033268, -0.048528894782066345, -0.013650753535330296, 0.04061112180352211, -0.10061150044202805, -0.022212188690900803, 0.03251403942704201, 0.06151397153735161, -0.10205521434545517, 0.0044982340186834335, 0.04198063164949417, -0.1454145461320877, 0.015218707732856274, -0.045145198702812195, -0.0784410759806633, 0.05086119472980499, -0.02441440522670746, 0.02460756152868271, 0.13084766268730164, -0.0557396225631237, -0.060542620718479156, 0.0442010760307312, 0.022511882707476616, -0.049895744770765305, 0.11723833531141281, 0.014032581821084023, -0.02842063456773758, -0.060990478843450546, 0.09927968680858612, 0.003374605206772685, -0.038210902363061905, 0.14746050536632538, -0.013294095173478127, 0.05554043874144554, 0.07228212058544159, -0.03337319567799568, 0.03862148895859718, -0.02175692841410637, -0.00534177478402853, -0.01212109625339508, -0.000821335066575557, 0.009631176479160786, 0.007136375177651644, -0.010322590358555317, -0.02388685569167137, -0.016963861882686615, -0.005398816894739866, -0.01028398796916008, -0.010907873511314392, -0.0010672720381990075, 0.004209575243294239, 0.00141595967579633, -0.001006541308015585, -0.015298324637115002, 0.014859974384307861, 0.0009584386134520173, 0.013954276219010353, -0.04023551568388939, -0.021133361384272575, 0.018095146864652634, -0.00033949592034332454, -0.003575995098799467, -0.012446045875549316, 0.017854508012533188, -0.04903242364525795, -0.011360430158674717, 0.0002403560938546434, 0.00214878236874938, -0.007439142093062401, -0.014447935856878757, 0.005840163212269545, -0.014625806361436844, 0.00451854569837451, -0.013414443470537663, -0.007012250367552042, -0.01848669722676277, -0.022332431748509407, -0.0009792293421924114, 0.004033737350255251, 0.009645054116845131, 0.01381390355527401, -0.006246261764317751, -0.01069607213139534, 0.007188483607023954, -0.0053406525403261185, 0.003591029206290841, 0.004792702849954367, 0.004699166864156723, -0.009444736875593662, 0.0029375003650784492, -0.007131155114620924, 0.006118640769273043, 0.004926791414618492, -0.0041283490136265755, 0.011150908656418324, -0.012131772004067898, 0.007139553781598806, -0.00548037514090538, -0.004531667102128267], [-0.02090512029826641, 0.024976877495646477, 0.016062632203102112, 0.0010934009915217757, -0.0013329426292330027, 0.004105956293642521, -0.0212426595389843, 0.02883065864443779, -0.018956923857331276, -0.01974829100072384, -0.016618184745311737, -0.002793013583868742, 0.019133705645799637, -0.016628483310341835, -0.004954646807163954, 0.000193792802747339, 0.02413334511220455, -0.003616275265812874, -0.018504098057746887, 0.021853530779480934, 0.003800705075263977, -0.021653620526194572, -0.010402301326394081, -0.006192901637405157, 0.01029947679489851, -0.008086885325610638, 0.01962294615805149, -0.025786224752664566, 0.012160565704107285, 0.016319628804922104, 0.01863342896103859, 0.004607546143233776, -0.01523555163294077, 0.02165375091135502, 0.013666985556483269, 0.002919489750638604, -0.02350645884871483, -0.002485446399077773, 0.016007639467716217, -0.01456895750015974, -0.005926682613790035, -0.0042556351982057095, 0.004971994087100029, 0.0033404899295419455, 0.0022636468056589365, 0.003100776579231024, 0.0007507498958148062, 0.005646487232297659, 0.0039245858788490295, 0.004228816367685795, 0.005671905353665352, 0.004229176789522171, -0.008560112677514553, -0.0014246412320062518, 0.007716748397797346, -0.002971721114590764, -0.0009085851488634944, 0.0026113728526979685, 0.01588336192071438, -0.000905908877030015, 0.003116520354524255, 0.009707729332149029, -0.0047865998931229115, -0.00045168588985688984, -0.004475518595427275, 0.001963458489626646, -0.002128324704244733, 0.0035536536015570164, 6.572688289452344e-05, 0.003913089632987976, -0.0010459700133651495, 0.0017284421483054757, -0.005951096303761005, -0.015852773562073708, -0.00378248980268836, -0.001296327798627317, -0.0060009825974702835, 0.009697455912828445, -0.004673896357417107, 0.009172811172902584, 0.0035353987477719784, -0.00020769746333826333, 0.005775765050202608, -0.0014794826274737716, 0.0013315185206010938, 0.0033845712896436453, -0.01250392384827137, 0.009286665357649326, 0.0027137580327689648, 0.00012920038716401905, -0.00384498736821115, 0.0007130690501071513, 0.00047167562297545373, -0.002134398790076375, 0.005408447235822678, -0.0029819912742823362, -0.0008054440841078758, -0.00387908355332911, 0.0006478572031483054, -0.0012307497672736645, 0.008597919717431068, 0.004658114165067673], [-0.04939541593194008, -0.22482538223266602, -0.4235132336616516, -0.07772692292928696, 0.04289260134100914, -0.2604057490825653, -0.3742974102497101, -0.629024863243103, -0.48780736327171326, -0.04276268556714058, -0.18318520486354828, 0.12665286660194397, -0.528203547000885, -0.6016524434089661, -0.33227646350860596, 0.19933125376701355, -0.5371170043945312, -0.509989857673645, -0.1994335800409317, 0.08339381217956543, -0.20431560277938843, -0.10492472350597382, -0.5728758573532104, -0.08312129229307175, -0.22086861729621887, -0.43132203817367554, 0.3689919114112854, -0.5029763579368591, -0.06820960342884064, -0.42656269669532776, -0.47695034742355347, -0.23090820014476776, -0.37174680829048157, -0.7410358786582947, -0.043887726962566376, 0.3788619637489319, -0.33998391032218933, -0.45340973138809204, -0.22724688053131104, 0.152784064412117, 0.02101805992424488, -0.38245487213134766, 0.06003739684820175, 0.768336832523346, 0.41689908504486084, -0.07096119970083237, 0.028528433293104172, 1.2194653749465942, 0.1725877970457077, -0.013827001675963402, -0.574673056602478, -0.27328726649284363, -0.3562486469745636, -0.4474526643753052, 1.5286340713500977, -0.32571181654930115, -0.9107325673103333, 0.7555685639381409, -0.812107264995575, -0.9255010485649109, -0.2105707824230194, -0.5171722173690796, -0.03750847652554512, 0.36058732867240906, 0.3750075101852417, 0.18257151544094086, -0.6131835579872131, -0.5875132083892822, 0.6901781558990479, 0.1894938051700592, -0.42011508345603943, 0.10722169280052185, 0.4403437674045563, -0.8882113099098206, -0.07998719811439514, -0.12683036923408508, 0.980859100818634, -0.3660012185573578, -0.0009141706977970898, 0.416343629360199, -1.5880874395370483, 0.2848474681377411, -0.49494829773902893, 0.5255749821662903, 0.7419012188911438, 0.11789952218532562, 0.6116008758544922, 0.28682079911231995, 0.4710541367530823, 0.39883679151535034, 0.5652074217796326, 0.23098450899124146, 0.0055114408023655415, 0.3572794795036316, -0.24860285222530365, 0.8960283398628235, 0.06186409667134285, 0.012613413855433464, 0.9616643786430359, 0.3074522614479065, 0.40394923090934753, 0.19907920062541962], [0.007126824464648962, 0.02475779689848423, 0.052208270877599716, 0.00026818233891390264, -0.027491556480526924, -0.0016823094338178635, 0.018867742270231247, -0.01928633265197277, 0.027116723358631134, 0.0006036027334630489, 0.00731216836720705, 0.03162989765405655, -0.004046360030770302, 0.026955505833029747, 0.008071331307291985, 0.04334001988172531, 0.014050834812223911, 0.01101203914731741, -0.0037235768977552652, 0.008583624847233295, -0.00889625120908022, -0.027428066357970238, -0.05118941143155098, 0.005003641825169325, 0.03208736330270767, 0.011042056605219841, -0.017451293766498566, 0.024579845368862152, -0.02396387979388237, 0.0018449716735631227, -0.004362383857369423, -0.026493776589632034, -0.0006510969833470881, -0.01620265282690525, -0.003685467643663287, -0.04838448762893677, -0.014616879634559155, -0.007310264278203249, -0.0022486792877316475, -0.005071863066405058, 0.0021597258746623993, 0.000653691531624645, -0.001682870090007782, -0.012974868528544903, -0.003956817556172609, 0.017074529081583023, -0.002855042926967144, -0.0048499200493097305, 0.003623535856604576, -0.007244825828820467, -0.00603468669578433, 0.0046315002255141735, 0.001037984504364431, -0.005226845387369394, -0.0015993162523955107, -0.004008580930531025, 0.00278680631890893, 0.006618148181587458, -0.0011758869513869286, -0.0023541650734841824, -0.004789295140653849, -0.00805338378995657, 0.009658489376306534, -0.007857234217226505, 0.0006927767535671592, 0.00410772580653429, 0.011045368388295174, -0.002397679490968585, 0.012000476941466331, -0.0012369685573503375, 0.0020599542185664177, 0.0010576959466561675, 0.008226270787417889, -0.01219914946705103, 0.0033373399637639523, 0.0061463708989322186, -0.0019254398066550493, 0.009149880148470402, -0.007056765258312225, -0.00023039548250380903, 0.002756139263510704, 0.006167469546198845, -0.007557353936135769, 0.0034627746790647507, 0.007887981832027435, 0.006267883814871311, -0.013001778163015842, 0.012036123313009739, 0.0008435991476289928, -0.005804166197776794, 0.00997480284422636, 0.01384927611798048, -0.002487099962309003, -0.0032416561152786016, 0.0045746392570436, 0.0043803793378174305, 0.002331043826416135, 0.0027868833858519793, 0.002453282242640853, 0.002060120226815343, 0.003941588569432497, 0.0012210673885419965], [-0.3851279020309448, 0.12451644986867905, -0.053971000015735626, 0.35867568850517273, -0.3855612277984619, -0.18803218007087708, 1.0629925727844238, 0.1933727115392685, 0.33835527300834656, -0.17168784141540527, 0.16397450864315033, -0.27647122740745544, 0.9366637468338013, -0.0007023394573479891, 0.6251353621482849, -0.03774286061525345, -0.12164680659770966, 0.5203184485435486, 0.209625706076622, 1.3495678901672363, 0.08903864771127701, -0.7777217626571655, 0.09755771607160568, 0.33035704493522644, 0.20978230237960815, -0.0030443454161286354, 0.4833011031150818, 0.1550518423318863, 0.4271586537361145, 0.08144529908895493, -0.02433193288743496, 0.3310239315032959, 0.4721757471561432, 0.32029521465301514, -0.021407492458820343, 0.13735367357730865, -0.6257066130638123, 0.753038763999939, -0.009390033781528473, 0.6878961324691772, -0.4209742248058319, -1.0874388217926025, -0.5953763127326965, 0.4376975893974304, -0.4203845262527466, 0.6778421998023987, 0.6797367930412292, -0.7163575887680054, 0.36596497893333435, 1.1023452281951904, 0.052480027079582214, -0.5078772902488708, 0.7063277363777161, -1.093230128288269, -1.190791130065918, 0.21983687579631805, -0.34462863206863403, -0.4549914300441742, 0.7643616199493408, -0.348452627658844, -0.21123358607292175, 0.8963236212730408, 0.13787482678890228, -0.6079710721969604, 0.8932888507843018, -0.545348584651947, -1.2668730020523071, 0.13458110392093658, -0.2608811855316162, 0.4218970537185669, -0.3263303339481354, 0.5385816693305969, -1.0470105409622192, 0.07602383941411972, 0.30026039481163025, -0.07074515521526337, -0.04604151099920273, 0.49694129824638367, 0.08932827413082123, -1.091849684715271, -0.43347442150115967, -1.0479438304901123, 0.23623430728912354, 0.4571370780467987, -0.47718390822410583, 1.3757401704788208, 0.5172569751739502, 0.5954034328460693, -1.4773763418197632, -1.1301676034927368, -0.7203177213668823, -0.4887089133262634, -0.14709196984767914, -0.16145263612270355, -0.3849014341831207, 0.3586999773979187, 0.9621067643165588, 0.33454349637031555, -0.3534839451313019, -0.07045945525169373, -0.22998355329036713, -0.6643357276916504], [-0.0038615043740719557, -0.010176004841923714, -0.015720365568995476, 0.02270430512726307, 0.01598697528243065, -0.02263517491519451, -0.005105877760797739, 0.0035690211225301027, -0.01031367015093565, 0.0026712387334555387, -0.020605985075235367, -0.0295774657279253, -0.009611569344997406, 0.034307755529880524, -0.03367218002676964, 0.00330408476293087, 0.015625838190317154, -0.010216642171144485, 0.030390145257115364, 0.029210330918431282, 0.016208451241254807, 0.008426584303379059, 0.006803997792303562, -0.01881863921880722, -0.013669471256434917, 0.021822577342391014, 0.010602333582937717, -0.00021726239356212318, 0.01483853068202734, 3.500356979202479e-05, 0.009371848776936531, 0.026832804083824158, 0.016986437141895294, -0.02873341180384159, 0.027731696143746376, -0.008018778637051582, -0.006540152244269848, 0.01911623775959015, -0.03378766402602196, -0.025379443541169167, -0.0025872571859508753, -0.0012671384029090405, -0.009801668114960194, -0.0010336644481867552, 0.0028046141378581524, 0.00262852874584496, 0.008973469957709312, 0.0002070834016194567, -0.0023631947115063667, -0.0034503352362662554, -0.012281248345971107, 0.0033467193134129047, 0.003412408521398902, -0.0038241115398705006, -0.005525198765099049, -0.0006887441850267351, -0.0025560164358466864, 0.0024086975026875734, -0.008490449748933315, 0.001412695273756981, -0.006709706503897905, -0.007883922196924686, 0.008284791372716427, 0.00015478832938242704, 0.0015365923754870892, -0.0038706327322870493, 0.008082431741058826, -0.007656916510313749, -0.0009876304538920522, 0.007203258108347654, -0.0026447689160704613, -0.0035859064664691687, 0.005822835490107536, 0.004078203346580267, 0.0037586409598588943, -0.004709382075816393, -0.013776020146906376, -0.011732377111911774, 0.008070983923971653, -0.007174825295805931, 0.004101431928575039, 0.004550010897219181, 0.002996995346620679, 0.008360899984836578, 0.00018233743321616203, -0.004912960808724165, -0.0006681368686258793, -0.006625103764235973, 0.0036131057422608137, 0.0025210720486938953, 0.0012976753059774637, 0.005665669217705727, -0.0002733686997089535, -0.0036564278416335583, -0.00498790480196476, 0.0018507088534533978, 0.002839931519702077, -0.0016896164743229747, 0.003828001907095313, 0.006439582910388708, -0.0006376182427629828, 0.0012402242282405496], [0.013106736354529858, 0.006870322395116091, -0.017957735806703568, 0.004016019403934479, -0.035707321017980576, -0.02633541077375412, 0.010957577265799046, -0.009023057296872139, 0.023202596232295036, 0.009387384168803692, -0.001932949642650783, 0.018917139619588852, -0.006087207235395908, -0.014393860474228859, 0.0225767120718956, -0.03874475508928299, -0.030951427295804024, -0.018344813957810402, 0.0039314040914177895, 0.008264225907623768, -0.021633706986904144, -0.012128607369959354, 0.02308175340294838, -0.004210737533867359, 0.02532609924674034, 0.017199622467160225, -0.00631334912031889, -0.009153530932962894, -0.009001608937978745, -0.014373954385519028, -0.0038827527314424515, -0.017877919599413872, -0.0048201195895671844, 0.004156554117798805, -0.022539904341101646, 0.03744035214185715, 0.02299455925822258, 0.011145106516778469, 0.002240333938971162, -0.007191372103989124, 0.007353919092565775, -0.013253379613161087, -0.0005782326334156096, 0.004619464743882418, -0.012541729025542736, -0.001878118491731584, 0.006090016569942236, 0.0035927363205701113, -0.0005458986852318048, -0.005625126883387566, -0.0040085213258862495, -0.0038944866973906755, -0.005363645497709513, -0.00911302026361227, -0.003255959367379546, 0.0023740751203149557, -0.01421163696795702, 0.010940001346170902, 0.006240318529307842, 0.0007880784687586129, 0.007911864668130875, 0.005105644464492798, -0.012444792315363884, -0.008492223918437958, -0.005341880489140749, -0.007425371091812849, 0.006902886554598808, 0.0037009899970144033, -0.016182083636522293, -0.0002070838527288288, -0.008967166766524315, -0.0019397962605580688, 0.00795547291636467, 0.003304528770968318, 0.00683191791176796, -0.01166035421192646, -0.006628788076341152, 0.0002621125604491681, -0.015109643340110779, -0.01096748374402523, -0.011690657585859299, 0.00771978497505188, 0.0006981390761211514, -0.0011460339883342385, 0.0007103973184712231, 0.007702360861003399, -0.01295567862689495, -0.004555013030767441, -0.0012064446927979589, 0.0005035340436734259, -0.004567118361592293, -0.009163166396319866, 0.0033395150676369667, 0.0009293484035879374, -0.0027099349536001682, -0.011502455919981003, -0.0019086990505456924, -0.00474387314170599, -0.0024865029845386744, -0.004320330917835236, -8.036357030505314e-05, 0.0016290924977511168], [0.007359940093010664, 0.043383002281188965, 0.03659222275018692, -0.02331295609474182, -0.01916489005088806, 0.009510020725429058, 0.013498825021088123, -0.03000790812075138, 0.008620749227702618, -0.011845679022371769, -0.016778340563178062, -0.01745840162038803, -0.013319028541445732, -0.012637275271117687, -0.02219567447900772, -0.0010280180722475052, -0.01038356963545084, 0.03768206015229225, 0.011988494545221329, -0.04231615737080574, -0.007965958677232265, -0.03480125218629837, -0.048190608620643616, 0.025010712444782257, 0.012721980921924114, -0.018387379124760628, -0.013253357261419296, 0.03998686373233795, -0.0013665733858942986, -0.0018945547053590417, -0.0008420346421189606, 0.01721404306590557, 0.009314704686403275, 0.02120906487107277, 0.009642628952860832, -0.013608823530375957, 0.009474240243434906, -0.028610743582248688, -0.00780271552503109, 0.03100009821355343, 0.0029400233179330826, 0.005260631442070007, -0.012501767836511135, -0.0042188651859760284, -0.002110756002366543, 0.002509680576622486, -0.0068832822144031525, -0.009780515916645527, -0.006129100918769836, 0.0028775997925549746, -0.00025414658011868596, 0.0021189535036683083, -0.0013035425217822194, -0.003139723790809512, 0.0028391429223120213, 0.00020433630561456084, 0.002616048324853182, 0.013967715203762054, 0.0034389691427350044, -0.0018646204844117165, -0.0008999184356071055, -0.010882877744734287, 0.015645353123545647, -0.008867207914590836, 0.0015117450384423137, 0.015115340240299702, 0.00320330448448658, -0.006285905838012695, 0.0018305295379832387, -0.0024314741604030132, 0.011578523553907871, -0.015944069251418114, 0.014925024472177029, -0.004724682774394751, 0.004192706663161516, 0.006428990513086319, -0.006851380690932274, 0.00030051477369852364, -0.009729715064167976, 0.014089035801589489, -0.00246590212918818, 0.011678718030452728, 0.002630126429721713, 0.006126653868705034, 0.004127356223762035, -0.0035796999000012875, -0.008079505525529385, 0.0051489626057446, 0.008048941381275654, 0.005447905510663986, 0.00019662770500872284, 0.0053655537776649, -0.0069494703784585, -0.003508615540340543, -0.008592021651566029, -0.0010860427282750607, 0.0017126241000369191, -0.005282427649945021, -0.0031152681913226843, -0.0025226634461432695, -0.0012017204426229, 0.0004502425144892186], [0.012017922475934029, 0.006331827025860548, 0.00655812444165349, -0.008413756266236305, 0.03929620608687401, 0.018629444763064384, 0.02331193909049034, 0.0003212527371942997, 0.027602668851614, 0.030149254947900772, 0.0024972849059849977, 0.03768515959382057, 0.0028276490047574043, -0.015038121491670609, -0.010888990014791489, 0.009183506481349468, 0.009535463526844978, -0.033499859273433685, -0.019544286653399467, 0.006242592819035053, 0.0009510630625300109, -0.01284532155841589, 0.004264958668500185, -0.00030880412668921053, -0.03440025448799133, -0.012558088637888432, -0.019795002415776253, 0.0019404056947678328, -0.027464967221021652, -0.014582288451492786, 0.00830121897161007, -0.03349846974015236, 0.0017775489250198007, 0.016654610633850098, 0.007582439109683037, -0.0013040561461821198, -0.0029717946890741587, 0.029626844450831413, 0.012949013151228428, -0.0029708626680076122, 0.0007680943817831576, 0.008668995462357998, -0.0012108644004911184, 0.010367968119680882, -0.002085173036903143, 0.0022830418311059475, 0.0029270993545651436, 0.007703379727900028, 0.003458641702309251, 0.0012285503325983882, 0.00807010754942894, -0.007998606190085411, -0.002216143300756812, -0.009371433407068253, -0.0005586510524153709, 0.0019862204790115356, 0.003945017233490944, -0.006414205301553011, 0.011288727633655071, 0.0025334933307021856, -0.0062930770218372345, 0.01160050556063652, -0.0026168825570493937, 0.013094940222799778, 0.009587465785443783, 0.0014538781251758337, -0.007049908861517906, 0.010267788544297218, 0.009748958051204681, -0.0001748865906847641, 0.011816754937171936, 0.015572760254144669, -0.012087017297744751, 0.003620243864133954, -0.0010618476662784815, 0.006648903712630272, 0.0033165831118822098, 0.0025358956772834063, -0.0011438420042395592, 0.007014317438006401, -0.0011461853282526135, -0.0016027032397687435, 0.0002360747312195599, 0.0069319079630076885, -0.0011034368071705103, -0.0007817669538781047, 0.010188133455812931, -0.01085624285042286, -0.0019482637289911509, -0.0020479965023696423, 0.0008404456311836839, -0.0006128403474576771, 0.00327823543921113, 0.0036314360331743956, 0.00686026131734252, 0.004536794498562813, -0.0015481500886380672, 0.0026663988828659058, 0.006996752228587866, 0.003520513419061899, 0.0033286733087152243, -0.0005745698581449687], [-0.03415508568286896, -0.013501654379069805, -0.04602601006627083, -0.03389269858598709, 0.06357724219560623, -0.04273788630962372, -0.02457280457019806, 0.02973310463130474, 0.011810341849923134, 0.005156243219971657, -0.028968445956707, -0.034004613757133484, -0.025930697098374367, 0.030561380088329315, 0.04839767515659332, -0.012113003991544247, -0.060980841517448425, 0.07352863997220993, 0.09686628729104996, 0.028060780838131905, 0.047347668558359146, 0.016694186255335808, 0.03311999887228012, 0.034960322082042694, -0.07125364243984222, 0.03610805422067642, 0.036415945738554, -0.0196903795003891, -0.007830135524272919, -0.007355592679232359, 0.02519216760993004, 0.056411582976579666, 0.034710463136434555, -0.036789700388908386, -0.05610225349664688, -0.003937049303203821, 0.06132325902581215, -0.04925824701786041, -0.10195720195770264, -0.01659025065600872, 0.006509148981422186, 0.00027041215798817575, -0.012104365974664688, -0.002147986553609371, 0.006326845847070217, 0.005310159642249346, 0.002358481753617525, -0.014247685670852661, -0.00542827881872654, -0.01034349761903286, -0.012828107923269272, 0.003561546793207526, 0.0014202259480953217, 0.007366247940808535, -0.014173257164657116, -0.009632973000407219, -0.0004067613335791975, 0.008126760832965374, -0.011758779175579548, -0.005828855559229851, -0.00943241361528635, -0.01842227764427662, 0.014622120186686516, 0.0029664181638509035, 0.012102954089641571, -0.00972195528447628, -0.014688433147966862, -0.015864329412579536, 0.005371543578803539, 0.007989480160176754, -0.00989566557109356, -0.027382604777812958, 0.005880362819880247, 0.002719290554523468, 0.006677160505205393, -0.0002838678774423897, -0.001566035207360983, -0.026221254840493202, 0.012097337283194065, -0.00639356579631567, -0.002559856278821826, 0.00034224314731545746, -0.0058573829010128975, 0.009338436648249626, -0.007072988897562027, -0.0057105026207864285, -0.004348550923168659, -0.001985101029276848, 0.0030749577563256025, 0.00046533768181689084, 0.008788025006651878, 0.00011030542373191565, -0.002261810703203082, 0.00042497526737861335, -0.011565479449927807, 0.0006606935639865696, 0.0016708067851141095, -0.0062047457322478294, 0.00328281382098794, 0.0005792242591269314, 5.029980093240738e-05, -0.002125078346580267], [0.05534633994102478, -0.0031949724070727825, -0.04724165052175522, -0.018653089180588722, 0.05720323696732521, -0.009549937210977077, -0.03039632737636566, 0.00012774225615430623, 0.017229268327355385, -0.021400876343250275, 0.02983534336090088, 0.040741659700870514, 0.008681632578372955, -0.039032358676195145, -0.001011607120744884, 0.04188872128725052, -0.059591926634311676, 0.11755586415529251, 0.019467569887638092, 0.049123991280794144, -0.04735785722732544, 0.00033192685805261135, 0.04110977053642273, 0.010516692884266376, -0.04495823755860329, -0.023173490539193153, 0.035363368690013885, 0.001467206166125834, -0.01611703261733055, 0.017487503588199615, -0.035652197897434235, -0.03773985430598259, -0.005770505405962467, 0.029646573588252068, -0.0034203166142106056, -0.0538107194006443, 0.05262482911348343, -0.10295139998197556, -0.02342229336500168, -0.05437531694769859, 0.015123207122087479, -0.0010096020996570587, 0.008165721781551838, -0.009656185284256935, 0.0037792115472257137, -0.007238814141601324, 0.001621444709599018, 0.0018673391314223409, -0.004171823151409626, 0.003541505429893732, 0.0017916382057592273, 0.010370038449764252, -0.008128771558403969, 0.0027645702939480543, -0.014555312693119049, -0.007305651903152466, 0.0017711867112666368, -0.0011099573457613587, -0.011829173192381859, -0.01844702661037445, -0.004453800152987242, -0.005959845148026943, 0.005221277009695768, 0.015153792686760426, -0.018794668838381767, 0.026389306411147118, -0.018391314893960953, -0.01066314522176981, 0.015176060609519482, 0.011170949786901474, 0.008823037147521973, -0.006540686823427677, -0.004709804430603981, 0.0020468588918447495, -0.006853886879980564, 0.0007061354117468, 0.003253085073083639, 0.0025380579754710197, 0.010598083958029747, 0.01536199264228344, -0.00430497620254755, -0.00552090909332037, -0.008841956034302711, -0.008457220159471035, -0.003016703762114048, -0.0021632967982441187, 0.0030008661560714245, 0.007455609273165464, -0.001354470499791205, 0.005698761902749538, -0.0005216969875618815, -0.005906072445213795, 0.0028529921546578407, 0.0013299175770953298, 0.00022007443476468325, 0.0004281654837541282, 0.009828252717852592, -0.002820238471031189, 0.005097666755318642, 0.0042734029702842236, 0.003141314024105668, 0.005992008838802576], [-0.1832052767276764, 0.1706390529870987, -0.01537664420902729, -0.12870270013809204, -0.08498430252075195, -0.21245770156383514, 0.38853132724761963, 0.26852017641067505, 0.2600480318069458, 0.864073634147644, -1.0547086000442505, -0.4270479083061218, 0.6973610520362854, -0.5199639201164246, 0.08843320608139038, -0.34511053562164307, -0.18494243919849396, -0.10810617357492447, 0.29684221744537354, 0.7540452480316162, 0.34851375222206116, 0.21569497883319855, 0.3394274413585663, 0.03660211339592934, 0.5246121287345886, 0.5057132244110107, -0.15556535124778748, 0.6418953537940979, 0.33554500341415405, 1.2397325038909912, -0.3346950113773346, -0.4273586869239807, 0.8574983477592468, 0.09782076627016068, -0.1601303666830063, -0.36715200543403625, -0.04994078353047371, -0.09059052169322968, -0.33598679304122925, 0.7949125170707703, 1.5054945945739746, -0.1665930151939392, -0.2545155882835388, -0.4468923509120941, -0.6503756046295166, -1.3946048021316528, 0.4122133255004883, -0.7186676263809204, -0.014792838133871555, 0.9240379333496094, 1.745884895324707, -0.7124553918838501, 0.04575945436954498, -0.17261183261871338, -0.17313231527805328, 0.16756953299045563, 1.3013112545013428, -0.6349033117294312, -0.6761863231658936, 0.3159773647785187, 0.5762705206871033, 0.4532415568828583, 0.12096860259771347, -0.5789926052093506, 0.8986276388168335, 0.2749655544757843, -0.32612720131874084, 0.3221878409385681, -0.6992728114128113, 0.2409619688987732, -0.14063586294651031, -0.4593481421470642, -0.40202149748802185, -0.12859392166137695, -0.2959800660610199, -0.250144362449646, -0.19857801496982574, 0.07338446378707886, 0.6625822186470032, 0.4859808385372162, 0.22148656845092773, 0.09534323215484619, -0.057909045368433, -0.8624194264411926, 0.6031800508499146, 0.32965517044067383, 0.008750014938414097, 0.3654552102088928, -0.14789284765720367, -0.7631164193153381, 0.2838025689125061, -0.06020312383770943, -0.5836334228515625, -0.2945723235607147, 0.35859987139701843, -1.1101328134536743, 0.439148485660553, 0.5225361585617065, -0.6906600594520569, -0.6946601867675781, -0.40607091784477234, 0.23383425176143646], [0.6997438669204712, -1.0480746030807495, 1.5537006855010986, -0.6918019652366638, 0.6999503374099731, 0.1986045390367508, 0.2104981690645218, -0.32036274671554565, 0.9447171688079834, -0.20150354504585266, 0.10779212415218353, 0.17003576457500458, -0.13824711740016937, 0.3600834012031555, -0.43324780464172363, 0.6763297915458679, 0.6954386830329895, 0.4501184821128845, 0.3524322211742401, -1.3868482112884521, -0.1371806561946869, -0.3596295118331909, 1.1903631687164307, -0.4685986042022705, -0.08464043587446213, 0.005338531918823719, -0.6384723782539368, 0.004499376751482487, 0.4046368896961212, -0.8438968658447266, 0.1906425952911377, -0.016427049413323402, 0.0552518405020237, -0.2123565524816513, 1.2700408697128296, 0.002027353271842003, 0.14796562492847443, 0.7603760361671448, 0.08780132979154587, -0.23493842780590057, 0.058615513145923615, 0.6939504146575928, -0.5946409702301025, -0.134942427277565, -0.7126887440681458, 0.8672600388526917, -0.3375821113586426, 2.157283306121826, -0.21054846048355103, -0.7118731141090393, -0.31392714381217957, 1.17891526222229, -0.4687546491622925, 0.29459241032600403, 0.3943398892879486, 0.6589672565460205, -0.2289700210094452, 0.03374094143509865, -0.40229904651641846, 0.8604452610015869, 1.0785099267959595, -0.6657764315605164, -0.08055131882429123, 0.0876443013548851, 0.3664052188396454, -0.18935227394104004, -0.005363853648304939, 0.7065578103065491, 0.19263936579227448, 0.7403019070625305, -0.15616141259670258, -0.5209264159202576, -0.7072451710700989, -0.0005209792288951576, -0.7365983724594116, 0.9622121453285217, -0.9010415077209473, -0.25828367471694946, 0.3752345144748688, 0.537855327129364, -1.2872095108032227, -0.4549284875392914, 0.5575603246688843, -0.6709662079811096, 0.736982524394989, -0.677867591381073, -0.7458279132843018, -0.3415098786354065, -0.951899528503418, 0.7910698652267456, -1.5041635036468506, -1.033783197402954, 0.12083043158054352, -0.015400911681354046, 0.3274138867855072, -0.1835670918226242, -0.8231183290481567, -0.28097131848335266, -0.07742517441511154, -0.8065760135650635, 0.6101969480514526, 0.28053829073905945], [0.115120530128479, 1.0048503875732422, -0.12844344973564148, 0.7203879356384277, -0.25648483633995056, -0.6816114783287048, -0.7599664330482483, 0.0643744170665741, -0.5487378835678101, 0.46104317903518677, -0.03452155739068985, -0.09196950495243073, -0.32369038462638855, -0.6275284290313721, -0.4124685227870941, -0.04360448941588402, -0.24747873842716217, -0.1649308204650879, 0.046931203454732895, 0.09417311102151871, 1.0992637872695923, 0.68690425157547, -0.5174325108528137, 1.0048952102661133, -0.18786165118217468, 0.3197501003742218, -0.17349235713481903, -0.2548891305923462, -0.5279161334037781, 0.21097269654273987, -0.0769772157073021, 0.18877914547920227, 0.028360025957226753, -0.2714132070541382, -0.8668965101242065, 0.767435610294342, -0.022434204816818237, -0.4829782247543335, 0.1609148234128952, -0.7554904222488403, -0.12214566022157669, -0.4282900393009186, 1.3338220119476318, 0.30232545733451843, -0.9311892986297607, -0.422990083694458, -0.4121285378932953, 0.9362645149230957, 2.106161594390869, -0.25926098227500916, 0.4750153422355652, 0.14669166505336761, -1.478252649307251, -0.035707030445337296, 1.7121878862380981, -0.39680665731430054, 0.12038640677928925, -1.6258896589279175, 0.5111537575721741, 0.267098605632782, -0.959743082523346, 1.5463573932647705, 0.21319670975208282, -1.1491529941558838, -0.1377677321434021, -0.15197794139385223, -0.7668458819389343, -1.205012321472168, 0.06116864085197449, 0.1593717336654663, -0.5025587677955627, 0.7470680475234985, 0.2802640497684479, 0.9267032146453857, 0.5662277936935425, -0.6741786003112793, 1.117439866065979, -0.06476083397865295, 1.8652150630950928, -0.31068578362464905, 0.006378539372235537, -0.3711528182029724, -0.6033583879470825, 0.6183651685714722, 0.25101569294929504, 1.0220897197723389, -0.6029665470123291, 0.7569593191146851, -0.9422581791877747, 0.591666579246521, 0.833918571472168, 0.23210588097572327, -0.10554012656211853, -0.5446657538414001, 0.05329703912138939, 0.1489936262369156, -0.057606298476457596, 0.5955593585968018, -1.1575438976287842, -0.7360626459121704, -0.12479496002197266, 0.6695995330810547], [-0.0024102842435240746, -0.0520586334168911, -0.07122187316417694, 