{"embedding_instance.weight": [[0.8643701672554016, 0.3285399377346039, -0.2848966121673584, 0.5051371455192566, -0.545362114906311, -0.15574249625205994, -0.3097304701805115, 0.08129189163446426, 0.5243036150932312, -0.5115851759910583, -0.8199499249458313, -1.2940679788589478, -0.28035035729408264, 0.2948871850967407, -0.3438314199447632, -0.6376184225082397, 0.12449293583631516, -0.41772106289863586, -0.4917027950286865, -0.40179938077926636, 0.42575812339782715, 0.23272326588630676, -0.5070226788520813, 0.6834362149238586, -0.7525804042816162, 0.1560346782207489, -0.38805222511291504, 0.08269905298948288, 0.6717668771743774, -0.7830727100372314, -0.5212569832801819, -1.182326078414917, -0.06301862746477127, 0.06155598163604736, -0.22080515325069427, -0.5228614807128906, -0.11537538468837738, -0.04212381690740585, -0.6023194193840027, -0.512115478515625, -0.6504387855529785, 0.33355873823165894, 1.46218740940094, 0.5197440981864929, 0.18585620820522308, -0.21886757016181946, -0.2711597681045532, 0.6870465278625488, 1.010667324066162, -2.8622093200683594, 0.8826243281364441, 0.5043947696685791, -0.3847694396972656, 1.0978336334228516, 1.1970627307891846, 1.1450178623199463, -0.3960326611995697, 0.3494819402694702, -0.15159691870212555, 1.6670795679092407, 0.2595321536064148, 0.024829136207699776, 0.2578872740268707, 0.813364565372467, -0.6630913019180298, -1.2271925210952759, -0.49722662568092346, -0.07048695534467697, 0.6640771627426147, -1.3198473453521729, 0.6161851286888123, -1.1473362445831299, 0.667080819606781, -0.436322420835495, -0.8537301421165466, 0.6752859950065613, -0.14481189846992493, -0.012767146341502666, 0.203197181224823, 0.4470721483230591, 0.5604618191719055, -1.4036229848861694, -0.553523063659668, -0.507933497428894, 1.0367001295089722, -1.4441224336624146, -0.7551961541175842, 0.7684652209281921, 0.45374104380607605, 0.9633051156997681, -0.59504634141922, -0.08191628754138947, 0.4123294949531555, -0.2516900599002838, 0.6891418695449829, -0.32647544145584106, 0.2888569235801697, -0.0689840093255043, -0.11030951887369156, 0.22677625715732574, 1.191502332687378, 0.7468085885047913], [-0.3960871696472168, 0.33907684683799744, -0.07931245118379593, 0.05751962214708328, -0.6784856915473938, -0.35289883613586426, 0.5223581790924072, -0.44993117451667786, -0.015176719054579735, -0.3506898283958435, -0.7465525269508362, 0.08397768437862396, 0.6385257840156555, -0.9785922765731812, 0.18957598507404327, 0.13269594311714172, -0.01180264726281166, -0.6360079646110535, 0.5378623604774475, 0.2595520615577698, -0.5418007373809814, 0.19210022687911987, 0.42837148904800415, -0.18062470853328705, -0.15516217052936554, -0.02921684831380844, 0.1863003820180893, 0.1492980718612671, 0.2191283106803894, -0.26387056708335876, 0.04682040214538574, 0.22610238194465637, 0.0523592047393322, -0.3700534403324127, 0.03960640728473663, -0.160133957862854, 0.2551901638507843, -0.7511156797409058, -0.01678645983338356, 0.5094174742698669, 0.025758182629942894, 1.5164798498153687, 0.43976569175720215, -0.8923198580741882, 2.197214126586914, 1.1349767446517944, 1.1409704685211182, 1.045710802078247, 0.6829923987388611, -0.511372447013855, -0.8680664896965027, -0.2579297125339508, 0.6568768620491028, -0.9001970291137695, -0.4233381152153015, 0.4709579050540924, 0.9054502844810486, 1.2664669752120972, -0.3427409529685974, 1.2936710119247437, -0.10116583108901978, 0.19087953865528107, -0.15486624836921692, 0.05690506845712662, 0.2909943461418152, 1.2558094263076782, -0.13392503559589386, 0.3679996132850647, -0.6931949853897095, 0.3287808895111084, -0.1325986683368683, 0.4495337903499603, -0.41863277554512024, 1.2014262676239014, -0.8571518063545227, -1.8827457427978516, 0.008764324709773064, 0.16826048493385315, -0.04279252141714096, 0.5638118386268616, -0.1883813589811325, -0.2342265248298645, 0.5210863947868347, -0.2698717713356018, -0.15985096991062164, 0.2827657461166382, -0.25257202982902527, -0.3523035943508148, 0.01842346042394638, -0.5303866267204285, 0.4870632588863373, 1.3529475927352905, 0.10401193797588348, -0.5568865537643433, -0.4215896427631378, -0.6068044900894165, -1.4075477123260498, -0.053650882095098495, -1.8592580556869507, 0.792167067527771, 0.1620611995458603, -0.02846098504960537], [0.06564848870038986, -0.05888501927256584, 0.09160877764225006, -0.12226478010416031, -0.007183749694377184, 0.08398429304361343, -0.06746600568294525, -0.00858719926327467, -0.11236079782247543, 0.02154412493109703, -0.01996980421245098, 0.02460676245391369, 0.09011486172676086, -0.04534425958991051, 0.014688062481582165, -0.021325426176190376, 0.007665932644158602, -0.04637951776385307, -0.003493604017421603, 0.02592417597770691, -0.08040829747915268, 0.08653273433446884, -0.057280413806438446, 0.10321880877017975, 0.016388464719057083, -0.01972198858857155, 0.04627316817641258, -0.06145145371556282, 0.11184416711330414, -0.035558637231588364, 0.0064642117358744144, 0.04285932332277298, -0.08025584369897842, 0.065884068608284, 0.04227340966463089, -0.003707130439579487, 0.0108418520539999, -0.0392765998840332, -0.011860993690788746, -0.05184180662035942, -0.0030315157491713762, -0.021049298346042633, -0.02285340428352356, -0.01826917752623558, -0.009672395884990692, -0.02685915119946003, 0.024424375966191292, 0.01570979505777359, 0.004495776258409023, 0.0093907555565238, 0.022389117628335953, -0.042033884674310684, 0.015330090187489986, 0.0026246015913784504, -0.019197622314095497, -0.015615497715771198, 0.020602110773324966, 0.0030939369462430477, 0.01813836768269539, -0.020798757672309875, 0.0006289152079261839, 0.0025756661780178547, -0.04458818957209587, 0.04056299105286598, -0.015014843083918095, -0.06313306093215942, -0.014203629456460476, 0.04522870481014252, -0.018507735803723335, 0.03323882445693016, -0.024292385205626488, -0.054366812109947205, -0.0210457444190979, -0.06329993903636932, -0.02184034325182438, 0.0334535650908947, -0.001450345735065639, 0.06205396726727486, 0.004850695841014385, 0.04392964392900467, 0.010664287023246288, 0.020916683599352837, -0.0019523174269124866, 0.005533437244594097, 0.020798102021217346, -0.0033704866655170918, -0.007118783891201019, 0.026248596608638763, 0.0003920976887457073, -0.011266474612057209, -0.007516100071370602, -0.012105247937142849, 0.025746788829565048, 0.03222573176026344, 0.006342514418065548, -0.022193850949406624, 0.0037091912236064672, -0.004135356284677982, -0.0008782513323239982, -0.03230396658182144, -0.03236623853445053, 0.007182651665061712], [0.14193782210350037, -0.03388018161058426, 0.07684702426195145, -0.07456263154745102, 0.04245835170149803, -0.03903251513838768, -0.021148210391402245, 0.031006889417767525, -0.04671206325292587, -0.026841407641768456, -0.018649384379386902, 0.03823704272508621, -0.04977564886212349, 0.009533250704407692, -0.043035559356212616, 0.07533987611532211, -0.020272040739655495, -0.021540191024541855, -0.01299945916980505, -0.058413293212652206, -0.11326523125171661, 0.04875457286834717, -0.10511172562837601, 0.06609883159399033, -0.051025159657001495, -0.0380299910902977, 0.02088369056582451, 0.06369674205780029, 0.022446831688284874, 0.03138796612620354, 0.0028941670898348093, -0.008436035364866257, 0.11047787219285965, -0.03451567143201828, 0.014579951763153076, -0.025954701006412506, -0.007469868287444115, 0.01868627965450287, -0.05651718005537987, 0.038280606269836426, 0.016733963042497635, -0.012086136266589165, -0.0181324053555727, -0.00448138453066349, 0.003990845754742622, 0.03434070944786072, -0.03642275184392929, 0.012983857654035091, -0.01242593489587307, 0.008843970485031605, -0.00533246248960495, -0.018328379839658737, -0.016604864969849586, -0.02974829636514187, -0.023717818781733513, -0.015243121422827244, 0.0025467020459473133, 0.010372762568295002, -0.013651987537741661, -0.032810889184474945, -0.04448900371789932, 0.00674779899418354, -0.004213237203657627, 0.008008192293345928, -0.009406463243067265, 0.06488024443387985, -0.013222459703683853, -0.02647259645164013, 0.04354486241936684, 0.027484314516186714, 0.046936869621276855, -0.0008728868560865521, -0.034949567168951035, 0.05656000226736069, 0.015070928260684013, -0.03628462180495262, -0.03238515183329582, 0.0033483116421848536, 0.025807516649365425, 0.005829111207276583, -0.010048829950392246, -0.05309278145432472, -0.0002899685350712389, 0.009916549548506737, 0.0162789486348629, 0.0067907352931797504, -0.017627358436584473, 0.020172931253910065, -0.03914628177881241, 0.043727606534957886, 0.006475741975009441, 0.027025166898965836, 0.006947096902877092, -0.0003154296427965164, 0.01688806153833866, 0.04238318279385567, 0.012541965581476688, 0.013029821217060089, 0.02498595602810383, 0.010147587396204472, 0.016767701134085655, 0.008030339144170284], [-0.19559240341186523, 0.1582683026790619, 0.15095040202140808, -0.3988421559333801, -0.5068479180335999, -0.213516503572464, 0.4649503827095032, 0.37456759810447693, -0.42080792784690857, -0.5052756667137146, 0.5076278448104858, 0.7066518068313599, 0.10153914242982864, 0.03174883499741554, 0.007536930497735739, 0.45586979389190674, 0.11122097074985504, 0.03907901048660278, 0.271235853433609, -0.16843156516551971, 0.2524701654911041, 0.15729668736457825, 0.15673042833805084, -0.7509674429893494, -0.38283124566078186, 0.27900782227516174, 0.4945833086967468, 0.40705761313438416, -0.6929811835289001, 0.42437461018562317, 0.4383525252342224, 0.5943582057952881, -0.27482083439826965, -0.05691816285252571, -0.6465972065925598, 0.3984055519104004, 0.000253463804256171, 0.244059756398201, 0.2371804118156433, -0.15115202963352203, -0.9080582857131958, 0.10509663820266724, 0.287958562374115, 0.6051768660545349, 0.4203551411628723, 0.493211030960083, -0.6505792140960693, -1.1830942630767822, -0.7319015860557556, -0.24421145021915436, -0.5747069716453552, -0.7865803837776184, 0.1868257224559784, -0.5156168937683105, 0.9472276568412781, -0.7916324734687805, 1.366506576538086, 0.14997227489948273, 1.0075093507766724, 0.4681514799594879, 0.2475755661725998, 0.16575293242931366, -0.2976005971431732, 0.7594307065010071, 0.5108425617218018, 0.08491424471139908, -0.3394981622695923, -1.869081735610962, 1.9690889120101929, 0.44370242953300476, -1.0404467582702637, -1.9053561687469482, 0.24686940014362335, 0.12164772301912308, 0.46034306287765503, -1.0730847120285034, 0.46453362703323364, 0.30377256870269775, -0.7282454967498779, -0.3086850643157959, 0.27716371417045593, 0.15538987517356873, 0.6748348474502563, -0.050639502704143524, 0.03271794691681862, -0.41852739453315735, -0.2940245270729065, -0.07327844202518463, 0.6825565695762634, 0.5973101854324341, -0.3070230185985565, 1.3219892978668213, 0.33728352189064026, -0.1327509731054306, -0.02600141614675522, -0.4579758942127228, -0.8501926064491272, -0.6420995593070984, -0.24778485298156738, 0.20611746609210968, -0.48988139629364014, -0.013697645626962185], [0.21382777392864227, -0.4852069020271301, -0.07578685134649277, 0.1542840152978897, 0.15769343078136444, -0.10500819981098175, -0.21815265715122223, 0.382912814617157, 0.22686387598514557, -0.4152745306491852, 0.22349420189857483, 0.3657458424568176, -0.2440652996301651, 0.29316189885139465, 0.02363750897347927, -0.32207754254341125, 0.0956064909696579, 0.04778825864195824, 0.3127269744873047, 0.004605278838425875, 0.10239554941654205, 0.22372332215309143, 0.005097516812384129, -0.03700834885239601, -0.022508997470140457, 0.07338301837444305, 0.05857602134346962, -0.16642646491527557, -0.1265917420387268, 0.33333224058151245, 0.2986290752887726, -0.007744390517473221, -0.24167433381080627, 0.2162306010723114, -0.01191665232181549, 0.06925571709871292, 0.1896371841430664, 0.07477036863565445, 0.17879341542720795, -0.1477041393518448, -0.2365129441022873, 0.07894211262464523, -0.3822421133518219, -0.1032528281211853, 0.058860767632722855, -0.09600643813610077, -0.10295923054218292, 0.0789051204919815, 0.14955651760101318, 0.3863740861415863, 0.032198216766119, 0.11345894634723663, 0.05864085629582405, 0.021607153117656708, 0.02519640140235424, 0.041517093777656555, 0.12371139228343964, -0.08964207023382187, 0.08368650823831558, -0.11449836194515228, -0.05788708105683327, 0.3706972002983093, 0.03591940179467201, -0.3533836603164673, -0.06838773936033249, 0.07028072327375412, 0.08951956033706665, -0.41196566820144653, 0.009333382360637188, -0.09477914124727249, -0.6641973853111267, -0.4992121160030365, 0.6198046803474426, -0.7988005876541138, -0.06707736849784851, 0.15317928791046143, -0.23286861181259155, -0.11230140924453735, -0.6380400657653809, 0.40460190176963806, 0.0712929368019104, 0.2516776919364929, -0.10305587947368622, 0.13076560199260712, 0.22903291881084442, -0.17794020473957062, -0.15288233757019043, 0.08981794863939285, 0.09951583296060562, -0.10570422559976578, -0.3651616871356964, 0.025974124670028687, -0.010358931496739388, 0.05098484829068184, -0.06491457670927048, -0.08025958389043808, 0.1668631136417389, -0.17948012053966522, 0.12555451691150665, 0.09485611319541931, 0.07615137100219727, -0.01750187575817108], [0.3563078045845032, -0.07932613044977188, -0.4034627676010132, -0.1401599496603012, 0.42090722918510437, -0.1490706503391266, -0.03866133093833923, -0.527781069278717, 0.44997426867485046, -0.462684690952301, -0.2462751567363739, -0.251779705286026, 0.26247188448905945, 0.40069517493247986, 0.052722666412591934, -0.4450221657752991, -0.2049545794725418, -0.25373637676239014, -0.5460145473480225, -0.6514257788658142, -0.257915735244751, -0.16735520958900452, -0.30038982629776, -0.20628073811531067, 0.65479576587677, -0.41703295707702637, -0.3291889429092407, -0.30374857783317566, -0.022743776440620422, -0.7014436721801758, -0.4200027883052826, -0.1124185100197792, -0.16537818312644958, 0.23027479648590088, -0.15835344791412354, 0.24325904250144958, -0.28667566180229187, 0.13959187269210815, 0.13898710906505585, -0.29516372084617615, 0.04537557065486908, -0.5793065428733826, -0.543941855430603, 0.7905353307723999, -0.4078473448753357, 1.6363654136657715, -0.3181791603565216, -0.5846545696258545, 1.169713020324707, 0.020534580573439598, -0.7297873497009277, -0.43857917189598083, 0.27626124024391174, 0.5332005023956299, 1.0838345289230347, -0.3891046643257141, -0.34588950872421265, 0.08462848514318466, 0.9640698432922363, -0.7916256785392761, 0.011586531065404415, 0.4655416011810303, 1.0449156761169434, 0.056839827448129654, -0.28396105766296387, -1.3394255638122559, -0.23504804074764252, 0.1610431671142578, 0.1788415014743805, 2.5329999923706055, 0.3694798946380615, 0.00745770987123251, 1.1450252532958984, -0.04528333619236946, -0.6759512424468994, 0.172053724527359, 0.08321443200111389, 0.140738844871521, 0.997795581817627, -0.2611408233642578, -1.259134292602539, 0.843598484992981, 0.3029240667819977, 0.7783545255661011, 0.3295702338218689, 0.5592517852783203, 0.160128653049469, 0.007150717545300722, 0.3428972065448761, -0.6491255164146423, 0.35474693775177, 0.2601291835308075, -0.2898358106613159, -1.1336477994918823, -0.08879638463258743, 0.005267192609608173, 0.1917962282896042, -0.1050204187631607, -0.026462271809577942, -1.538290023803711, 0.7508292198181152, 0.7424084544181824], [-0.1595582515001297, 0.07578621059656143, -0.1465206742286682, 0.03126709535717964, 0.07975275814533234, 0.07803373783826828, -0.04052400216460228, 0.020058324560523033, 0.0233280248939991, -0.17573048174381256, 0.10762540251016617, -0.04879285767674446, -0.04296409711241722, -0.0549333319067955, 0.06389237940311432, -0.050088804215192795, -0.15442931652069092, 0.07563779503107071, -0.0003166788665112108, -0.01909301057457924, 0.08498169481754303, 0.07486262172460556, 0.0661611258983612, -0.07900790125131607, 0.020492715761065483, 0.01849910244345665, 0.13489441573619843, -0.0518089234828949, -0.03863060101866722, 0.21146027743816376, -0.24044807255268097, -0.019463660195469856, 0.09455490857362747, -0.062110535800457, 0.07214222103357315, -0.0977594181895256, -0.026815146207809448, -0.16345496475696564, 0.1687943935394287, -0.07453126460313797, 0.0035347342491149902, -0.04437916725873947, -0.026124874129891396, 0.021766724064946175, -0.021244440227746964, -0.12048062682151794, 0.052305661141872406, 0.04195583611726761, -0.056664224714040756, -0.10760980099439621, -0.024999763816595078, 0.055036760866642, 0.06227719038724899, 0.06605008244514465, 0.017120786011219025, 0.025617431849241257, 0.07901321351528168, 0.07288985699415207, 0.11100372672080994, -0.079742431640625, 0.015386614017188549, -0.13343466818332672, 0.15642043948173523, -0.014119291678071022, -0.10542608052492142, 0.10701454430818558, -0.12342380732297897, -0.11062534153461456, 0.05872759595513344, -0.05161728337407112, 0.05907559394836426, 0.022281983867287636, -0.09680630266666412, 0.01197664812207222, -0.018730266019701958, 0.2340669184923172, 0.21259814500808716, 0.08419369906187057, -0.23427866399288177, 0.11896374076604843, -0.027690336108207703, 0.016340285539627075, 0.03140323981642723, 0.010604484006762505, -0.01456605363637209, 0.0004431264824233949, -0.0069695208221673965, 0.021458381786942482, 0.007550791837275028, 0.04042451083660126, 0.04377470165491104, -0.010877726599574089, -0.04311593621969223, -0.0006121994229033589, 0.023057492449879646, -0.024374915286898613, 0.0005543901934288442, -0.0026371576823294163, -0.10638110339641571, -0.10592640936374664, -0.008840931579470634, 0.008160020224750042], [0.06858956813812256, -0.16263122856616974, 0.0203095655888319, -0.002780590672045946, 0.0721210390329361, -0.1233275979757309, -0.01798553764820099, 0.06713002175092697, 0.05401211977005005, 0.1768389493227005, 0.0858992263674736, 0.04489598423242569, 0.010525980032980442, 0.039305176585912704, -0.10151798278093338, -0.016887344419956207, 0.12073462456464767, 0.18145878612995148, -0.013881969265639782, 0.012273167259991169, -0.04729805886745453, 0.062294796109199524, 0.012899845838546753, 0.02773853950202465, 0.018793627619743347, 0.0526190809905529, 0.023883342742919922, -0.029384074732661247, -0.08072414994239807, -0.060383595526218414, -0.06555408239364624, -0.055667389184236526, 0.021762127056717873, -0.035998307168483734, 0.0839422419667244, -0.02601400576531887, -0.11791288107633591, -0.131869375705719, 0.01859370805323124, -0.010216392576694489, -0.017601871863007545, -0.009828043170273304, -0.002817473839968443, -0.022734643891453743, 0.05635790526866913, 0.04536598548293114, 0.020203910768032074, -0.014653521589934826, -0.0010454520815983415, -0.0002631765091791749, -0.0361020527780056, -0.011403268203139305, -0.03553813323378563, 0.011831617914140224, -0.015105634927749634, -0.023877866566181183, -0.0004968408029526472, 0.028063615784049034, -0.0002645555359777063, 0.0017759321490302682, -0.07140516489744186, 0.07987739890813828, -0.006283887661993504, -0.013760934583842754, -0.04883555322885513, -0.015859611332416534, 0.04607429355382919, -0.06712526828050613, 0.0623563714325428, 0.001343540963716805, 0.05552041903138161, 0.04097416251897812, -0.04519049823284149, 0.048352692276239395, -0.09851962327957153, -0.019350439310073853, -0.0014339814661070704, -0.05736759305000305, 0.045643847435712814, -0.014516268856823444, -0.017717013135552406, -0.007377861067652702, -0.01979728974401951, -0.016995437443256378, -0.019988927990198135, -0.03188227489590645, -0.014733255840837955, -0.008234101347625256, -0.0020600196439772844, 0.04367288947105408, -0.0028851504903286695, 0.007202997803688049, 0.03648420050740242, 0.038571711629629135, -0.008223391138017178, 0.08672286570072174, 0.03443673253059387, 0.018023781478405, -0.015567061491310596, 0.027113690972328186, 0.033381927758455276, 0.009577738121151924], [-0.05890235677361488, 0.31800511479377747, 0.31998592615127563, 0.3781062960624695, -0.047442659735679626, 0.2997572124004364, -0.552598774433136, 0.10270357131958008, -0.4882676899433136, -0.008039579726755619, 0.40227004885673523, 0.3699057400226593, -0.7121683955192566, 0.7329598069190979, 0.305429071187973, 0.6636860966682434, -0.09217730164527893, -0.817161500453949, 0.2062578648328781, -0.7042086124420166, 0.024442559108138084, -0.25711074471473694, 0.35493236780166626, -0.15047618746757507, 0.0498415045440197, 0.8954585194587708, -0.13052375614643097, -0.04045383259654045, -0.00901439506560564, 0.11673714965581894, 0.6193732619285583, -0.09893503785133362, -0.7594100832939148, 0.28208765387535095, 0.42431730031967163, 0.34963491559028625, -0.09277542680501938, -0.3660140335559845, -0.2516062557697296, -0.5589489340782166, -0.32805824279785156, -0.09385494142770767, -1.2774406671524048, -2.3949434757232666, -0.5764472484588623, -0.13663676381111145, 0.2941474914550781, -0.6149313449859619, -0.5728481411933899, -0.3021579086780548, -0.3403671383857727, -1.5359785556793213, -0.9921711087226868, -1.2051568031311035, 1.090959072113037, 1.0302507877349854, 0.35909563302993774, -0.81391441822052, -1.1322486400604248, 0.8584303259849548, 1.8655587434768677, 0.5352903604507446, 0.5137618184089661, -0.6512263417243958, 0.306193470954895, 0.38149914145469666, -0.19986040890216827, -0.17168106138706207, 0.58146071434021, -0.18403448164463043, -0.3435182273387909, -0.3120574951171875, -0.59915691614151, 0.12021591514348984, -0.7584018111228943, 0.8273406028747559, -1.0054024457931519, 0.6782839298248291, -0.042857613414525986, -1.6586960554122925, 0.5578203201293945, 0.4785290062427521, -0.05070163309574127, 0.4652211666107178, 0.26007595658302307, -0.24758011102676392, 0.4657875895500183, 0.028941061347723007, -0.8014394640922546, 0.39605405926704407, 0.14324837923049927, 0.165728360414505, 1.7054451704025269, 0.009716775268316269, -0.30916568636894226, 1.13753080368042, -0.8027834892272949, 0.013721542432904243, -0.06864465773105621, 0.2641867399215698, -1.1374369859695435, 0.7188267111778259], [0.6211232542991638, -0.14444053173065186, -0.031093519181013107, -0.5050624012947083, 0.0007566568092443049, 0.1241830512881279, -0.7704583406448364, -0.41082853078842163, -0.2578342854976654, -0.1120067685842514, -0.031704146414995193, -0.20029841363430023, 0.15209494531154633, -0.5615123510360718, -0.31548455357551575, 0.4138084053993225, -0.5320673584938049, 0.005572708789259195, 0.29747670888900757, 0.37965255975723267, 0.255584716796875, -0.1670048087835312, -0.05518185347318649, -0.08726145327091217, 0.031905222684144974, 0.38503000140190125, -0.17073386907577515, -0.18580316007137299, 0.10144943743944168, -0.6075676083564758, -0.4036604166030884, -0.41225114464759827, 0.08595452457666397, -0.9052795767784119, -0.4702676236629486, 0.32993459701538086, -0.23185035586357117, -0.05908999964594841, 0.5463278293609619, 0.23025117814540863, 0.11944220215082169, -0.03706633299589157, 0.2899233102798462, -0.055339254438877106, 0.48087936639785767, 0.9066274762153625, 0.0162543673068285, -0.7677379250526428, -0.674585223197937, 0.15095168352127075, -0.7041621208190918, 0.7616292834281921, -1.4253095388412476, -1.2959363460540771, 0.49886301159858704, -1.5353678464889526, 1.6108613014221191, -0.5559031367301941, 0.4757428467273712, 0.7877302765846252, 0.21902239322662354, 0.015997570008039474, 0.2272123545408249, -0.05524381622672081, -0.9448900818824768, -0.7797791957855225, 0.4994341731071472, 0.8938484191894531, -0.37807539105415344, -0.3346342444419861, -0.47832053899765015, 0.16911567747592926, -1.0821062326431274, 0.04801975190639496, 0.09173757582902908, -0.45619454979896545, 1.48593008518219, -0.5460268259048462, 0.4575251638889313, 0.6123558282852173, -0.7379195690155029, 0.04560668766498566, -0.4991893470287323, -0.29792386293411255, 0.5632222294807434, 0.28970858454704285, 0.9734914898872375, 0.013145084492862225, 0.13966864347457886, 1.276909589767456, 0.4211712181568146, -1.3141785860061646, -0.2683316171169281, 0.7398438453674316, 0.9045960307121277, 0.5021973848342896, 0.8044500946998596, -0.7860702872276306, 0.05726391822099686, -0.39614337682724, -0.614850640296936, -0.07302527874708176], [0.13031144440174103, -0.021984774619340897, 0.09797722846269608, -0.03438352420926094, -0.16655801236629486, -0.04906688630580902, 0.11012078076601028, -0.11117894947528839, -0.16250911355018616, -0.06851766258478165, -0.17699317634105682, 0.1787048876285553, 0.0897565707564354, -0.11047805100679398, 0.2295960783958435, -0.015153356827795506, 0.0372794009745121, -0.03980429843068123, 0.06352373957633972, 0.011735041625797749, -0.1024806872010231, 0.04664217680692673, -0.020978683605790138, 0.045559730380773544, 0.04997936636209488, 0.07474425435066223, -0.14109110832214355, 0.1066826730966568, 0.17055439949035645, 0.024619119241833687, 0.24424132704734802, -0.2336350828409195, -0.14178584516048431, 0.10491510480642319, -0.06872975826263428, 0.06899674981832504, 0.04987930878996849, 0.014933406375348568, -0.05877740681171417, -0.012639891356229782, -0.007142059504985809, -0.021995505318045616, 0.006047028116881847, 0.023407649248838425, -0.02818024903535843, -0.07157012075185776, 0.04108864441514015, -0.05469956248998642, -0.02736731618642807, -0.01719973422586918, 0.03535738214850426, -0.02110433392226696, 0.11826775223016739, 0.01619497500360012, -0.027250833809375763, -0.02650628611445427, -0.050453249365091324, -0.022710973396897316, -0.06886877864599228, 0.047888368368148804, -0.03009851835668087, 0.06450475007295609, -0.09487928450107574, -0.04088831692934036, 0.012200464494526386, -0.14060701429843903, 0.02758973278105259, -0.011708037927746773, -0.09133577346801758, -0.03244556486606598, -0.2552247643470764, 0.11652512848377228, 0.039608199149370193, -0.023859620094299316, -0.08553718775510788, 0.00362599641084671, -0.017345260828733444, -0.031784217804670334, 0.06362202763557434, 0.006050729658454657, 0.02247445285320282, -0.014672908931970596, -0.0371275432407856, 0.0505942739546299, -0.010846282355487347, 0.014755993150174618, 0.01214209571480751, -0.021992342546582222, -0.005864039994776249, -0.006047152914106846, -0.010871736332774162, 0.012893968261778355, 0.048001643270254135, -0.04811292514204979, 0.0306098610162735, -0.03874673694372177, -0.005382751580327749, 0.035722337663173676, 0.04908266291022301, 0.027932049706578255, -0.04694867879152298, 0.00461732130497694], [0.7914363741874695, 0.01698475517332554, -0.26458996534347534, -0.4613856375217438, -0.3410578668117523, 0.3664856553077698, -0.09599898010492325, 0.20170952379703522, -0.31336143612861633, 0.2753613591194153, -0.6107439994812012, -0.45760050415992737, 0.008856043219566345, 0.09629380702972412, -0.14833521842956543, -0.16692188382148743, 1.981711506843567, -0.6098486185073853, -0.05665859952569008, -0.06555650383234024, 0.8128926753997803, 0.17013652622699738, -0.22959323227405548, -0.47966399788856506, -0.07218319922685623, 0.05653325468301773, -0.46227455139160156, 0.3879116177558899, -0.7886404395103455, 0.5010437965393066, -0.3146769106388092, -0.4079456627368927, 0.10308542102575302, 0.09513559937477112, 0.1271435022354126, -0.38071200251579285, 1.5570710897445679, -0.44424259662628174, -0.16713842749595642, -0.06932888180017471, 2.102039337158203, 0.2544090151786804, 1.1230100393295288, -0.884049117565155, 0.1256406158208847, 0.42743587493896484, -1.523327112197876, 0.4093354046344757, 0.03910747170448303, -0.29014667868614197, -0.023497534915804863, 0.48942163586616516, 0.7106418609619141, 1.0263807773590088, -0.7511064410209656, 0.49553272128105164, 0.19445431232452393, 0.720434308052063, 0.7016708254814148, -0.2797042727470398, -0.24788549542427063, 0.9296721816062927, 0.033518385142087936, 0.1589967906475067, 0.01010277308523655, 0.09707919508218765, -0.24111853539943695, 0.21729984879493713, -0.8007107377052307, 2.0486159324645996, -0.23762069642543793, -0.5201751589775085, 0.322814404964447, 0.9001632332801819, 0.2209184616804123, -0.7737970948219299, 1.3358510732650757, -0.7536700963973999, 0.22715069353580475, 0.9092387557029724, 0.3139536380767822, 0.14362211525440216, 0.289177805185318, -0.15805339813232422, -1.1891016960144043, -0.03181186690926552, -0.1767951101064682, -0.930609941482544, -0.3787654936313629, -0.27188122272491455, -0.39617395401000977, -0.11751585453748703, -0.2835180461406708, -0.12099512666463852, 0.18719856441020966, -1.3751839399337769, 0.43143048882484436, 0.09952829033136368, -0.3962879478931427, -0.1696818619966507, 0.1441020518541336, 0.3842836022377014], [-0.17556801438331604, 0.056134335696697235, -0.0274288821965456, -0.017581544816493988, 0.08866780996322632, 0.1418166607618332, -0.01763921231031418, 0.038927771151065826, 0.06094938516616821, -0.11137822270393372, 0.05528629198670387, -0.045604195445775986, -0.128928542137146, -0.03954015299677849, -0.0043858932331204414, 0.11660186201334, -0.011652523651719093, -0.030378373339772224, -0.13240452110767365, -0.026632023975253105, 0.14615873992443085, -0.09214672446250916, 0.06651277095079422, 0.022600729018449783, -0.02276478335261345, -0.11909476667642593, 0.020185207948088646, -0.038266558200120926, -0.10664671659469604, 0.13797827064990997, -0.07848033308982849, 0.021197160705924034, 0.09488479793071747, 0.028861401602625847, 0.003666878445073962, -0.1249857172369957, 0.04558335617184639, 0.022127149626612663, 0.16195376217365265, -0.003177170641720295, 0.030290788039565086, -0.011624559760093689, 0.008140948601067066, 0.024239487946033478, -0.014206698164343834, -0.023748574778437614, -0.000433767621871084, 0.021239876747131348, 0.01877572014927864, -0.032298021018505096, -0.017902225255966187, 0.05402239039540291, 0.012033624574542046, 0.029636135324835777, 0.049265895038843155, 0.031725507229566574, 0.003040613606572151, -0.049445077776908875, -0.018916314467787743, 0.00022752843506168574, 0.02919069118797779, -0.043152835220098495, -0.020336873829364777, -0.030517302453517914, 0.00508912792429328, -0.027410468086600304, 0.055283743888139725, 0.02839142642915249, 0.010902957059442997, -0.02981446124613285, 0.06775090098381042, -0.014495765790343285, 0.016694912686944008, 0.010995475575327873, -0.006577567663043737, 0.02548345737159252, -0.005400396417826414, 0.022334786131978035, -0.019712550565600395, -0.011679858900606632, 0.008764620870351791, -0.03536374121904373, 0.03896964713931084, -0.0373876616358757, -0.02353411354124546, 0.025036124512553215, -0.0013976962072774768, 0.017390424385666847, -0.0498247891664505, -0.012768066488206387, 0.007237710058689117, 0.01724465936422348, -0.056709226220846176, -0.02069607749581337, -0.03539517894387245, -0.05332024395465851, -0.021367162466049194, -0.006353542674332857, -0.00407086918130517, -0.00024497901904396713, -0.004485923331230879, 0.013863055035471916], [0.36027655005455017, 0.10871059447526932, -0.15677709877490997, 0.34347954392433167, -0.3386994004249573, -0.07920568436384201, -0.8250550031661987, 0.48156365752220154, -0.593839168548584, -0.021855419501662254, -0.10634380578994751, 0.0061152903363108635, -0.14219599962234497, 0.10951702296733856, -0.004132350906729698, -0.13317424058914185, -0.49374866485595703, 0.23688578605651855, -0.9945392608642578, 0.23461510241031647, 0.12082306295633316, -0.1623842567205429, -0.33539602160453796, 0.32973262667655945, -0.1536867320537567, -0.4106350243091583, -0.8823519349098206, 0.3590761721134186, -0.28138548135757446, -0.6257198452949524, -0.20853163301944733, -0.10353028029203415, -0.2737663686275482, 0.13082121312618256, -0.20225006341934204, -0.15800440311431885, -0.6125170588493347, 0.2975490391254425, -0.8015080690383911, 0.1654348373413086, -1.2887330055236816, 0.5488476157188416, -0.526544451713562, -0.28169670701026917, -0.42048168182373047, -0.1915510892868042, 0.1983603537082672, 0.25065991282463074, 0.05677875131368637, -0.7298970818519592, -0.1784086525440216, 0.0784333273768425, -0.07859113812446594, 0.04342314973473549, 0.5202568173408508, 0.5244553089141846, 0.11439637094736099, 0.6876927018165588, -0.6239380836486816, 0.3213531970977783, 0.10802502185106277, 0.2858307957649231, -0.3527243137359619, 0.6260949969291687, -0.058524239808321, -0.7535347938537598, -0.4980907142162323, 0.37787148356437683, -0.6864977478981018, -0.15607407689094543, 0.013313130475580692, -0.17017465829849243, -0.6638501286506653, -0.43478646874427795, -0.12095864117145538, 1.0723650455474854, -0.12141727656126022, -0.114033542573452, -0.38532498478889465, -0.12352558970451355, -3.2602720260620117, 0.11623301357030869, 0.29715174436569214, 0.2791735529899597, 0.650185227394104, -0.16298115253448486, -0.19399216771125793, -0.48402339220046997, 0.15363626182079315, 0.01458048541098833, 0.7002080082893372, 0.4864991307258606, 0.5707972645759583, 0.20904117822647095, 0.47896936535835266, 0.3719271719455719, 0.9662914872169495, 0.1763288527727127, 0.5964738130569458, 0.575152575969696, 0.5838192105293274, 0.5736383199691772], [-0.12506583333015442, -0.033096883445978165, 0.1525653451681137, 0.21527592837810516, 0.34270524978637695, 0.28063398599624634, -0.19270943105220795, -0.5159894227981567, -0.4972721338272095, 0.5204248428344727, -0.5361078381538391, -0.2536126673221588, -0.057797711342573166, 0.6687654852867126, -0.6534220576286316, -0.027132919058203697, 0.30617114901542664, -0.12992890179157257, -0.25595730543136597, -0.4454231560230255, -0.24265699088573456, -0.0946938693523407, -0.1810370832681656, 0.09627512842416763, 0.6965754628181458, -0.052528902888298035, -0.3080136477947235, -0.4763939678668976, -0.15946774184703827, 0.294477641582489, -0.6578661203384399, -0.3333439528942108, -0.3889633119106293, 0.5945755243301392, -0.8161768913269043, 0.2827914357185364, -0.003592944936826825, -0.19764481484889984, -0.3426859974861145, -0.5855886340141296, 1.0502747297286987, 0.8997821807861328, -0.07768749445676804, -1.6776700019836426, -0.08188032358884811, 0.6002066135406494, 0.5078812837600708, 1.2814658880233765, -0.21659892797470093, 0.9432182312011719, -0.3484231233596802, 0.5185707807540894, -0.5852487683296204, 0.9100670218467712, -0.4220212399959564, -0.6002007126808167, -0.8683786988258362, -0.284452885389328, -0.6898971199989319, 0.0006377633544616401, -0.32734307646751404, 0.9251142144203186, 0.20889532566070557, -0.34248533844947815, 1.4039162397384644, -0.016260070726275444, 0.10908102244138718, -0.16748332977294922, -0.6287385821342468, 0.7192583680152893, -0.27480190992355347, 0.575871467590332, -0.9910815358161926, 0.37760674953460693, -0.6150143146514893, 0.767167329788208, -0.18054869771003723, 0.15031123161315918, 0.1099778339266777, -0.34243491291999817, -4.7859296798706055, 0.6746914386749268, 0.3140186369419098, -0.05250144377350807, 0.16672620177268982, -0.04228099808096886, -0.9198261499404907, 0.7481135725975037, 0.8172897100448608, 0.5586845874786377, -0.3252105712890625, 0.4269070327281952, 0.1419050693511963, 0.4166874885559082, 0.7597707509994507, -0.9287013411521912, 0.2707362473011017, -0.11401285231113434, 0.23069383203983307, 0.018892262130975723, 0.11081374436616898, 0.007990975864231586], [-0.14492563903331757, -0.9202209711074829, -0.7704647779464722, 0.8744233846664429, 0.2839237153530121, 0.48801177740097046, -0.8011038303375244, 0.01948816329240799, -0.46532920002937317, 0.2974129617214203, -0.36789238452911377, 0.057372961193323135, -0.2563145160675049, 0.018999816849827766, -0.08041303604841232, -0.06015728414058685, -0.46072229743003845, 0.30479922890663147, 0.07736977189779282, -0.30222609639167786, -0.34113654494285583, -1.0251823663711548, -0.8995247483253479, 0.8378795385360718, 0.39466413855552673, 0.17478886246681213, -0.4491083025932312, 0.17984206974506378, 0.2578108012676239, -0.293804794549942, 0.020710431039333344, -0.7376757264137268, -0.3099703788757324, -0.016298625618219376, -0.9784790277481079, 0.34556904435157776, 0.027611160650849342, 0.4442553222179413, -0.1494329273700714, -0.697443425655365, -0.636086106300354, -0.16432085633277893, -0.6331614255905151, -1.1336431503295898, 0.8412463665008545, 0.21719728410243988, -0.891821563243866, 0.5654160976409912, -1.7474631071090698, -0.06946521997451782, 0.27525264024734497, -0.7175735831260681, 0.22185072302818298, 2.1496965885162354, 0.8125548362731934, 0.8455570340156555, -0.1540583074092865, -1.1938856840133667, 0.4013896584510803, -1.351952075958252, -0.7573743462562561, -0.0790235698223114, 0.7024325728416443, -0.46553683280944824, -0.33350199460983276, 0.16934767365455627, 0.2016899436712265, -0.21017758548259735, 1.1651690006256104, 0.43149739503860474, -1.4120336771011353, -0.0528574138879776, -0.26453861594200134, -0.5517448782920837, 0.02510874532163143, -0.6345192193984985, 0.011882506310939789, -0.2355775386095047, 1.3418364524841309, 0.23583774268627167, 0.4288642704486847, 0.6443799734115601, 0.25763052701950073, -0.5552124977111816, 1.068830132484436, 0.4885571300983429, 0.24687527120113373, 1.0367670059204102, 0.1714736521244049, 0.2300216108560562, 1.0279731750488281, 1.187029480934143, 0.9382189512252808, -0.28775444626808167, 0.22290709614753723, 0.4444954991340637, -0.49154365062713623, 1.4203925132751465, -0.6475633382797241, -0.3442588746547699, 0.04909550026059151, -1.0558404922485352], [0.32244041562080383, 0.032319728285074234, -0.014897771179676056, -0.13110671937465668, 0.3926023542881012, -0.3351958990097046, 0.014034547843039036, 0.10168049484491348, 0.19292832911014557, -0.5589110255241394, -0.45720577239990234, 0.11351757496595383, -0.5576152205467224, -0.5412391424179077, -0.14894138276576996, 0.19628356397151947, 0.31973257660865784, -0.7597562670707703, 0.26766437292099, -0.6185249090194702, 0.6679713129997253, 0.1515713483095169, -0.07667724788188934, 0.20152930915355682, 0.16716910898685455, -0.07484827935695648, -0.013792325742542744, -0.08319795876741409, -0.2150099277496338, -0.222477987408638, -0.06677855551242828, -0.09378767013549805, -0.2943049967288971, -0.22903278470039368, -0.09199778735637665, 0.2798161208629608, -0.19506484270095825, 0.2560257911682129, 0.2042643278837204, 0.1452905237674713, 0.2846549451351166, -0.353921502828598, 0.8141902685165405, 0.55379319190979, -0.4772403836250305, -0.23891344666481018, 0.4526593089103699, -0.6262257695198059, 0.29467710852622986, 0.5747685432434082, 0.43894851207733154, -0.7418839931488037, 0.259380966424942, 0.7313099503517151, -0.411820650100708, 0.6935272812843323, 1.416734218597412, 0.393655925989151, 0.5280428528785706, 1.231630802154541, -1.1365453004837036, -0.8385450839996338, 1.070277452468872, -0.29339686036109924, -0.5397568941116333, -0.08104506880044937, 0.5181352496147156, 0.0015864227898418903, -0.17124037444591522, 0.819446861743927, 0.688215434551239, -0.39164504408836365, 0.31404605507850647, 1.2131836414337158, 0.8850940465927124, 0.15195292234420776, 0.276676744222641, 0.45225703716278076, -0.011863629333674908, 0.4724592864513397, 0.5770407319068909, -0.42202186584472656, 0.026250692084431648, -0.5365104675292969, -0.44007816910743713, 0.4796396791934967, 0.5901620388031006, -0.6310354471206665, 0.1200549453496933, -0.30303144454956055, -0.9856451153755188, -0.08395767956972122, 0.04088196903467178, -0.20848378539085388, 0.2995660901069641, 0.413426011800766, 0.063789002597332, -0.8544003963470459, 0.3482007682323456, -0.09705385565757751, -0.08502760529518127, 0.09316254407167435], [0.04753444716334343, 0.07643831521272659, 0.0947348102927208, -0.08920733630657196, 0.06419866532087326, -0.07773877680301666, -0.012738754041492939, 0.004524055402725935, -0.007310244254767895, 0.03948706015944481, 0.07417156547307968, 0.07074026763439178, -0.09700127691030502, 0.00454700505360961, 0.0030479070264846087, 0.10490231961011887, -0.011584888212382793, 0.02490873821079731, -0.019354943186044693, 0.02628910169005394, -0.045921653509140015, -0.10682547092437744, -0.08570118248462677, 0.06237029284238815, -0.039741672575473785, -0.0323297418653965, 0.002416059607639909, 0.05457654222846031, -0.033995408564805984, -0.008820885792374611, -0.04355797916650772, -0.10923993587493896, 0.0827554240822792, 0.09363993257284164, -0.05828779563307762, -0.06058928743004799, 0.01827140711247921, 0.017330212518572807, 0.019141335040330887, -0.045549143105745316, 0.018381260335445404, -0.01754719763994217, 0.013207942247390747, 0.03047395683825016, 0.01190086081624031, 0.002319972962141037, -0.028364360332489014, -0.0019158587092533708, 0.007246332708746195, 0.014729952439665794, -0.005870712921023369, 0.04379839077591896, -0.007408688310533762, -0.016542987897992134, -0.0077721006236970425, -0.0014223188627511263, 0.018481429666280746, -0.017510201781988144, -0.019966911524534225, -0.004438694100826979, 0.05244606360793114, 0.05660609155893326, 0.0017276847502216697, -0.007345254998654127, -0.03067764639854431, 0.04618348926305771, -0.005792671348899603, -0.035026539117097855, 0.05939498916268349, 0.007383808493614197, 0.010338881984353065, 0.06405521929264069, -0.03574960306286812, -0.03199572116136551, 0.01845799759030342, -0.07118546962738037, -0.05569164454936981, 0.005689389072358608, 0.03189723938703537, 0.011207018047571182, -0.018077168613672256, -0.052289389073848724, 0.0072149550542235374, -0.026080990210175514, 0.015024403110146523, 0.027415530756115913, 0.0031019910238683224, -0.011359493248164654, -0.035719696432352066, -0.003600585740059614, -0.009404378943145275, 0.014169608242809772, 0.011410343460738659, -0.014861444011330605, -0.023772748187184334, 0.02335548959672451, 0.0066148280166089535, 0.008138705044984818, 0.02641427330672741, 0.05319606140255928, 0.03330180421471596, 0.004248352721333504], [0.00981050357222557, -0.12084909528493881, -0.01516164094209671, 0.02793434076011181, 0.0557698979973793, 0.04209885746240616, -0.008346536196768284, 0.0909343734383583, -0.020120009779930115, -0.06312418729066849, 0.011679102666676044, 0.02455178089439869, -0.00807780958712101, -0.061102233827114105, 0.01307204831391573, 0.054688114672899246, -0.06867513805627823, -0.04326942190527916, -0.02061379700899124, 0.029566695913672447, 0.02437438815832138, 0.10456734895706177, 0.023498021066188812, -0.05526098236441612, -0.027078703045845032, -0.03440610691905022, 0.03380564972758293, -0.03351302817463875, -0.0023223087191581726, 0.046356745064258575, -0.02858070284128189, -0.000383432226954028, -0.00034730316838249564, 0.038000065833330154, 0.0042029209434986115, -0.0491369254887104, 0.08041375875473022, 0.028374381363391876, -0.029565665870904922, -0.01470837090164423, 0.009329576045274734, -0.008584222756326199, -0.015348861925303936, -0.03271131217479706, 0.00542660104110837, -0.011755624786019325, -0.0110927177593112, 0.009090536274015903, -0.006128279957920313, 0.015406048856675625, 0.020515697076916695, -0.051777180284261703, -0.03868180885910988, -0.013726954348385334, -0.045836180448532104, -0.009788627736270428, 0.0015000395942479372, 0.038107872009277344, 0.0198920089751482, -0.050566721707582474, -0.04360530897974968, 0.007798840291798115, -0.041321590542793274, 0.04602329432964325, -0.03551378846168518, 0.0033710498828440905, -0.03392573446035385, -0.05451410263776779, 0.03500208258628845, 0.021521298214793205, 0.05222256854176521, -0.03075692057609558, -0.01470292266458273, -0.014635526575148106, -0.07742078602313995, 0.017705364152789116, -0.01837700791656971, 0.035475954413414, 0.01725439913570881, 0.022167060524225235, -0.01570957899093628, -0.018385931849479675, 0.009612181223928928, 0.02135618031024933, 0.028160084038972855, -0.017112862318754196, 0.0063507105223834515, 0.029405951499938965, -0.007666426710784435, 0.01583462581038475, -0.013313882052898407, -0.01414323877543211, 0.020732520148158073, 0.06211477890610695, 0.008749260567128658, 0.03502573445439339, 0.022337665781378746, 0.002778301015496254, -0.01668921671807766, -0.01116485707461834, 0.03357257321476936, 0.015347778797149658], [-0.028123410418629646, -0.07350131124258041, -0.006508986931294203, -0.1167401447892189, -0.010046041570603848, -0.0333506241440773, -0.03535975143313408, 0.02392195723950863, 0.011151648126542568, -0.006183736491948366, -0.0679364874958992, -0.002082498511299491, -0.0014905082061886787, -0.04365110769867897, 0.108925960958004, 0.05800921842455864, 0.0018296496709808707, -0.0370967835187912, 0.005981534719467163, 0.0307457372546196, 0.041023824363946915, 0.12024766206741333, 0.009122652933001518, 0.06251657754182816, 0.017953861504793167, 0.0455862358212471, 0.06297123432159424, -0.07869300246238708, 0.002872973680496216, 0.042974814772605896, 0.0735941007733345, -0.0014090667245909572, 0.018819255754351616, 0.007522867992520332, -0.023062661290168762, -0.05290168523788452, -0.05903325602412224, -0.001599002629518509, 0.020605405792593956, -0.08114868402481079, -0.03016778640449047, -0.034392599016427994, -0.009398726746439934, -0.013385952450335026, -0.02429007925093174, -0.03542441502213478, 0.03506463021039963, 0.029160743579268456, -0.029941871762275696, -0.005343050695955753, 0.04014291986823082, -0.012952979654073715, 0.014847171492874622, 0.00971903931349516, -0.004897464532405138, -0.014888805337250233, 0.017267098650336266, 0.04238715395331383, 0.02985001727938652, -0.058348432183265686, 0.0408330000936985, -0.04062667489051819, -0.002022341825067997, 0.029788032174110413, -0.017782162874937057, -0.01822187379002571, -0.05895104259252548, 0.06000706925988197, -0.015083885751664639, 0.01647857204079628, -0.044776592403650284, -0.03032168373465538, -0.08838773518800735, -0.010043985210359097, -0.02193189598619938, 0.03536079451441765, 0.059976741671562195, 0.025157686322927475, -0.006645419169217348, 0.05492539331316948, -0.017884720116853714, 0.00933972280472517, -0.004774698056280613, 0.004061620216816664, 0.02735583297908306, 0.014331557787954807, -0.009161044843494892, -0.01239225547760725, 0.0008249815437011421, -0.03233829885721207, -0.007383966352790594, 0.0010635345242917538, 0.006620904430747032, 0.021345067769289017, 0.003264641622081399, 0.0037276726216077805, -0.004786279518157244, 0.012773731723427773, -0.037161000072956085, -0.029812276363372803, -0.010144276544451714, -0.01190929301083088], [0.02605077251791954, 0.016848545521497726, -0.06672590970993042, 0.006783836986869574, -0.03035368211567402, -0.07291216403245926, 0.04124104604125023, -0.08550521731376648, -0.0014028603909537196, 0.050944626331329346, 0.04867449402809143, 0.06689292937517166, 0.00045998572022654116, 0.05501406267285347, -0.012231560423970222, -0.03452300652861595, 0.059902310371398926, 0.11568432301282883, 0.056176718324422836, -0.016495289281010628, 0.01167488656938076, -0.0622711107134819, 0.06839843839406967, -0.01169082336127758, 0.010952064767479897, 0.018008193001151085, -0.002423182362690568, 0.06423282623291016, -0.000649149646051228, -0.0576895996928215, 0.003156960941851139, -0.08006855100393295, -0.023539338260889053, -0.05780133977532387, 0.0010578854708001018, 0.05307319760322571, -0.0915059819817543, -0.06225698068737984, -0.060089997947216034, 0.03200151026248932, 0.007837208919227123, 0.013839767314493656, 0.03275096043944359, -0.02061629109084606, -0.015424998477101326, 0.041148435324430466, 0.003446599468588829, -0.01643148809671402, 0.007928465493023396, 0.008504563011229038, 0.02517024613916874, 0.009204264730215073, -0.007659249007701874, -0.037869732826948166, 0.0068158553913235664, 0.036608073860406876, -0.009537853300571442, -0.011146959848701954, -0.005347943399101496, -0.00520947203040123, -0.0068615153431892395, 0.028695503249764442, 0.0009431198122911155, 0.0070036002434790134, 0.0397125668823719, 0.01624157838523388, 0.0025153658352792263, 0.037513215094804764, -0.013066831976175308, 0.004320488777011633, 0.004147108644247055, 0.004896168597042561, 0.00949306320399046, 0.027161266654729843, -0.05700589716434479, -0.050679318606853485, 0.021720854565501213, -0.07460099458694458, 0.04840793460607529, -0.00499306246638298, -0.0042519401758909225, 0.016156109049916267, -0.036503203213214874, -0.002214940031990409, 0.012003649026155472, 0.016539109870791435, -0.02300875447690487, 0.0002610162482596934, 0.013301201164722443, 0.024327509105205536, -0.018011849373579025, -0.014170883223414421, 0.006542551796883345, 0.006313604768365622, 0.006227344274520874, 0.0044115204364061356, 0.0050099072977900505, -0.015443348325788975, 0.03370627388358116, -0.0037499007303267717, 0.03851059824228287, -0.008820179849863052], [0.3951420187950134, -0.03691331297159195, 0.3184250295162201, 0.22031766176223755, -0.3289073705673218, -0.15884636342525482, 0.11114893853664398, 0.0015734187327325344, 0.3757529854774475, 0.439689040184021, 0.0053140390664339066, 0.11351458728313446, -0.19425804913043976, 0.10373473167419434, -0.23576784133911133, 0.1375541239976883, -0.07221807539463043, 0.11762885749340057, -0.03282492607831955, -0.2536284029483795, -0.29519402980804443, -0.0422346293926239, 0.0075460318475961685, -0.24184730648994446, -0.17535682022571564, -0.055022697895765305, -0.32782840728759766, -0.502220630645752, 0.0029677669517695904, -0.3019586205482483, 0.07278205454349518, 0.17869816720485687, 0.16088861227035522, 0.21843066811561584, 0.27415624260902405, -0.1565360277891159, -0.10398715734481812, -0.06116171553730965, -0.0877128392457962, 0.17234249413013458, -0.3256068527698517, -0.3014531433582306, 0.30319076776504517, 0.0759139284491539, -0.1301470398902893, 0.1285630613565445, 0.11504486203193665, 0.09089542180299759, 0.10593068599700928, -0.1411202847957611, -0.1444515436887741, -0.07285168021917343, -0.06806603074073792, 0.14645114541053772, -0.28453880548477173, 0.04398539662361145, -0.22559572756290436, -0.28463050723075867, -0.1492958515882492, 0.4868083596229553, -0.15852372348308563, -0.21870018541812897, -0.18626104295253754, 0.14351721107959747, 0.82045578956604, 0.2981920540332794, 0.41090360283851624, 0.8907302618026733, -0.46354979276657104, 0.14804324507713318, 0.26212432980537415, -0.012186708860099316, 0.02237943932414055, -0.09481483697891235, -0.097758449614048, 0.1521434485912323, 0.3963683545589447, -0.13173125684261322, 0.31093519926071167, -0.20808100700378418, -0.017286391928792, 0.16423965990543365, 0.37347108125686646, -0.16305124759674072, -0.055145710706710815, 0.12131413072347641, -0.16167989373207092, -0.09194877743721008, -0.15316472947597504, 0.15575064718723297, 0.15879212319850922, 0.13570858538150787, -0.07649371027946472, 0.02899925783276558, 0.08726855367422104, 0.3204903304576874, 0.017068373039364815, 0.10564327239990234, 0.19811099767684937, 0.20926254987716675, 0.048401039093732834, 0.06874774396419525], [-0.08228495717048645, 0.1292627453804016, -0.1298084259033203, 0.09213206171989441, 0.0586211122572422, 0.11928366869688034, -0.050344210118055344, 0.051396168768405914, 0.04935874417424202, -0.1640322357416153, 0.00829596072435379, 0.06710559129714966, -0.08187577873468399, -0.006239914335310459, -0.11276142299175262, 0.016728024929761887, -0.08454974740743637, -0.1068420559167862, -0.008963359519839287, -0.031090911477804184, 0.10147833824157715, -0.055166710168123245, 0.11675219982862473, -0.0012662623776122928, -0.011226196773350239, -0.1359890103340149, 0.020695019513368607, 0.0718013271689415, -0.03416082635521889, 0.17596127092838287, -0.0647737979888916, -0.08148155361413956, 0.11844277381896973, -0.04558798298239708, 0.09648873656988144, -0.04718005284667015, 0.10174892842769623, 0.10579286515712738, 0.02432381361722946, 0.04613672196865082, 0.034284621477127075, -0.032422445714473724, -0.01877293922007084, 0.010002706199884415, -0.004248481709510088, -0.008932726457715034, -0.007935745641589165, 0.013781859539449215, -0.020466605201363564, -0.09260530024766922, -0.06819700449705124, 0.027810845524072647, -2.504313670215197e-05, 0.04135582968592644, -0.012366815470159054, 0.014573630876839161, 0.013541772030293941, 0.01901797205209732, -0.010014466010034084, 0.03125566244125366, -0.10433937609195709, -0.0462365448474884, 0.0006579050095751882, -0.11570098251104355, -0.00047905874089337885, -0.005952802021056414, 0.013742152601480484, -0.1216915175318718, -0.005549370776861906, -0.033895161002874374, 0.048114847391843796, -0.015066413208842278, 0.02607235126197338, 0.07450946420431137, 0.01744621805846691, 0.02773752622306347, -0.03673022240400314, -0.009510855190455914, -0.041607338935136795, -0.03775947168469429, -0.02707611210644245, -0.03404352441430092, -0.004580043721944094, 0.029287492856383324, -0.02429192326962948, 0.0198658537119627, -0.007015668787062168, 0.005977204535156488, -0.057883452624082565, 0.029644740745425224, 0.044559113681316376, 0.03812967613339424, -0.04263147711753845, 0.012029992416501045, -0.02409127727150917, -0.0035617868416011333, -0.05041183903813362, 0.019580407068133354, 0.03102663904428482, 0.017292438074946404, -0.009411993436515331, 0.0187061857432127], [-0.1440049707889557, 0.03101467527449131, -0.8587372899055481, -0.2655194401741028, 0.049949198961257935, 0.057079240679740906, -0.09790831059217453, 0.04343613609671593, -0.25922340154647827, 0.19460046291351318, 0.2587772309780121, 0.2321711927652359, 0.4465811252593994, -0.004127067048102617, -0.3787490427494049, -0.0509384423494339, -0.004742941819131374, -0.09844985604286194, 0.29480114579200745, 0.233125239610672, -0.02432163618505001, -0.1830594539642334, -0.19534635543823242, -0.18419644236564636, 0.03791169449687004, -0.6648998260498047, -0.32176294922828674, 0.36218205094337463, 0.09819815307855606, 0.17812654376029968, 0.569879949092865, 0.003948061261326075, 0.0020344967488199472, 0.47979536652565, -0.4232564866542816, -0.19372683763504028, 0.003023022087290883, -0.28431639075279236, -0.13242311775684357, 0.046403851360082626, -1.2857310771942139, 1.3483736515045166, 0.6430591344833374, -0.4625999629497528, -0.4559822082519531, -0.09559518843889236, -0.2784547507762909, -0.6449612379074097, -0.20762039721012115, 0.005389520898461342, -1.033867597579956, 0.7559386491775513, 0.3187579810619354, 0.2262193113565445, -1.3714812994003296, -0.3522873818874359, 0.10454362630844116, -0.22542263567447662, 0.5381867289543152, 0.8978891372680664, -0.17736513912677765, -0.09681020677089691, 0.6408949494361877, 0.39772912859916687, -0.06157182157039642, 0.16612520813941956, 0.45586228370666504, -0.36445099115371704, -0.12186235934495926, 0.12688744068145752, -1.1549768447875977, -0.18087683618068695, -0.605959951877594, -0.5522269606590271, 0.36887121200561523, 0.19494666159152985, 0.06304360181093216, 0.5681619048118591, 0.18957599997520447, -0.4985184967517853, 0.22889572381973267, 0.6024602651596069, -1.4009944200515747, -0.3087620437145233, -0.059244219213724136, 0.5566320419311523, -0.10178809612989426, 0.1730870008468628, 0.5580807328224182, -0.18142499029636383, -0.017116840928792953, 0.6988285183906555, -0.20284275710582733, -0.17811082303524017, -0.020335080102086067, 1.2824087142944336, -0.010216292925179005, -0.3329821825027466, 0.029547588899731636, -0.22284328937530518, -0.4933975338935852, -0.43390679359436035], [0.4787082374095917, 0.24951708316802979, -0.33376556634902954, 0.07405085861682892, -0.48190030455589294, -0.16363556683063507, -0.6736233830451965, 0.22167082130908966, -0.5973674654960632, -0.06434471160173416, -0.2135453224182129, -0.224535271525383, -0.05362223833799362, 0.0690845251083374, -0.22089515626430511, 0.13879701495170593, -0.5806634426116943, 0.5368886590003967, -0.07029154151678085, -0.2940501868724823, 0.22184666991233826, 0.5262777209281921, -0.3048657476902008, 0.2573797404766083, -0.20320478081703186, -0.2948984205722809, -0.49588531255722046, 0.3588210344314575, -0.40880143642425537, -0.13373124599456787, -0.4177170991897583, -0.36573800444602966, -0.34934327006340027, -0.24662382900714874, -0.038775816559791565, 0.22569110989570618, 0.11892297118902206, 0.2533137798309326, 0.1707465648651123, -0.2442990243434906, 0.30643120408058167, 0.11214853823184967, 0.05149414390325546, -0.781975507736206, -0.0814390629529953, -0.4075923562049866, -0.19448591768741608, 0.6092295050621033, 0.993131697177887, 0.4257204234600067, -0.9020723104476929, 0.20706285536289215, -0.7050254344940186, -0.29036545753479004, 0.538073718547821, -1.8527730703353882, -0.22821640968322754, -0.036280322819948196, -0.13846299052238464, -0.2349250614643097, -1.1337357759475708, -0.4717787802219391, 1.0708496570587158, -0.2548901438713074, 0.39213666319847107, 0.467438280582428, 1.4999362230300903, -0.9856366515159607, 1.780327558517456, -0.9555884003639221, 0.8124309182167053, 1.2147574424743652, -0.0007122805691324174, 0.7340986132621765, -0.3739652633666992, -0.5963422060012817, 1.0881630182266235, -0.7313786745071411, -0.3562778830528259, 0.8299281597137451, 0.5441227555274963, 0.12140310555696487, -0.35926109552383423, 0.10781750082969666, 1.0188015699386597, -0.17483046650886536, 0.5043779015541077, -0.371604859828949, -0.23699714243412018, -1.0239893198013306, 0.18982532620429993, -0.2223401516675949, -0.2511109411716461, 0.5108231902122498, -0.16233359277248383, -0.06654781103134155, 0.6067987084388733, 0.7129203081130981, 0.10694560408592224, -0.5338000655174255, -0.04881324619054794, 0.546238124370575], [0.34176015853881836, -0.12873627245426178, -0.6437785029411316, -0.3547452688217163, 0.3805049955844879, -0.7375876903533936, 0.13278409838676453, 0.598374605178833, -0.13878200948238373, -0.10426443070173264, -0.5289266705513, 0.10740087181329727, -0.22267961502075195, -0.024761520326137543, -0.44018206000328064, -0.1986181139945984, 0.2371097058057785, -0.3647300899028778, 0.012037625536322594, 0.4297628104686737, 0.01019946951419115, -0.09521949291229248, -0.4761009216308594, -0.12271766364574432, 0.7554815411567688, -0.3766748607158661, 0.44328367710113525, 0.12964443862438202, -0.5150389075279236, -0.22788012027740479, -0.021650811657309532, 0.2567218244075775, -0.41468340158462524, -0.6250124573707581, 0.04640934243798256, -0.034015681594610214, -0.0884874016046524, 0.19820694625377655, 0.028145045042037964, 0.08964701741933823, -0.06464743614196777, 0.5067139863967896, -1.2101123332977295, 0.06467903405427933, -0.38488730788230896, 1.1228400468826294, -1.6636039018630981, 0.2474895715713501, 0.5512980222702026, -1.5479151010513306, -0.928192675113678, 0.3486059010028839, 0.6539880633354187, 0.0764801874756813, 1.742659568786621, -0.1007331907749176, -0.2229403555393219, 0.2248167097568512, -0.4112062454223633, -0.1697663515806198, 1.044830322265625, 0.8062922358512878, 0.19680926203727722, -0.2615225315093994, 0.41988232731819153, -0.3553693890571594, 0.9673691391944885, 0.7273023128509521, -0.10323763638734818, 0.8846397995948792, -0.7803329229354858, -0.019318288192152977, 0.2823634743690491, -0.7212672829627991, -0.853783369064331, 0.40055233240127563, -0.639617919921875, -0.21768230199813843, 0.29838672280311584, -0.10366052389144897, -0.8250317573547363, 0.8029933571815491, 1.0101630687713623, 0.464434415102005, 0.06842202693223953, -1.1507209539413452, -0.8396208882331848, 0.7953394651412964, -1.243112564086914, 1.1366018056869507, 0.019350742921233177, 0.30021703243255615, -0.33142825961112976, 0.31366556882858276, 0.08048543334007263, 0.5129926800727844, -1.1653730869293213, -0.1614970564842224, 0.7956557869911194, -0.8430320620536804, 0.3208247125148773, -0.1210547387599945], [0.014476246200501919, 0.007066402118653059, -0.039978910237550735, -0.0265332218259573, 0.05756087973713875, -0.008121024817228317, 0.023725537583231926, 0.09320998936891556, -0.11490882188081741, -0.11668519675731659, -0.06725343316793442, 0.021528759971261024, 0.07366708666086197, 0.054438069462776184, 0.018130771815776825, 0.018861571326851845, -0.04829736799001694, -0.011369808577001095, 0.063654325902462, 0.032251711934804916, 0.007169000804424286, 0.047613419592380524, 0.018692312762141228, 0.0015822676941752434, -0.06916439533233643, -0.00792879331856966, 0.008632971905171871, -0.03320285305380821, 0.12193170189857483, 0.11331193894147873, 0.06947185844182968, -0.026141665875911713, -0.06701251119375229, -0.060763295739889145, -0.01828821562230587, -0.002089678542688489, 0.03943421319127083, -0.003513988107442856, -0.08911854028701782, -0.015142516233026981, 0.022395288571715355, 0.018452055752277374, -0.0270013939589262, -0.02373792789876461, -0.010393543168902397, -0.03866115212440491, -0.0005014233174733818, 0.007188346702605486, -0.01036746334284544, 0.02857235074043274, 0.06251634657382965, -0.04518648982048035, 0.006584015674889088, -0.006465939339250326, -0.021599287167191505, -0.011440837755799294, -0.018272962421178818, 0.003002048470079899, -0.005473176017403603, -0.029758187010884285, -0.025000309571623802, -0.06435434520244598, -0.05003606900572777, 0.012943201698362827, -0.0132574662566185, -0.05088211968541145, -0.05030661076307297, -0.03542836755514145, -0.0007587808067910373, 0.020616751164197922, -0.05030093342065811, -0.026910237967967987, -0.013070075772702694, -0.006668470334261656, -0.026090318337082863, -0.010771556757390499, 0.0003652834566310048, 0.03899870812892914, 0.01479389425367117, 0.008251224644482136, -0.0023221385199576616, -0.010447227396070957, -0.011590871959924698, 0.03275051340460777, 0.012291590683162212, -0.016408486291766167, 0.0261092372238636, 0.01144559308886528, -0.008372096344828606, -0.004738164599984884, -0.034539178013801575, -0.014698686078190804, -0.00500710541382432, 0.014153051190078259, 0.04485519975423813, 0.030038926750421524, 0.029902096837759018, -0.00035611915518529713, -0.01709081046283245, -0.00025783441378735006, -0.0007529489230364561, -0.003817397402599454], [-0.06667546182870865, 0.02703896351158619, 0.007174291182309389, 0.10816910117864609, -0.03376510739326477, -0.05661508068442345, -0.0020643905736505985, -0.08817093074321747, 0.02278321236371994, -0.0796644389629364, -0.03302351385354996, 0.06196087226271629, -0.059980373829603195, -0.04856906086206436, 0.08007518947124481, 0.0847710520029068, -0.0764915868639946, -0.06291535496711731, 0.023497238755226135, -0.045695096254348755, 0.09191183745861053, 0.021549023687839508, 0.02197624370455742, -0.16998256742954254, -0.0020386865362524986, 0.006863648537546396, 0.003884834237396717, 0.018154863268136978, -0.017721371725201607, 0.04660966619849205, 0.07347550243139267, -0.12311730533838272, 0.012512823566794395, 0.0757451131939888, -0.03944375365972519, -0.013855689205229282, 0.08024578541517258, 0.06999297440052032, -0.033445436507463455, 0.022556796669960022, -0.04060307890176773, -0.017383409664034843, -0.023414980620145798, 0.005858530290424824, -0.008150474168360233, -0.0028545197565108538, 0.0010751200607046485, 0.005200469866394997, -0.02339700236916542, 0.012651784345507622, 0.05041103437542915, -0.013235696591436863, -0.007413171231746674, -2.7100051738671027e-05, -0.01219174638390541, -0.017970630899071693, -0.0373656302690506, -0.019035374745726585, -0.04776320606470108, -0.012208937667310238, -0.008084021508693695, -0.01016294676810503, -0.04002154991030693, 0.030567191541194916, 0.04824170470237732, -0.006100635509938002, -0.04565401002764702, 0.07592347264289856, -0.004092015326023102, -0.022041629999876022, -0.09809061139822006, 0.04433400183916092, 0.015466143377125263, -0.03388621658086777, -0.0005349616403691471, -0.05966794490814209, -0.02132670395076275, -0.004471617750823498, 0.017743883654475212, 0.025124015286564827, -0.005224357824772596, 0.03156410902738571, 0.00037226028507575393, 0.02441345900297165, 0.02466081827878952, 0.01807107962667942, 0.0024729431606829166, 0.01535092107951641, -0.016118476167321205, -0.007505706045776606, -0.014779118821024895, -0.00855653639882803, -0.0014884574338793755, 0.0054448191076517105, 0.004023383837193251, -0.03465433046221733, 0.0043363990262150764, 0.000776813889387995, 0.024252187460660934, 0.0210807453840971, 0.035684309899806976, -0.0007505037938244641], [-0.13829711079597473, 0.3363550305366516, 0.7219293117523193, 0.40355798602104187, 0.1867792308330536, 0.7663898468017578, -0.1457987129688263, 0.3826311230659485, -0.38190388679504395, 0.9326732754707336, 0.4554818868637085, 0.12695720791816711, -0.39122772216796875, -0.6727179884910583, -0.3102007210254669, -0.05237899720668793, 0.024431033059954643, 0.6006633639335632, -0.439701646566391, -0.2070997804403305, 0.0355495810508728, 0.23594160377979279, 0.2966039180755615, 0.3736051619052887, 0.25731146335601807, 0.9218419790267944, -0.06664213538169861, -0.21876190602779388, -0.2129872888326645, 0.49231967329978943, 0.3663007318973541, 0.06360483169555664, -1.035061240196228, -0.6307392120361328, -0.9026129841804504, 0.0676005557179451, -0.30709534883499146, 0.7054516077041626, -0.11920943111181259, 0.1380140334367752, -2.3159377574920654, -0.8497354388237, -0.40420979261398315, 0.23977428674697876, 0.19334624707698822, -0.3577507734298706, 0.5043621063232422, -0.7264776825904846, 0.5751150846481323, -0.06834493577480316, -0.2535501718521118, -0.12892863154411316, 0.22097148001194, 0.554751992225647, 1.501641035079956, -0.8657644391059875, -0.44107139110565186, 0.39690327644348145, -0.43180808424949646, -0.6077638268470764, -0.6514890789985657, 0.5827752947807312, -0.7615669965744019, 0.7687172889709473, 1.3644992113113403, 0.05078039690852165, -0.4590643346309662, -0.0825585126876831, -0.38219448924064636, -0.4773749113082886, 0.17572534084320068, 0.860634982585907, -0.028561696410179138, -0.3960510194301605, 0.6911579370498657, -0.4734647274017334, -0.046811770647764206, -0.037944745272397995, -0.556770920753479, 0.7205418348312378, -0.21648938953876495, -0.3957148492336273, 0.8757295608520508, 0.07830387353897095, 0.24930723011493683, 0.391259104013443, 0.10420747846364975, -0.2866939604282379, -0.2384151965379715, -0.3254735469818115, -0.3702096939086914, 0.3058321475982666, 0.7149719595909119, -0.17129115760326385, -0.6912874579429626, 1.3333173990249634, -0.4408947825431824, -1.476435661315918, 0.032521385699510574, -0.4304260015487671, 0.2764863967895508, -0.9927697777748108], [0.21149694919586182, 0.033615436404943466, -0.07363645732402802, -0.115557000041008, 0.0016559551004320383, 0.023724809288978577, 0.036450356245040894, -0.18857847154140472, 0.05675704777240753, 0.10622264444828033, -0.11223141849040985, 0.12675325572490692, -0.10687237232923508, 0.004200452473014593, 0.06506762653589249, 0.12241313606500626, -0.051847703754901886, 0.07926955074071884, -0.041656363755464554, 0.01553608663380146, -0.1643906980752945, 0.0645567998290062, 0.05262060463428497, -0.054811377078294754, -0.013347997330129147, 0.058607056736946106, 0.0065575712360441685, 0.01248144917190075, -0.01475287415087223, -0.0661499947309494, 0.060213662683963776, -0.049142614006996155, -0.007909980602562428, 0.033548545092344284, -0.056781087070703506, -0.15290650725364685, 0.017347000539302826, -0.07444973289966583, -0.008752379566431046, -0.04688391834497452, 0.002481935080140829, 0.01772613264620304, -0.003647660370916128, 0.05267125368118286, -0.05370475351810455, 0.02453172393143177, -0.0395021066069603, 0.03224440664052963, 0.03848184645175934, 0.08980902284383774, -0.0018109655939042568, 0.002216892782598734, 0.03982250392436981, 0.08408218622207642, 0.04169560596346855, -0.010448761284351349, 0.0855989083647728, -0.00915819313377142, -0.051506031304597855, -0.059164758771657944, 0.12256750464439392, -0.18280796706676483, -0.02761438488960266, 0.10200236737728119, 0.05338641628623009, -0.041276708245277405, 0.015780895948410034, 0.14266133308410645, -0.05380288511514664, -0.08611248433589935, 0.039113182574510574, -0.05631422996520996, -0.01888444274663925, -0.006026252172887325, 0.04251408576965332, 0.015268251299858093, 0.05123863369226456, 0.03377633914351463, 0.030493102967739105, 0.0111471489071846, 0.016507117077708244, 0.05729569494724274, -0.050832610577344894, -0.060433074831962585, 0.00412442022934556, -0.039812780916690826, -0.032987069338560104, 0.025145869702100754, -0.016623737290501595, -0.06477458775043488, -0.017682280391454697, 0.06755498051643372, -0.02672724239528179, -0.04328581690788269, -0.04636706784367561, -0.07217712700366974, 0.0196384247392416, -0.07118630409240723, -0.037118587642908096, -0.035596925765275955, -0.006586703006178141, -0.038880206644535065], [-0.04050524905323982, 0.0294790081679821, -0.0214409027248621, 0.03670285642147064, 0.10998841375112534, -0.02189619466662407, 0.01844104751944542, -0.0882464274764061, 0.0140716303139925, 0.1219184547662735, -0.0019548474811017513, 0.016761690378189087, -0.007913295179605484, 0.04696078971028328, -0.0656711533665657, -0.027947785332798958, -0.13508327305316925, 0.11693815141916275, -0.020221466198563576, -0.05694236606359482, 0.011340334080159664, -0.00962347537279129, 0.0011131961364299059, -0.05665071681141853, -0.05107143148779869, 0.10629256069660187, -0.05089394375681877, -0.06981067359447479, 0.012068810872733593, -0.018675396218895912, -0.028431642800569534, -0.007894244976341724, -0.05599543824791908, 0.003898672526702285, 0.10466250032186508, -0.10272160172462463, 0.15719009935855865, -0.0838523805141449, 0.06704067438840866, 0.030262446030974388, -0.09912698715925217, -0.04143945500254631, 0.018559036776423454, 0.08255340158939362, 0.04768769070506096, -0.01302633062005043, 0.006649112328886986, 0.047146204859018326, 0.028457246720790863, -0.01830012910068035, -0.034472689032554626, -0.008820172399282455, -0.0007358719012700021, 0.12072542309761047, 0.02637145295739174, -0.05300188064575195, 0.03948249667882919, 0.027927611023187637, 0.047865450382232666, 0.05095788463950157, -0.03914955258369446, 0.0026736436411738396, 0.026339244097471237, 0.01624934934079647, -0.06370542198419571, -0.046591050922870636, 0.01319546066224575, 0.0726892352104187, 0.033129703253507614, -0.020120440050959587, 0.017853789031505585, 0.00031383076566271484, 0.05711247771978378, -0.03924917057156563, 0.043292976915836334, 0.10586240142583847, 0.002243555849418044, 0.06387785077095032, -0.0675957202911377, 0.005248914938420057, -0.007701613940298557, 0.08136127144098282, 0.06288079917430878, -0.05523239076137543, -0.03582344204187393, -0.07900784909725189, -0.003498075297102332, -0.011296622455120087, -0.051733821630477905, 0.012071258388459682, 0.052793461829423904, -0.0011706973891705275, 0.006120354402810335, 0.0369083546102047, -0.09628482908010483, -0.038572028279304504, 0.03421324864029884, 0.0008325636736117303, -0.008124364539980888, -0.028894009068608284, -0.05507570505142212, 0.01990225352346897], [-0.07403068244457245, -0.05195440351963043, 0.04226353019475937, -0.07680658996105194, -0.03591391071677208, -0.028629954904317856, 0.06980184465646744, -0.10668211430311203, -0.008606635965406895, 0.034254126250743866, 0.09857679158449173, -0.002773585030809045, 0.1252478063106537, 0.04210422560572624, 0.006529616191983223, 0.02614203840494156, -0.0007899671327322721, -0.04023776948451996, -0.03812742233276367, 0.06647717207670212, 0.015215079300105572, 0.016321584582328796, -0.019097277894616127, 0.09050601720809937, 0.03686920553445816, 0.06661345809698105, -0.05379117280244827, -0.03871815279126167, 0.004105566069483757, -0.04701175168156624, -0.08532816916704178, 0.015520039945840836, -0.13402459025382996, -0.015216917730867863, 0.005080070812255144, -0.010296584106981754, -0.014157804660499096, 0.009318001568317413, 0.0380011685192585, -0.08405759930610657, -0.08270633220672607, 0.020693961530923843, 0.04357607662677765, -0.0038116576615720987, -0.011093443259596825, 0.0063085248693823814, 0.018097834661602974, -0.00792248360812664, 0.03294476866722107, -0.005630126688629389, 0.034238457679748535, -0.06211613491177559, -0.009727663360536098, 0.014118579216301441, 0.03381729498505592, 0.0012312920298427343, 0.016455665230751038, 0.011381376534700394, 0.0010254092048853636, 0.0018352061742916703, 0.04126664251089096, 0.035126905888319016, -0.025753315538167953, -0.003981994464993477, -0.012176784686744213, -0.017324447631835938, -0.011291326954960823, 0.11145424842834473, -0.0069390288554131985, 0.032520294189453125, 0.021437177434563637, 0.012711341492831707, 0.05786193907260895, -0.017886720597743988, 0.01544151734560728, -0.013660121709108353, 0.038307469338178635, 0.02678556926548481, 0.007124779745936394, -0.0006906137568876147, 0.00020266596402507275, 0.0553000271320343, 0.023701727390289307, -0.044502608478069305, -0.010390672832727432, -0.03810365870594978, -0.012415430508553982, -0.004029294941574335, 0.0012936145067214966, -0.010727010667324066, 0.01713702641427517, -0.04652615264058113, 0.027589404955506325, 0.011294012889266014, -0.011236478574573994, -0.014215645380318165, 0.015179089270532131, -0.0034401563461869955, -0.01796795427799225, -0.007902619428932667, -0.0018555090064182878, -0.006718894001096487], [0.0076819006353616714, -0.014150362461805344, 0.024250075221061707, -0.002683621598407626, 0.012780924327671528, 0.021439073607325554, 0.08367788791656494, -0.03549050912261009, -0.12318437546491623, 0.056302741169929504, -0.00681293336674571, 0.00510769197717309, 0.05188789591193199, 0.04546986147761345, 0.03234753757715225, -0.03575500473380089, 0.0497635155916214, -0.036835744976997375, -0.058054469525814056, -0.024358132854104042, 0.010490444488823414, -0.03224126994609833, -0.036720022559165955, -0.032300855964422226, -0.017672566697001457, -0.060151662677526474, -0.07511169463396072, 0.06870829313993454, 0.12756051123142242, -0.0513761006295681, 0.009450126439332962, -0.019079796969890594, -0.05210116133093834, -0.07415018230676651, -0.02790527231991291, 0.09198503196239471, -0.06851425766944885, 0.05421895161271095, 0.04927368089556694, 0.04375743120908737, 0.021250752732157707, 0.012347381561994553, 0.01325918547809124, -0.016328154131770134, 0.007849426940083504, 0.04310760274529457, -0.016274230554699898, -0.02265901491045952, 0.006988045759499073, 0.032640956342220306, 0.05187694728374481, 0.0014652193058282137, 0.004923739470541477, -0.03619926795363426, -0.0010624838760122657, -0.009414054453372955, -0.05511714518070221, -0.03643283247947693, -0.048620644956827164, -0.008011022582650185, -0.02219143882393837, 0.05120871961116791, -0.014713364653289318, 0.056024741381406784, 0.026047732681035995, -0.0034428974613547325, 0.05119210481643677, -0.008248877711594105, -0.044331371784210205, -0.016510894522070885, -0.028886795043945312, -0.026870960369706154, -0.009033665992319584, 0.03204137831926346, -0.025861360132694244, -0.014916784130036831, -0.00844837911427021, -0.023669084534049034, 0.039246708154678345, -0.00980291422456503, 0.014366744086146355, -0.005295364651829004, -0.009781181812286377, -0.0020337814930826426, 0.007884128019213676, -0.007693007588386536, 0.009909999556839466, -0.016899555921554565, 0.005373272579163313, 0.001480072969570756, -0.027827883139252663, -0.005510416347533464, 0.027681812644004822, -0.027482910081744194, 0.05068846791982651, 0.03476441651582718, 0.02539038099348545, 0.02683999016880989, 0.034791991114616394, 0.0557040311396122, 0.005193455144762993, -0.009915533475577831], [0.07270359992980957, -0.13816900551319122, 0.012936257757246494, -0.012007569894194603, 0.09443730860948563, -0.025287559255957603, -0.049000829458236694, 0.03317500650882721, -0.07798123359680176, 0.06264069676399231, 0.13988371193408966, 0.034917719662189484, 0.008273323066532612, 0.039485737681388855, -0.03299345076084137, 0.09104517102241516, -0.11275114864110947, 0.0503227673470974, 0.057553306221961975, -0.05892253294587135, -0.02976284548640251, 0.0969332903623581, 0.009521122090518475, 0.009784724563360214, -0.026355866342782974, -0.014579802751541138, 0.030471960082650185, -0.06095610186457634, 0.020913785323500633, 0.03202620521187782, -0.11276648938655853, 0.05245613306760788, 0.002050981158390641, 0.007512381765991449, 0.04079967737197876, -0.15973304212093353, 0.10883355885744095, -0.07911446690559387, -0.04373465105891228, 0.011144733987748623, 0.00037610254366882145, 0.020108629018068314, -0.06667961925268173, 0.025789553299546242, 0.012466894462704659, 0.01995089463889599, 0.0007079483475536108, 0.005495432764291763, 0.024070728570222855, -0.0037576055619865656, 0.051810044795274734, -0.023653434589505196, -0.028834011405706406, 0.025964586064219475, -0.00014316613669507205, -0.020011460408568382, -0.005656660534441471, 0.019436728209257126, -0.004199218470603228, -0.048207107931375504, -0.005692492704838514, -0.01490399707108736, -0.025758804753422737, 0.04873589053750038, -0.06554491072893143, -0.031057119369506836, 0.012923016212880611, 0.017940329387784004, 0.05263998359441757, -0.008022438734769821, 0.010509487241506577, -0.0910429060459137, -0.03372069075703621, -0.03955782204866409, -0.05481315404176712, 0.006494628731161356, -0.020916614681482315, 0.06972428411245346, -0.01448038499802351, 0.07156429439783096, -0.00592710031196475, 0.004222179763019085, -0.02692967653274536, -0.007459814194589853, -0.014550747349858284, -0.017837518826127052, 0.0012021849397569895, 0.004342124331742525, -0.01647164858877659, -0.018054820597171783, -0.015801910310983658, -0.03309066593647003, 0.01265298668295145, 0.04179158806800842, 0.016012294217944145, 0.0164963286370039, 0.009913424961268902, 0.014205662533640862, -0.023670246824622154, 0.008669647388160229, 0.01689731702208519, 0.007068495266139507], [-0.060585878789424896, -0.017178641632199287, 0.08707214146852493, -0.006956145633012056, 0.004625328350812197, 0.011973408050835133, -0.001619058195501566, 0.03603452071547508, -0.027161236852407455, 0.06876751035451889, 0.08987471461296082, 0.021060647442936897, 0.1004396602511406, 0.006657349411398172, 0.10886059701442719, 0.005050754640251398, 0.07568071782588959, -0.035368189215660095, -0.026771582663059235, 0.0929420217871666, 0.05130518227815628, -0.03247654065489769, -0.051032185554504395, 0.0476524792611599, -0.01872202567756176, 0.009263909421861172, -0.037776146084070206, 0.0036833372432738543, 0.04801340028643608, -0.0066774277947843075, -0.12388437986373901, -0.036363635212183, -0.06630382686853409, -0.05422881245613098, -0.034494273364543915, -0.005800358485430479, -0.012710959650576115, 0.06213413551449776, 0.045122575014829636, -0.10162878036499023, -0.07124560326337814, 0.024728337302803993, 0.0022507442627102137, 0.014643678441643715, 0.05801363289356232, 0.03621912747621536, -0.040915243327617645, 0.012594089843332767, -0.023263340815901756, 0.010038597509264946, 0.00531057408079505, -0.05466626212000847, 0.0013501652283594012, 0.047135937958955765, -0.015016213059425354, -0.037214022129774094, -0.00729319779202342, 0.0006482938188128173, -0.012357889674603939, 0.017903096973896027, -0.06077459082007408, 0.035371456295251846, -0.03394833952188492, -0.013324890285730362, -0.04929665848612785, -0.050098955631256104, 0.016780607402324677, -0.007791954092681408, -0.00621875561773777, -0.03257352113723755, -0.01129379216581583, 0.0018358243396505713, 0.04122065752744675, 0.05078066885471344, -0.05389953777194023, 0.02557985670864582, -0.030306553468108177, 0.03406326845288277, 0.004834144841879606, -0.022254688665270805, 0.0035928168799728155, 0.032503820955753326, -0.0016581665258854628, 0.008787442930042744, -0.03903563693165779, -0.07230601459741592, 0.005516300909221172, -0.0032033459283411503, -0.021420016884803772, 0.028425073251128197, 0.02303142659366131, -0.015307584777474403, 0.04629998281598091, -0.01731283776462078, -0.008469738066196442, 0.029676074162125587, 0.04780058562755585, 0.008502696640789509, 0.01055134367197752, 0.009469945915043354, -0.030272411182522774, 0.0003539801691658795], [-0.02252843789756298, 0.046511732041835785, 0.007058463990688324, 0.04710857570171356, 0.08775323629379272, 0.03347540646791458, -0.05304703116416931, -0.0330476351082325, -0.030260886996984482, -0.009737302549183369, -0.07059012353420258, -0.10904034227132797, -0.05151472985744476, 0.02997574955224991, -0.0019946780521422625, 0.03283148631453514, -0.08332820236682892, -0.08546995371580124, -0.0017849513096734881, -0.036442309617996216, 0.013528919778764248, 0.0018771319882944226, -0.04467646777629852, -0.0605776309967041, -0.09187072515487671, -0.014734212309122086, 0.018807077780365944, 0.0017289308598265052, 0.061561886221170425, 0.01867847703397274, 0.04099104553461075, 0.1187935397028923, 0.024299200624227524, 0.0015633826842531562, -0.026171410456299782, -0.01946578547358513, 0.03225589916110039, 0.06934574246406555, 0.05559204891324043, 0.044300127774477005, -0.012724008411169052, 0.0038474430330097675, -0.022322818636894226, 0.013810612261295319, -0.012593341059982777, -0.0008278851746581495, -0.0022296311799436808, -0.013185115531086922, 0.05540267005562782, 0.013810396194458008, 0.011807155795395374, 0.01910584419965744, -0.018780626356601715, 0.011885630898177624, 0.03796659782528877, 0.021620770916342735, -0.006095544900745153, 0.02388133853673935, -0.009309565648436546, 0.004113424103707075, 0.05019165948033333, -0.052877090871334076, 0.04798295348882675, 0.014710328541696072, 0.05112764984369278, -0.04821966961026192, 0.03241109102964401, 0.015887970104813576, -0.02561088278889656, -0.03669819235801697, -0.03983341529965401, -0.027604853734374046, 0.0218961238861084, -0.023753738030791283, 0.08500847220420837, -0.004741128534078598, 0.025974392890930176, 0.031219664961099625, -0.042298655956983566, -0.021561400964856148, 0.014742440544068813, 0.02111058682203293, 0.003384132869541645, -0.015904230996966362, -0.0007563460385426879, 0.0032755357678979635, 0.014903716742992401, -0.04163384810090065, 0.031141825020313263, -0.05077088624238968, 0.01775926537811756, 0.01876814290881157, -0.03505879268050194, -0.007284217514097691, 0.024287162348628044, -0.011485512368381023, -0.004946016240864992, 0.008357224054634571, 0.005929529666900635, 0.006816534325480461, -0.023957671597599983, -0.008036467246711254], [-0.16704204678535461, 0.05241949483752251, -0.36720335483551025, -0.8558923006057739, -0.03639059141278267, 0.6506246328353882, -0.20838317275047302, 0.10601302236318588, 0.20166200399398804, -0.33816930651664734, 0.017529891803860664, 0.08424156159162521, -0.08753941208124161, -0.07484692335128784, -0.44536519050598145, -0.4472784996032715, -0.08239585161209106, -0.02122417464852333, -0.497464120388031, 0.16484574973583221, 0.18478132784366608, -0.13314078748226166, -0.07185787707567215, -0.5017122626304626, 0.07470027357339859, -0.13274435698986053, 0.33356136083602905, -0.24536728858947754, 0.1980387568473816, 0.3146819472312927, -0.25816038250923157, -0.15156082808971405, -0.03729882463812828, -0.0636267438530922, -0.33643215894699097, -0.9190652370452881, 0.5269421339035034, 0.43241938948631287, -0.04437156766653061, 0.16728848218917847, -0.18614782392978668, -0.42846229672431946, -0.8965864777565002, -0.3970279395580292, 0.6586708426475525, 0.24332734942436218, 0.08810063451528549, 0.4653456509113312, 0.3458528220653534, 0.3716454803943634, -0.33350664377212524, -0.22438944876194, 0.5473121404647827, -0.4002138674259186, 0.03826693817973137, -0.6467053890228271, -0.14393927156925201, 0.04102045297622681, -0.1591767519712448, -0.3805541694164276, -0.08176108449697495, 0.48732104897499084, 0.7685338258743286, 1.4544342756271362, -0.37517499923706055, -0.8887619376182556, -0.41753238439559937, -0.5159212946891785, -0.4012678861618042, -0.059992969036102295, 0.19229935109615326, -0.3516610860824585, 0.00594055000692606, 0.32174253463745117, 1.1264047622680664, 1.2884949445724487, -0.5153643488883972, -0.7764723896980286, 0.5104227662086487, 0.003683799412101507, 0.10880172997713089, 0.018213937059044838, 0.38190242648124695, 0.5429931282997131, 0.20647820830345154, -0.8082127571105957, 0.08133681863546371, -0.06310498714447021, -0.3861633837223053, -0.6018838286399841, -0.17432497441768646, 0.18146876990795135, 0.040006719529628754, 0.02693811245262623, 0.5664011240005493, 0.1397068202495575, 0.15247280895709991, 0.31253930926322937, -0.4669671356678009, 0.04247085377573967, -0.14060571789741516, 0.2212601900100708], [-0.04341708496212959, -0.025184985250234604, -0.02571411430835724, -0.02098570019006729, 0.15051396191120148, 0.006859668530523777, -0.15391896665096283, -0.029056016355752945, 0.058646462857723236, -0.04610545188188553, -0.08442883938550949, 0.055960532277822495, -0.0462607815861702, 0.12726044654846191, 0.0017851691227406263, 0.07817273586988449, -0.06718273460865021, -0.06758417934179306, -0.1355821192264557, -0.034981802105903625, 0.1045718863606453, 0.0425296314060688, 0.03309491276741028, 0.05322173237800598, -0.12904872000217438, -0.09010592103004456, 0.1235523447394371, 0.11546258628368378, -0.04154399782419205, 0.057865727692842484, 0.0737641453742981, -0.07947688549757004, 0.0331353098154068, -0.09595387428998947, -0.018233317881822586, -0.05687740817666054, 0.12558789551258087, 0.10319045931100845, 0.15043270587921143, 0.05965294688940048, 0.034809499979019165, -0.05317577347159386, 0.004716158378869295, -0.01407820638269186, -0.00972382165491581, 0.021702930331230164, -0.010636046528816223, -0.002690816530957818, -0.012234850786626339, -0.025227798148989677, -0.04901193827390671, 0.0386282242834568, 0.009105393663048744, -0.011865032836794853, -0.04779848828911781, 0.006328895688056946, 0.0121906204149127, -0.04646908491849899, -0.046959973871707916, 0.02263454534113407, -0.09711900353431702, 0.006344991736114025, -0.03583962842822075, -0.04434407129883766, -0.005941847339272499, -0.02621021308004856, 0.03545115888118744, -0.07084772735834122, -0.01235753484070301, -0.008537167683243752, -0.04789085313677788, 0.033744439482688904, 0.08366353064775467, 0.020436502993106842, -0.04019452631473541, -0.026834456250071526, -0.061751268804073334, -0.02598673664033413, 0.002696298761293292, -0.0024737361818552017, -0.012515387497842312, -0.06820940226316452, -0.01410270482301712, 0.036014821380376816, 0.019223395735025406, 0.037605393677949905, -0.0510917566716671, 0.009778691455721855, -0.024927722290158272, 0.016545234248042107, 0.007975663989782333, 0.03885570913553238, 0.014284418895840645, -0.006061756517738104, -0.010336614213883877, 0.02772597409784794, -0.021396243944764137, -0.012135582976043224, 0.05139661207795143, 0.05450044944882393, 0.01323490310460329, 0.003134631086140871], [-0.19905996322631836, 0.005122000351548195, -0.10262678563594818, 0.038861438632011414, -0.005440807435661554, -0.03984154388308525, -0.08763042092323303, 0.12083710730075836, 0.11530336737632751, 0.03721747174859047, 0.17935675382614136, -0.0891394168138504, 0.21727369725704193, 0.08939753472805023, 0.04366638883948326, -0.06381931900978088, 0.18353383243083954, -0.026739919558167458, -0.06865903735160828, -0.01523781567811966, 0.19569101929664612, -0.0882878229022026, 0.046942632645368576, 0.06025145202875137, -0.007049135863780975, 0.03357584401965141, 0.05919943004846573, -0.0018833376234397292, -0.12988366186618805, -0.011154476553201675, -0.20986023545265198, 0.09381597489118576, -0.0943879634141922, -0.16798315942287445, -0.030627131462097168, -0.013584543019533157, -0.16901932656764984, 0.041367948055267334, 0.08099375665187836, 0.006643102969974279, -0.02026299387216568, 0.0696563720703125, -0.006846288219094276, -0.02897641435265541, 0.056554097682237625, 0.07762397825717926, -0.0038477673660963774, -0.005835773888975382, -0.04587174206972122, -0.03577816113829613, 0.003236435353755951, -0.02336360700428486, -0.011748428456485271, -0.018536193296313286, -0.007219699211418629, -0.037328094244003296, -0.0496247224509716, -0.010415058583021164, -0.026651600375771523, -0.029443394392728806, -0.10496323555707932, 0.00980001874268055, 0.07838409394025803, -0.05230715498328209, -0.021056484431028366, 0.02587236650288105, 0.021880149841308594, -0.112037792801857, 0.01507129892706871, -0.019692251458764076, 0.0761723667383194, -0.10029898583889008, 0.019176967442035675, 0.08600711822509766, -0.04375099018216133, 0.03863339498639107, -0.010860482230782509, -0.0364900566637516, -0.05072598531842232, 0.008053048513829708, 0.010848890990018845, -0.003168888622894883, -0.02327120676636696, 0.03722769767045975, -0.05040177330374718, -0.042242877185344696, 0.005899321753531694, 0.006995436269789934, 0.003404382150620222, 0.06430838257074356, 0.01482340507209301, -0.053250692784786224, 0.014549228362739086, -0.018147578462958336, 0.028114497661590576, 0.05476510897278786, 0.009185449220240116, 0.0006277194479480386, -0.0044463807716965675, 0.023481212556362152, 0.02042890340089798, -0.022638976573944092], [0.1328738033771515, -0.008458582684397697, -0.0399206168949604, 0.07584448158740997, -0.021251188591122627, -0.04695998877286911, 0.058213863521814346, -0.12332036346197128, 0.14250893890857697, -0.01784377545118332, 0.042891260236501694, -0.07923883944749832, -0.08409640192985535, 0.008393965661525726, -0.06431826949119568, -0.13113068044185638, 0.06756740808486938, 0.01294829323887825, -0.025707917287945747, 0.018798312172293663, -0.07250756025314331, 0.09450039267539978, 0.04242003709077835, -0.09498237073421478, 0.001144693000242114, 0.033679816871881485, -0.061316195875406265, 0.06005338579416275, -0.15861058235168457, -0.013898060657083988, -0.0314943753182888, 0.044467367231845856, 0.07396962493658066, -0.007469693664461374, 0.0900176540017128, 0.1416049599647522, -0.05575185269117355, -0.012633041478693485, 0.05422256886959076, -0.018450161442160606, 0.012132775038480759, -0.04983961209654808, -0.015732750296592712, 0.013791734352707863, -0.03176878020167351, -0.018572522327303886, -0.019507674500346184, -0.0213486235588789, -0.006047282833606005, -0.008871104568243027, -0.08399143069982529, 0.04014575108885765, 0.03580821305513382, 0.005871529690921307, -0.0037366272881627083, 0.009183518588542938, 0.025991005823016167, 0.045862503349781036, -0.04075349494814873, 0.027497004717588425, -0.023026518523693085, -0.01381727959960699, 0.017104793339967728, -0.04287967085838318, 0.0186893530189991, 0.020651185885071754, -0.03843764215707779, 0.039267927408218384, 0.01817208155989647, -0.011945351026952267, -0.03331579267978668, 0.0519583486020565, -0.04615149274468422, 0.006586180999875069, -0.03770191967487335, -0.024692730978131294, 0.004682966973632574, -0.03909657523036003, -0.009645487181842327, -0.01989637315273285, -0.013512589037418365, 0.004846328869462013, 0.0013190469471737742, 0.026460252702236176, -0.0021161693148314953, 0.029814567416906357, -0.011193240992724895, 0.003962851595133543, 0.010158716700971127, -0.027358807623386383, 0.015460224822163582, 0.04795502498745918, -0.0010294769890606403, -0.041063740849494934, 0.015383829362690449, 0.009606520645320415, -0.02898692898452282, -0.014169706031680107, -0.0330238901078701, 0.0033966894261538982, -0.013389911502599716, -0.016263877972960472], [-0.5541530847549438, 0.021281814202666283, -0.34808602929115295, 0.20513783395290375, 0.46519654989242554, -0.31948214769363403, 0.9035249948501587, 0.4719187915325165, 1.0158730745315552, -0.038679175078868866, -0.19782255589962006, -0.014154253527522087, -0.4163499176502228, 0.2909718155860901, 1.8559441566467285, 0.7936293482780457, 0.2041693925857544, 0.197784423828125, -0.08492093533277512, 0.857276201248169, -0.5825772881507874, 0.11273293197154999, 0.10079514980316162, 0.0803699940443039, 0.523759663105011, -0.19893059134483337, 0.6986888647079468, 0.09437546879053116, 0.34900587797164917, 0.4805960953235626, 0.3682110607624054, -0.07789415121078491, 0.2453293651342392, 0.1959838569164276, 1.752140998840332, 0.5072488784790039, -0.3719390332698822, 0.09888552874326706, -0.20073731243610382, 0.9451302886009216, 0.7171783447265625, 0.43227535486221313, -0.8138802647590637, 1.083631992340088, -0.3749638497829437, -0.2735276222229004, -0.9087430834770203, 0.35825714468955994, -0.4784727990627289, -0.11229439824819565, -0.39453068375587463, 0.2381807565689087, -0.07338254898786545, 0.10253815352916718, 0.08733032643795013, 0.1946161985397339, -0.3166162669658661, -0.29774388670921326, -0.6671407222747803, 0.8989856839179993, 0.22800090909004211, -0.048669107258319855, -0.4544781446456909, -0.17602036893367767, -0.9519683122634888, -0.34037479758262634, 0.25602686405181885, -0.6484857201576233, -0.3871845006942749, 0.6010178327560425, -0.1902220994234085, -0.7149519920349121, 0.5146185159683228, 0.3831672966480255, -1.2978509664535522, -0.816439151763916, -0.7247411608695984, 0.07268209010362625, -0.8500994443893433, -0.03945013880729675, 2.7402868270874023, -0.29370787739753723, 0.6497641801834106, -0.21178662776947021, -0.5024088025093079, -0.6685018539428711, -1.2707017660140991, 0.029922837391495705, -0.19968265295028687, -1.3443197011947632, 0.6633661389350891, -0.741807758808136, -0.010274024680256844, 0.09276788681745529, -0.2606857419013977, 0.1972552388906479, -0.7207334637641907, -1.3648465871810913, -0.060528986155986786, -0.6816793084144592, -0.09746687859296799, 0.07594949007034302], [0.8503594398498535, 0.7020860910415649, 0.17202500998973846, 0.16216199100017548, -0.8490899801254272, 0.34716498851776123, -0.04368628188967705, 0.2547633945941925, 0.07018917053937912, -0.44170039892196655, 0.03112323023378849, 0.2633956968784332, 0.5092887282371521, -0.02191118709743023, 0.12262894213199615, 0.08606046438217163, -0.2472333312034607, 0.1326073408126831, 0.8611639142036438, 0.06369727104902267, 0.7551677227020264, 0.6256420612335205, -0.002241194248199463, -0.36903420090675354, -0.5088602304458618, -0.024875717237591743, -0.20010824501514435, 0.6018093228340149, -0.27861520648002625, 0.1265518069267273, -0.2101910412311554, 0.49349018931388855, 0.3870580494403839, 0.02515203319489956, 0.04210067167878151, -0.22757436335086823, -0.1342386156320572, 0.28949615359306335, 0.5561906099319458, 0.06357233971357346, 0.8538645505905151, -1.223753571510315, 0.34892579913139343, -0.7821141481399536, -0.011409933678805828, 0.6651917099952698, -0.7423556447029114, 0.14675459265708923, -0.36221200227737427, 2.001100778579712, -0.2773798108100891, 1.3708875179290771, -0.27211734652519226, -0.12719956040382385, 1.56078040599823, 0.507077693939209, -0.4967212677001953, -0.9459972381591797, 0.6648748517036438, 0.5049008131027222, -0.04181781783699989, 0.4183548092842102, -0.8459183573722839, 0.5149422287940979, -0.4402661621570587, -0.3780290484428406, -0.7490687370300293, -0.11431971192359924, 0.5520550608634949, 1.3943333625793457, -0.19479185342788696, -0.26623380184173584, 0.367744505405426, 0.18802505731582642, -0.6255799531936646, -0.5061110258102417, -0.7155158519744873, 0.4463566541671753, 0.23092399537563324, 0.7303788065910339, 0.3449428975582123, -0.6229150295257568, -0.7668944001197815, -0.924342930316925, -1.0135163068771362, -0.2675694227218628, 0.5016006231307983, -0.6437350511550903, 0.16687101125717163, 0.08259923756122589, 0.10219988226890564, -0.6174717545509338, 1.0429977178573608, 0.06262314319610596, 0.15607112646102905, -0.7757708430290222, -0.020276587456464767, -0.36026057600975037, -1.115189790725708, -0.03755456954240799, -0.5340238213539124, 0.6632620096206665], [-1.0404386520385742, -0.9349600076675415, -0.25937318801879883, -0.4162832200527191, 0.31335628032684326, -0.10265836864709854, -0.25056707859039307, -1.3465135097503662, -0.31780803203582764, -0.3948743939399719, -0.4643450975418091, 1.3477214574813843, -0.08629342913627625, 0.05366958677768707, 0.5528877377510071, -0.050762634724378586, 0.6184030175209045, 0.006940745748579502, -0.144585520029068, 0.24787189066410065, -0.942883312702179, -1.2891594171524048, -0.06587322801351547, -0.8297882080078125, 0.06719443947076797, -0.07127983868122101, 0.2836454510688782, -1.4281033277511597, 0.28117647767066956, -0.9167118668556213, -0.03415641188621521, 1.2142608165740967, -0.0783379003405571, -0.3946633040904999, 0.6383312940597534, -0.044594112783670425, 0.21160808205604553, 0.320334792137146, -0.16872981190681458, 0.04417119175195694, -0.8788272142410278, 0.06340107321739197, 0.09873892366886139, -0.2438732087612152, -0.38095352053642273, 0.4960159957408905, -1.4425902366638184, -0.06432860344648361, -0.22274239361286163, -2.7995500564575195, 0.21585118770599365, 0.6593427658081055, -0.5540500283241272, 1.8983832597732544, 0.30907341837882996, 0.19979621469974518, -1.0376906394958496, 0.3922192454338074, -0.343791127204895, 0.6633521914482117, 0.20873907208442688, -0.39621227979660034, 1.2010960578918457, 0.40529146790504456, -0.0743396133184433, -0.18002790212631226, -0.5247925519943237, -0.858826220035553, 0.52777099609375, -2.153085947036743, -0.4813331663608551, 0.6489883661270142, -0.37101492285728455, -0.45338717103004456, 1.3964564800262451, 0.1205967366695404, 0.4917655289173126, -0.10919342935085297, 1.058618426322937, 0.5477141737937927, -0.4484720826148987, -0.7205148339271545, -0.5130954384803772, 0.4069766700267792, 0.44939470291137695, 0.07172255218029022, 0.6544495820999146, -0.04693381488323212, 0.22653567790985107, 0.6053788661956787, -0.7116978168487549, 0.6258607506752014, 0.5565656423568726, 0.2860373258590698, -0.01792287640273571, 1.145097017288208, 0.35179221630096436, -0.34426984190940857, -0.42450380325317383, 0.2363387793302536, 1.5269709825515747, 0.18422085046768188], [0.18514108657836914, 0.009329613298177719, 0.12070782482624054, 0.07678131759166718, 0.004210926126688719, -0.08728785812854767, -0.06692619621753693, 0.07957205176353455, 0.028853673487901688, 0.028187669813632965, -0.08479390293359756, 0.05948502570390701, -0.010380718857049942, -0.1264585554599762, 0.08550591766834259, 0.22038495540618896, -0.16892585158348083, -0.08045006543397903, 0.14909827709197998, -0.05176318809390068, -0.16959428787231445, 0.04260142520070076, -0.11765550822019577, -0.1152748391032219, 0.017724985256791115, 0.10698727518320084, 0.01288507878780365, -0.08351578563451767, -0.030231093987822533, 0.008869820274412632, 0.09222887456417084, -0.06264229863882065, -0.022961830720305443, 0.20738670229911804, -0.028074108064174652, -0.18776705861091614, 0.12173346430063248, 0.018174786120653152, -0.15579961240291595, -0.001240139128640294, -0.012548043392598629, -0.009932633489370346, -0.06513585150241852, 0.0297919400036335, -0.011530417017638683, -0.014331615529954433, -0.021763671189546585, -0.01977350376546383, 0.010360988788306713, 0.048727355897426605, 0.0392020121216774, 0.018057962879538536, 0.006669844966381788, 0.02975619211792946, 0.013822385109961033, -0.013286680914461613, 0.010335598140954971, 0.00450725294649601, -0.0032673145178705454, -0.0370929129421711, 0.06556637585163116, -0.07583491504192352, -0.014121384359896183, 0.03173046559095383, -0.01978287287056446, -0.0292325709015131, 0.03034299612045288, -0.017059145495295525, 0.020755866542458534, -0.037652984261512756, -0.09082271158695221, 0.00995255634188652, -0.028089286759495735, -0.06976848095655441, 0.05339319631457329, -0.002521449001505971, 0.04494565725326538, 0.06367043405771255, -0.03391312062740326, 0.06549976021051407, 0.01012115366756916, 0.014751911163330078, -0.04762182757258415, 0.016877111047506332, 0.013165433891117573, 0.017829345539212227, 0.005225268192589283, -0.02001548931002617, -0.0033684964291751385, -0.012494053691625595, -0.02717769145965576, -0.011585172265768051, -0.049215640872716904, -0.005577025003731251, 0.005007204599678516, -0.031913936138153076, -0.003842391539365053, 0.01298524346202612, 0.006999977398663759, -0.02101883850991726, -0.007915091700851917, 0.00014148274203762412], [-0.006225479766726494, 0.0036240636836737394, 0.1126415804028511, -0.07918411493301392, -0.021778637543320656, -0.17031675577163696, 0.04415304586291313, -0.11089792847633362, -0.15778489410877228, 0.06830672174692154, -0.10685461014509201, 0.2389724999666214, 0.11910943686962128, 0.15203708410263062, 0.028408490121364594, 0.21642471849918365, -0.09815007448196411, -0.04682973772287369, -0.06253664940595627, 0.023081010207533836, -0.014628988690674305, 0.05203888192772865, -0.09222791343927383, 0.0419294536113739, 0.004481697455048561, 0.09094956517219543, -0.0074937730096280575, 0.132746160030365, 0.1578296422958374, -0.09613834321498871, 0.1139066144824028, -0.2473483681678772, -0.1176697388291359, 0.004944505635648966, -0.047652505338191986, -0.14365342259407043, 0.05060086026787758, 0.04695908725261688, 0.08355486392974854, -0.020020117983222008, 0.05519525706768036, 0.03701639175415039, 0.028160246089100838, 0.013342466205358505, -0.05096651613712311, -0.04447359964251518, 0.016323303803801537, 0.010859583504498005, 0.00433723907917738, 0.042695701122283936, 0.08799745887517929, -0.008885796181857586,