{"embedding_instance.weight": [[0.011157319881021976, -0.023382872343063354, 0.021339967846870422, -0.0210333950817585, -0.01945238560438156, 0.02751797065138817, 0.04671337828040123, 0.0471712164580822, -0.0073461830615997314, -0.03226558864116669, -0.024038314819335938, -0.014297216199338436, -0.007723518647253513, 0.007894175127148628, -0.003052043728530407, 0.02161315642297268, 0.02756773680448532, 0.006466822233051062, 0.025178568437695503, 0.009871271438896656, -0.026363104581832886, 0.01951386220753193, 0.004302947781980038, -0.044800784438848495, -0.017263105139136314, -0.020824827253818512, 0.012438547797501087, 0.03055080585181713, 0.03179478645324707, -0.023253099992871284, -0.03349434211850166, 0.019344687461853027, -0.006918499246239662, 0.03032725304365158, 0.03800048679113388, -0.06126146763563156, -0.039429083466529846, -0.014394749887287617, 0.002734206151217222, -0.005892335437238216, 0.028416959568858147, -0.0023954608477652073, 0.04909984767436981, -0.054684314876794815, -0.010976470075547695, -0.03402632474899292, 0.004227146040648222, -0.013070653192698956, 0.03030700609087944, -0.015418163500726223, 0.004450017586350441, -0.04022309184074402, -0.008328434079885483, 0.030955102294683456, -0.022051997482776642, -0.0009207464754581451, -0.011485311202704906, -0.010387828573584557, -0.010238736867904663, 0.04801301658153534, -0.024221591651439667, -0.015609866008162498, 0.04475267231464386, 0.028474627062678337, 0.034682746976614, 0.020237430930137634, -0.011854560114443302, 0.004685866180807352, 0.003574864938855171, 0.04572697728872299, 0.013133405707776546, 0.007971457205712795, -0.0111766392365098, 0.024223659187555313, 0.019561901688575745, 0.026061546057462692, -0.013864900916814804, -0.042504772543907166, -0.029454229399561882, -0.01986311376094818, 0.0173452477902174, -0.004189351107925177, -0.016926022246479988, -0.03040969930589199, 0.033155035227537155, 0.005079254508018494, -0.003729472402483225, -0.031152525916695595, 0.011067178100347519, 0.032670993357896805, 0.027651242911815643, -0.028474437072873116, 0.02278275601565838, -0.014545639045536518, -0.013192395679652691, -7.437139720423147e-05, 0.024769937619566917, -0.024596894159913063, 0.0020195385441184044, 0.010896778665482998, -0.026441337540745735, 0.007765838876366615, 0.024888860061764717, -0.0219991784542799, -0.01961446925997734, 0.00686211884021759, 0.02217487059533596, -0.010271637700498104, 0.002082210499793291, 0.0023400045465677977, -0.016954340040683746, 0.04449104890227318, -0.02529487945139408, -0.0019845226779580116, -0.019172748550772667, -0.031331866979599, 0.0488845556974411, -0.0051422021351754665, -0.004433735739439726, 0.012249485589563847, 0.021587232127785683, -0.00664486875757575, -0.018923334777355194, -0.003593078814446926, 0.002923295833170414, -0.023830357939004898, 0.02537723071873188, -0.003638557158410549, -0.017368661239743233, -0.012849033810198307, 0.04011513665318489, 0.041866134852170944, -0.020822985097765923, -0.02444867044687271, 0.01709076762199402, 9.307410073233768e-05, 0.0018347816076129675, 0.003852894064038992, -0.019291583448648453, -0.016350751742720604, -0.0036855447106063366, -0.025123953819274902, -0.012951763346791267, -0.03000270575284958, -0.019397975876927376, 0.01167293917387724, 0.008578520268201828, -0.001706697279587388, -0.002567803720012307, 0.01464054360985756, 0.006718637887388468, 0.0403398759663105], [-0.6870414614677429, -0.12172991037368774, -1.0051977634429932, 0.8343035578727722, -0.931925892829895, 0.281622976064682, 0.09749332815408707, -0.4447892904281616, 0.5466024875640869, -0.08207613229751587, 0.823137640953064, -0.14538216590881348, 0.09452202916145325, -1.552935004234314, 0.6569157838821411, 0.2246372550725937, -1.210208535194397, -0.4996635913848877, 1.6437346935272217, -0.12080737948417664, -0.03342843055725098, 0.29077935218811035, 2.6170451641082764, -0.5438860058784485, 0.7168486714363098, 0.2094593346118927, 0.6052917838096619, -0.706666886806488, -1.1659973859786987, -0.6818454265594482, 0.13633456826210022, -0.012555455788969994, 0.011578258126974106, 1.0921034812927246, -0.5523256063461304, 0.07709702849388123, -0.21621881425380707, -1.166048526763916, 0.2263946384191513, -0.7874791622161865, -0.15715810656547546, -1.1756055355072021, -0.6769633889198303, -1.1096186637878418, 0.3527073264122009, 0.7519233822822571, 0.3780757486820221, -0.9973039627075195, 0.5594376921653748, -0.22161182761192322, 0.40718531608581543, 0.11061743646860123, 0.38311514258384705, 0.5850540399551392, -0.4213482737541199, 0.4766990840435028, -0.29845109581947327, -0.07389587163925171, 0.15819630026817322, -0.3281674087047577, 0.08559847623109818, 1.9129149913787842, 0.06389298290014267, 0.5463101863861084, 1.9500385522842407, 1.6425316333770752, -0.01961774192750454, -0.10746896266937256, 2.165266752243042, -1.210074543952942, 0.5437064170837402, -0.03007112629711628, -1.2833744287490845, 1.7370294332504272, 0.29749834537506104, 1.4096958637237549, 1.5043097734451294, -0.8667861223220825, 0.5814074873924255, 0.11636138707399368, 1.4461857080459595, -1.4548896551132202, -0.7555133104324341, -1.3939067125320435, -0.5416495203971863, 0.861872673034668, -0.9770155549049377, -0.511498749256134, -1.5158841609954834, 0.05268028378486633, -1.7760223150253296, 0.8358291387557983, 0.4777100384235382, -0.6494231820106506, 0.3424578607082367, 0.1830427050590515, -0.7534833550453186, 0.04710991308093071, -0.19973233342170715, -0.8194527626037598, -0.2693202495574951, 0.6027312278747559, 2.595982074737549, 1.0095700025558472, 1.6194913387298584, -0.5619073510169983, 0.7871554493904114, -0.6246945858001709, -1.9177151918411255, 2.050555467605591, -0.857244610786438, -3.7797889709472656, -0.6916405558586121, 0.0186625886708498, -1.3679598569869995, -0.7066904306411743, -0.925343930721283, -1.2750942707061768, 0.9565942287445068, 1.2552863359451294, 0.19688780605793, 1.6024585962295532, -0.5735892057418823, 0.3577579855918884, -0.5183663368225098, 0.2560684084892273, -1.0414232015609741, 0.9606977701187134, -1.1650229692459106, -0.6759772300720215, 1.392678141593933, -0.4692287743091583, 0.46458810567855835, -0.368084192276001, -0.9363142848014832, 0.1499403417110443, -0.050634853541851044, -0.6387233138084412, 0.9946065545082092, 0.4052705466747284, -0.056140121072530746, 0.07602465152740479, -0.8742472529411316, 0.7240663170814514, 0.7736032009124756, 1.3477400541305542, -1.5974667072296143, -1.3982164859771729, 0.11868612468242645, 1.4116541147232056, 1.89963960647583, -0.05385012924671173], [-0.05805939808487892, -0.0025345191825181246, -0.02440517768263817, -0.013215074315667152, 0.020387830212712288, -0.004273420199751854, -0.021915026009082794, -0.019518239423632622, -0.02181398496031761, -0.04679013416171074, -0.005867596250027418, -0.011325392872095108, -0.027606001123785973, 0.026028798893094063, 0.00024107361969072372, -0.09234108030796051, 0.05849297717213631, -0.0022038675379008055, -0.030848879367113113, -0.059911567717790604, 0.0336863249540329, 0.06863255798816681, -0.1374139040708542, 0.0703960433602333, -0.06805218011140823, 0.031224507838487625, -0.048960618674755096, 0.04931076243519783, 0.13203974068164825, -0.0010068833362311125, 0.04577616974711418, -0.0175925400108099, 0.06821043789386749, 4.134339906158857e-05, 0.009981933049857616, -0.021123753860592842, -0.009730929508805275, 0.0677996277809143, 0.06667039543390274, 0.0211845263838768, -0.05645500868558884, 0.01794404350221157, 0.07746954262256622, -0.01884104683995247, -0.012406701222062111, 0.08137300610542297, -0.023390766233205795, -0.005997709929943085, 0.03909603878855705, 0.008018020540475845, -0.028536979109048843, -0.009283834137022495, 0.07122420519590378, -0.0634324699640274, 0.025792738422751427, -0.07820867002010345, 0.07617434114217758, 0.0051425062119960785, -0.06564535200595856, -0.009307235479354858, -0.020666446536779404, -0.034084513783454895, -0.003588916501030326, 0.000521748443134129, 0.006463102996349335, 0.052238043397665024, -0.022183245047926903, -0.024515165016055107, -0.03304943069815636, 0.012823289260268211, -0.0027932876255363226, 0.03660843148827553, -0.026222359389066696, 0.03039330430328846, -0.017242925241589546, -0.014507599174976349, -0.021205563098192215, 0.035749033093452454, 0.04057782143354416, -0.024782970547676086, 0.03556373342871666, 0.02989826537668705, -0.03820500522851944, 0.016985462978482246, -0.024935215711593628, -0.024822672829031944, -0.0020927381701767445, -0.045923203229904175, 0.0034454273991286755, -0.0018927979981526732, -0.011107244528830051, -0.05068729445338249, -0.03625641018152237, -0.0023976610973477364, 0.028971364721655846, 0.02050325646996498, 0.04513436183333397, 0.0059061199426651, -0.03895905986428261, -0.03193845599889755, 0.00042286523967050016, -0.057959239929914474, 0.046820078045129776, 0.053479842841625214, -0.0034926196094602346, 0.04594814404845238, 0.01209289487451315, -0.0408591628074646, 0.04681434482336044, 0.057345420122146606, 0.013399018906056881, -0.04411499947309494, 0.0463605634868145, 0.019839776679873466, 0.011859798803925514, -0.0010663950815796852, -0.009758038446307182, 0.018356310203671455, -0.04215557128190994, 0.0035061438102275133, -0.0026634647510945797, 0.027004117146134377, -0.05167585611343384, -0.0010219026589766145, 0.003925866447389126, -0.020854149013757706, 0.03819074481725693, 0.0348893366754055, 0.014984320849180222, 0.004022643901407719, 0.002170019317418337, 0.02169543318450451, -0.042835406959056854, -0.027790145948529243, 0.013795883394777775, 0.019991984590888023, 0.018348848447203636, -0.01518013421446085, -0.03332194685935974, -0.02049136534333229, 0.005971122533082962, 0.013006684370338917, -0.026701105758547783, -0.008862091228365898, 0.01244900282472372, 0.05672311782836914, 0.017943864688277245, -0.03759385272860527, -0.011429764330387115, 0.025330856442451477, -0.003262984799221158, 0.012444868683815002], [-0.022923026233911514, 0.7361987829208374, 1.1153887510299683, 0.28034839034080505, -0.19518977403640747, 0.7017396688461304, -0.23331396281719208, -0.8408219218254089, -0.4186229407787323, -0.2698970139026642, -0.7012506127357483, -0.6477175354957581, 0.35276421904563904, 1.294580101966858, -1.463494062423706, -0.02577960304915905, 0.4725574851036072, 1.2076970338821411, 0.4207056760787964, 0.44759565591812134, 0.3342781960964203, 0.45002058148384094, -0.26093772053718567, 0.4558079242706299, -0.7008326649665833, 0.12024467438459396, 0.19100986421108246, 1.11181640625, -0.032321296632289886, -0.3440394699573517, -0.3093523681163788, 0.13711926341056824, 0.09547844529151917, -0.45305806398391724, -0.27414536476135254, -0.2372802197933197, -0.478094220161438, 0.27370408177375793, 0.2002279907464981, -0.035120971500873566, 0.10993080586194992, -0.09327606111764908, 0.2505851089954376, 0.6907824277877808, -1.2172926664352417, 0.5157953500747681, 0.5418608784675598, 0.25753262639045715, -0.2876954972743988, -0.21610161662101746, -0.4197647273540497, 0.6449971795082092, -0.4085310101509094, -1.3672744035720825, 0.16721796989440918, 0.0023156774695962667, 0.5529018640518188, 0.005717412102967501, 0.10247605293989182, 0.07521507889032364, -0.4739132523536682, -1.1025499105453491, 1.1176618337631226, -0.052366990596055984, 0.9677075743675232, -2.0348939895629883, 1.4798704385757446, -0.6063047051429749, -1.3478825092315674, 1.4787276983261108, -1.2499067783355713, 2.8664145469665527, 1.3836849927902222, 0.6778501272201538, 0.06628572195768356, -0.7578087449073792, 0.46691909432411194, 2.882049560546875, 1.2249783277511597, 0.03091464750468731, -1.1485177278518677, 0.7192215323448181, 0.6096519231796265, -0.40441927313804626, 1.8392881155014038, -0.2675366699695587, 0.1004396602511406, -1.2782615423202515, -0.4425639808177948, -1.4085450172424316, 0.09034759551286697, -1.5188703536987305, -0.49104008078575134, 2.975074291229248, 0.588450014591217, 0.6831353306770325, -1.8079628944396973, -0.8168997168540955, 0.13203255832195282, -0.10188920795917511, -0.4348880648612976, 0.5330002307891846, -1.0997745990753174, 0.4086812436580658, -0.3187418580055237, 0.36875495314598083, -1.1719249486923218, 1.0333878993988037, -1.8403398990631104, -0.9371331930160522, 0.08426199108362198, -0.8573160767555237, -0.8260385990142822, -1.1529631614685059, 0.6571833491325378, 1.602111577987671, -0.8989962339401245, -0.22231034934520721, -0.5667324662208557, -1.4720001220703125, 4.599926948547363, -0.09626936912536621, -0.7287838459014893, 0.38188931345939636, 0.04982839152216911, 0.04376303404569626, 2.387826681137085, -0.6093109846115112, -0.509350597858429, -0.26186859607696533, -1.8287237882614136, -0.3297751545906067, -1.4766396284103394, 0.19459576904773712, -2.4318227767944336, -1.5010019540786743, 0.2636416256427765, 1.248216152191162, -1.958979606628418, -0.18049700558185577, 1.3897029161453247, 1.0742075443267822, 0.06279612332582474, -0.7217921018600464, 0.2166673094034195, -1.1198054552078247, -0.04327458515763283, 2.542901039123535, -0.5994454026222229, 0.10993882268667221, -1.8998162746429443, 2.9546289443969727], [-0.8940300345420837, -0.9592387080192566, -0.3705935478210449, 0.85442715883255, 0.6302652359008789, -0.55177903175354, 0.3846997618675232, 0.5708004236221313, 1.0501232147216797, -1.9472647905349731, 0.26284363865852356, -1.1595457792282104, -0.004111762158572674, -0.16150259971618652, -0.7840372920036316, 0.6600252985954285, 0.8942060470581055, -0.23066496849060059, -0.42730915546417236, -0.8581157326698303, 0.5056919455528259, -0.6068875193595886, 0.7351877093315125, -1.2155464887619019, -0.2752317488193512, 0.17384272813796997, -0.5433972477912903, -0.30281177163124084, 0.4953099191188812, -0.02390465699136257, -0.6811297535896301, -0.46156707406044006, 0.8785701990127563, 0.8886644244194031, 0.888201892375946, 0.12253577262163162, 0.3409665524959564, 0.11884822696447372, 0.8845339417457581, -0.2435379922389984, 0.4836770296096802, -1.0771851539611816, 0.09254896640777588, 0.10082658380270004, -0.7824044823646545, -0.17028769850730896, 0.3611348271369934, 0.10479698330163956, 0.5635368227958679, -0.4101064205169678, 1.1690219640731812, -1.526598334312439, 0.4785725176334381, 0.7662563323974609, -0.23776555061340332, -1.1361849308013916, -0.11386572569608688, 0.5494472980499268, 0.2044215202331543, 0.4168676733970642, -0.7113509774208069, 1.573158860206604, 1.959506869316101, 0.38648203015327454, -0.019586199894547462, -1.1717572212219238, 0.4644450843334198, -2.6646859645843506, 1.1474475860595703, -1.5004113912582397, -0.7995568513870239, 1.7461762428283691, 1.2626436948776245, -1.445125699043274, 0.3974517583847046, -2.979670286178589, -1.4964860677719116, -0.2436590939760208, -1.412713885307312, -0.5346592664718628, -0.3257982134819031, 0.9151560664176941, 1.6951652765274048, -1.0296615362167358, -0.8495367765426636, -1.9377737045288086, 1.8329590559005737, 0.9178641438484192, -0.9149173498153687, -1.0684289932250977, -1.1166642904281616, -1.215437889099121, 0.28480827808380127, -1.331669569015503, -1.0319808721542358, 0.7051928043365479, 4.020159721374512, -0.36989104747772217, -0.8858991265296936, 1.7727792263031006, 0.8465350270271301, 1.4340214729309082, -0.8842158317565918, -0.42312318086624146, -2.306504487991333, 0.18772919476032257, 0.7105923295021057, 1.4903756380081177, -1.8416920900344849, 0.3600686490535736, -1.084403395652771, -0.2933942675590515, -1.0060771703720093, 1.6223948001861572, 0.2582421600818634, 2.8608016967773438, -0.23061293363571167, 0.6191819906234741, -0.4808000326156616, -0.3047093152999878, 0.5936108827590942, -1.5318702459335327, 1.0780929327011108, -1.0913453102111816, 0.41022369265556335, -0.4163946509361267, 1.3477519750595093, 0.4851917028427124, 0.6010138392448425, -1.28288996219635, -0.9222712516784668, 0.9349821209907532, 0.22024783492088318, 0.6693944334983826, -0.29035770893096924, 0.9125505089759827, -0.019408108666539192, -0.9815676212310791, 0.28349360823631287, 1.371975302696228, -0.6477567553520203, -2.001467704772949, 1.1052745580673218, 0.7327194213867188, 1.4295892715454102, 1.1754871606826782, -0.41878825426101685, -1.9603080749511719, 0.3429042398929596, 0.2044587880373001, 1.486991286277771, -1.0903608798980713], [0.002090180292725563, -0.09665071219205856, 0.23303428292274475, -0.2055743783712387, -0.17480230331420898, -0.08483994752168655, 0.051607999950647354, 0.039750877767801285, 0.05489049851894379, -0.11949384212493896, 0.01763083226978779, 0.022672438994050026, 0.049126360565423965, -0.12833139300346375, -0.20597118139266968, 0.04862234368920326, 0.20474174618721008, -0.04232244938611984, -0.04391663148999214, -0.03890691325068474, 0.02784515917301178, -0.22817601263523102, -0.0899791345000267, -0.20805849134922028, 0.1399790495634079, -0.18382424116134644, -0.05385979637503624, -0.07096672803163528, -0.3682675063610077, 0.10572803020477295, 0.18486841022968292, -0.028449488803744316, 0.16715408861637115, 0.08744921535253525, 0.12877771258354187, 0.01943669468164444, -0.12231288850307465, 0.1482648253440857, 0.05025849863886833, -0.21882997453212738, 0.05365920066833496, -0.01949228346347809, 0.04075813665986061, 0.0808236300945282, -0.030188821256160736, -0.1770913302898407, 0.15922127664089203, 0.025137413293123245, -0.06382793933153152, 0.04180265590548515, 0.1502029001712799, 0.12977294623851776, -0.09582149237394333, 0.029781928285956383, 0.15914911031723022, 0.02547677792608738, -0.07985493540763855, 0.17050573229789734, -0.07898899912834167, 0.04081347584724426, 0.029545044526457787, 0.01398260984569788, 0.04903682693839073, -0.010243664495646954, 0.021594291552901268, -0.17216932773590088, -0.23960211873054504, -0.303184449672699, -0.28686976432800293, -0.02953255921602249, -0.10791134089231491, 0.2115326076745987, -0.18331651389598846, 0.2076713740825653, 0.1726386845111847, 0.18657267093658447, 0.04905109107494354, -0.1952335089445114, -0.05125536769628525, -0.1202889084815979, 0.007805964443832636, -0.1859777718782425, 0.03013719618320465, 0.04828405752778053, 0.026979535818099976, -0.07479546964168549, 0.006840711925178766, 0.0921371579170227, 0.12468422949314117, -0.059709321707487106, 0.016193130984902382, 0.432748943567276, 0.09597976505756378, 0.04044881463050842, 0.11555611342191696, -0.06954236328601837, -0.26566237211227417, -0.10321695357561111, -0.011316904798150063, 0.22367270290851593, -0.1307670921087265, 0.13706502318382263, -0.22996707260608673, 0.07524658739566803, 0.0699809268116951, 0.3200041949748993, 0.17863227427005768, 0.0331658311188221, 0.1842191517353058, -0.1004839763045311, 0.14825457334518433, -0.016475357115268707, -0.41383618116378784, -0.14817947149276733, -0.2983880341053009, 0.1433466225862503, -0.22724619507789612, 0.04213068261742592, 0.09278542548418045, 0.2468995451927185, 0.0969533920288086, 0.19180135428905487, 0.07680143415927887, -0.12749184668064117, -0.19348451495170593, 0.15081949532032013, 0.054952751845121384, 0.06395337730646133, -0.14075203239917755, -0.009655920788645744, 0.10860169678926468, 0.08120531588792801, 0.015844669193029404, 0.00763813266530633, -0.0314246341586113, -0.19428034126758575, -0.05516130104660988, -0.02937912568449974, 0.21179579198360443, 0.17932702600955963, -0.012500761076807976, -0.11124227941036224, -0.17342855036258698, -0.05113178864121437, -0.04462013021111488, 0.023386768996715546, -0.08483582735061646, -0.1040511429309845, 0.007673696149140596, -0.023504948243498802, 0.016984611749649048, 0.06632731854915619], [1.1559116840362549, 0.9869922399520874, -0.034335676580667496, 0.30645307898521423, -0.6064717769622803, -1.5375080108642578, -0.12631185352802277, 0.5210903286933899, -0.45383256673812866, 1.0248533487319946, -0.9014952182769775, 0.1587957739830017, -0.07794346660375595, 0.29282835125923157, 0.7037686705589294, -0.17938677966594696, 0.2849958837032318, 1.2866017818450928, 0.6499608159065247, 0.29405269026756287, 0.057637039572000504, 0.7900025844573975, -0.5981906056404114, 0.18214327096939087, -0.4798704981803894, -0.5225121378898621, 0.0435490682721138, 1.2208964824676514, 0.06492223590612411, -0.47210171818733215, 0.13008201122283936, 0.30000749230384827, 0.8953891396522522, 0.3603529930114746, -0.8928107023239136, -0.5424724817276001, 0.5338671207427979, 0.26251259446144104, 0.28590330481529236, 0.38562047481536865, -0.796233057975769, 0.8453125953674316, -0.6318130493164062, -0.6216989755630493, 0.45924651622772217, -0.7581057548522949, -0.24467751383781433, 1.446230173110962, 1.186084508895874, 0.07108262181282043, -0.40473321080207825, 0.5983911156654358, -0.18819376826286316, -0.18777306377887726, -0.6419219970703125, -0.9192480444908142, -0.1088244691491127, 0.5051896572113037, 0.6722094416618347, -0.7658134698867798, 2.2495245933532715, 1.6907504796981812, -1.1673141717910767, 3.147136926651001, -1.0446985960006714, -0.49272793531417847, -0.9837205410003662, 1.2994765043258667, 0.8060467839241028, 0.3813568651676178, 2.6096444129943848, -1.0012418031692505, -1.100348711013794, -0.9742382168769836, 2.109184741973877, -0.23403725028038025, -1.3521181344985962, 2.458651304244995, 1.6198300123214722, -1.2952154874801636, 0.47071126103401184, 0.4361904263496399, 1.362675666809082, -1.4192966222763062, 1.4417555332183838, -0.8025525808334351, 0.7572311758995056, -0.5364198684692383, 0.056657575070858, 0.30069342255592346, -1.34273362159729, 0.8533596396446228, 1.1775081157684326, 0.6976876258850098, -0.7418984174728394, 0.7239344120025635, 0.66693514585495, 1.631500482559204, -0.9695084095001221, -1.2590283155441284, 1.0366767644882202, 2.4751434326171875, -0.2827613651752472, -1.8775452375411987, 0.5176875591278076, -0.4792230427265167, 0.17580129206180573, -1.7379651069641113, 0.2718398869037628, -1.0257246494293213, -0.25419938564300537, -0.2916395366191864, 1.3820723295211792, 0.1131240651011467, 0.47203314304351807, 0.7563530802726746, -0.4796670973300934, -0.3091198205947876, -0.3805302083492279, -0.2767689526081085, 1.6073102951049805, -0.836453378200531, -1.1331297159194946, 1.1032451391220093, 0.23747870326042175, 0.39377251267433167, -0.17183806002140045, 0.08555829524993896, -0.40925824642181396, -1.239794135093689, 1.8163518905639648, -0.31570175290107727, -0.6213831305503845, 1.2648125886917114, -0.49623775482177734, -2.2878243923187256, -1.5790609121322632, 0.5219097137451172, -2.5933239459991455, -0.6056846976280212, 2.552692413330078, 0.9687604904174805, -1.6401221752166748, 1.2414873838424683, -0.15779487788677216, -0.9907212853431702, 0.5984660387039185, 0.3614526689052582, -0.5011571645736694, -1.3205307722091675, -1.0996158123016357, -0.1460718810558319], [0.03170375898480415, 0.038090527057647705, -0.0190089400857687, -0.00854553934186697, 0.03966398909687996, 0.05078510940074921, -0.008845660835504532, 0.028556449338793755, 0.009704099036753178, 0.008198719471693039, -0.011983688920736313, -0.00262536876834929, 0.011390439234673977, 0.019499722868204117, 0.02581292763352394, -0.006343652494251728, -0.035917144268751144, -0.00576051464304328, -0.014569776132702827, 0.013219059444963932, -0.034962914884090424, 0.040291618555784225, 0.020650193095207214, -0.07066823542118073, -0.006270169280469418, 0.08327151834964752, 0.007680100854486227, 0.0016151930904015899, -0.011143233627080917, -0.026215478777885437, -0.03027309477329254, -0.034960970282554626, 0.008797092363238335, -0.011245799250900745, -0.04229912534356117, -0.011415177024900913, -0.0014484783168882132, -0.03828704357147217, -0.018881836906075478, 0.04732374846935272, -0.012174959294497967, 0.006798326503485441, -0.04859822988510132, -0.00971840787678957, -0.004790866747498512, 0.05520853400230408, -0.03302554413676262, 0.05600685253739357, -0.037915222346782684, -0.010532012209296227, 0.020980337634682655, -0.03303559496998787, 0.02337312512099743, 0.05340610444545746, -0.008478039875626564, -0.03130520507693291, -0.02161167748272419, 0.005180654115974903, -0.05433845892548561, -0.02385742776095867, 0.039450887590646744, 0.02654362842440605, -0.028254132717847824, -0.01578669063746929, -0.00370749831199646, -0.02432376518845558, 0.036954961717128754, -0.017422892153263092, 0.037565600126981735, -0.016686173155903816, -0.025723960250616074, 0.0050100828520953655, 0.012289614416658878, -0.02963230013847351, -0.007371730636805296, -0.051151763647794724, -0.012184937484562397, 0.03383705019950867, 0.02996688522398472, 0.010089481249451637, -0.013030569069087505, -0.01984403096139431, 0.021641599014401436, 0.07067343592643738, -0.03278950974345207, 0.004271709825843573, 0.0003727794100996107, 0.05924518033862114, -0.022184208035469055, -0.030348436906933784, -0.011404082179069519, 0.01105705089867115, -0.014915678650140762, 0.0220042634755373, 0.031483642756938934, 0.04843181371688843, -0.017843402922153473, -0.026120616123080254, -0.010653370060026646, -0.012135977856814861, 0.017244277521967888, -0.014387693256139755, -0.017462991178035736, -0.005039469338953495, 0.007129610050469637, -0.02312680520117283, 0.015323184430599213, 0.014992178417742252, 0.003784372704103589, 0.01156756840646267, -0.0003327572485432029, -0.014308367855846882, 0.030297277495265007, -0.0098205441609025, 0.06891416013240814, 0.014515013433992863, -0.023726359009742737, 0.008924072608351707, -0.0005049504688940942, 0.004510578233748674, -0.02807263843715191, 0.011958595365285873, 0.021651186048984528, -0.0012804801808670163, 0.017417287454009056, 0.02284799888730049, -0.042266830801963806, 3.6212459235684946e-05, 0.04030279815196991, 0.02442162111401558, -0.06606592983007431, -0.021022122353315353, -0.011160394176840782, 0.007349517196416855, -0.019554972648620605, -0.02867107279598713, -0.009902775287628174, -0.0182624664157629, 0.004497231915593147, 0.04046675190329552, 0.01768515631556511, 0.02642904222011566, 0.013430658727884293, 0.02856314741075039, -0.004393354523926973, -0.029942966997623444, -0.009083232842385769, -0.0046815588138997555, 0.0012943506008014083, 0.006349548231810331, -0.010338028892874718, -0.03651931509375572], [-0.0027621081098914146, -0.015659648925065994, -0.005592537112534046, -0.02026183530688286, 0.02690916694700718, 0.008564933203160763, -0.038010373711586, 0.021026207134127617, 0.02227090299129486, 0.03324931859970093, 0.028416313230991364, 0.02057238481938839, -0.0190708227455616, 0.051437608897686005, 0.024828046560287476, 0.031693149358034134, -0.05468977242708206, 0.02732202783226967, -0.0028917700983583927, -0.0198903176933527, 0.024011114612221718, 0.010294142179191113, -0.026896068826317787, 0.05966086685657501, 0.0014754105359315872, 0.011402110569179058, 0.014312881045043468, -0.01526593416929245, -0.050717130303382874, -0.08153045177459717, -0.015159484930336475, 0.00753769651055336, -0.023866012692451477, -0.0083176139742136, -0.06450571864843369, 0.003082696348428726, 0.02951246127486229, -0.02454119175672531, -0.017623579129576683, 0.006314621306955814, -0.042906925082206726, 0.019805902615189552, -0.01949312351644039, -0.016812961548566818, 0.00872515793889761, 0.013587694615125656, 0.0024758493527770042, 0.008329126983880997, -0.04110845550894737, 0.00164505944121629, 0.03195015713572502, -1.3804382433590945e-05, 0.022326162084937096, -0.0593755841255188, 0.011067199520766735, 0.002000367036089301, -0.032183095812797546, -0.002138549229130149, 0.02756391279399395, 0.017471011728048325, 0.02366812340915203, 0.01207410916686058, -0.052383750677108765, -0.03573421388864517, -0.059265829622745514, -0.029451880604028702, 0.02009197510778904, -0.0011249397648498416, -0.015207793563604355, -0.03792833536863327, -0.008445543237030506, 0.026412874460220337, 0.020541679114103317, -0.005313890054821968, -0.04263230040669441, -0.02234850451350212, -0.008345585316419601, 0.040212634950876236, 0.04383783042430878, 0.009286613203585148, -0.010348857380449772, -0.008443630300462246, -0.011730769649147987, 0.05016375333070755, -0.02138066664338112, 0.023945393040776253, 0.00232131639495492, 0.042299624532461166, -0.03791075944900513, -0.04391258955001831, 0.004891950637102127, 0.008962892927229404, -0.04776638746261597, 0.03762247785925865, 0.04285545274615288, 0.008744710125029087, -0.0044750128872692585, -0.01915176585316658, 0.0031939083710312843, -0.03580491617321968, 0.04983050376176834, -0.013068840838968754, -0.01662001945078373, 0.014375859871506691, -0.0007738425629213452, -0.024036245420575142, -0.01844615302979946, -0.005750068463385105, 0.00041815461008809507, 0.033496610820293427, 0.005043762270361185, -0.036303143948316574, 0.0036140787415206432, 0.005878768395632505, 0.04280594363808632, -0.012025411240756512, -0.006326356437057257, 0.03463170304894447, -0.01497083529829979, 0.005274364724755287, -0.010853343643248081, -0.0011630714870989323, 0.019031338393688202, 0.020872486755251884, 0.007155074272304773, 0.03106302209198475, 0.0009684001561254263, 0.008176487870514393, 0.018864694982767105, 0.018545100465416908, -0.03523014113306999, -0.006171640940010548, -0.009692019782960415, 0.0166871827095747, 0.020684994757175446, 0.00033413589699193835, -0.02948072738945484, -0.011826477944850922, 0.00629250006750226, 0.016578713431954384, 0.007739703636616468, 0.036629077047109604, 0.023562904447317123, 0.03421900048851967, 0.003972790203988552, 0.0034144273959100246, -0.013769370503723621, 0.007186936680227518, -0.009650603868067265, 0.010248876176774502, 0.007132628466933966, -0.03405725583434105], [0.050816528499126434, 0.03438716381788254, -0.09698536247015, 0.011654118075966835, 0.023589005693793297, 0.05902242660522461, -0.021930163726210594, 0.014428343623876572, 0.027753515169024467, -0.0023021046072244644, 0.039209768176078796, -0.02457578293979168, -0.05141715332865715, 0.035331401973962784, 0.006057467777282, 0.035444099456071854, -0.08180855214595795, 0.07279742509126663, -0.031354933977127075, -0.03081393614411354, 0.10662269592285156, 0.03334572911262512, 0.008203314617276192, 0.0369596853852272, 0.027206238359212875, 0.09865594655275345, -0.020619964227080345, 0.032894864678382874, 0.08245258778333664, -0.09383586794137955, -0.05946506932377815, 0.01990651711821556, 0.012146318331360817, -0.07440988719463348, -0.05894144997000694, 0.0024868668988347054, 0.045147303491830826, -0.016230998560786247, -0.013214761391282082, 0.01728016883134842, -0.06636352837085724, 0.06349003314971924, -0.016158724203705788, -0.01781512051820755, -0.020397260785102844, 0.008881434798240662, -0.01746026612818241, 0.05777952820062637, -0.04994935914874077, 0.003105852985754609, -0.02680833823978901, -0.026969777420163155, -0.014893055893480778, -0.03982868418097496, 0.0005559890996664762, -0.03495190292596817, 0.023284949362277985, -0.046428132802248, -0.05919152498245239, 0.016353478655219078, 0.06853695213794708, 0.02170664444565773, -0.05639949440956116, -0.057969897985458374, -0.030295355245471, -0.004256068263202906, 0.013466928154230118, 0.009182298555970192, 0.0022007236257195473, -0.033788129687309265, -0.01570703461766243, 0.07449725270271301, 0.02971646748483181, -0.03663800284266472, -0.06367002427577972, -0.013126824982464314, -0.005091803148388863, 0.03894106671214104, 0.1209292784333229, -0.017189176753163338, 0.012471050024032593, -0.03330337256193161, -0.01708117313683033, 0.08848041296005249, 0.013837256468832493, 0.03114745020866394, 0.011024081148207188, 0.010267351754009724, -0.09466630220413208, -0.08548761904239655, 0.020618820562958717, 0.016160091385245323, -0.04080384969711304, 0.05286189913749695, 0.0436943843960762, -0.04745902866125107, 0.013438228517770767, -0.0031652820762246847, -0.036331482231616974, -0.0860828310251236, 0.05645310878753662, -0.05887419357895851, -0.02110120840370655, -0.024846456944942474, 0.036290448158979416, -0.0332016684114933, -0.018589569255709648, -0.04720745608210564, -0.01418424304574728, 0.07184460759162903, 0.053850382566452026, -0.06593441218137741, 0.05143289640545845, 0.07083313167095184, 0.10469324141740799, -0.020326687023043633, -0.004128177650272846, 0.037399355322122574, -0.038921792060136795, -0.05530306696891785, -0.03219037503004074, -0.01257177535444498, -0.004698549397289753, -0.00011616370466072112, 0.02536003291606903, 0.03589784353971481, 0.02869872748851776, 0.023237986490130424, 0.034360188990831375, 0.008928082883358002, -0.019688792526721954, -0.02579433098435402, -0.022582009434700012, -0.005148900207132101, 0.048677533864974976, -0.02215505577623844, -0.05934947356581688, -0.04163406044244766, -0.0033094934187829494, 0.002977037103846669, 0.02042463794350624, 0.0646694004535675, 0.016793977469205856, 0.035445671528577805, -0.0002367229899391532, 0.02321617119014263, 0.016767526045441628, 0.002070671645924449, -0.0014739985344931483, 0.02190755121409893, 0.014429450035095215, -0.05260667949914932], [-0.004465487319976091, 0.013783494010567665, 0.02433745190501213, -0.00578587781637907, 0.001138185034506023, -0.0024678546469658613, -0.06159325689077377, 0.008721818216145039, -0.007777705322951078, -0.019967854022979736, -0.016314111649990082, -0.050282325595617294, -0.022647691890597343, 0.0053034317679703236, 0.04519433155655861, -0.047718316316604614, -0.0016781225567683578, -0.01147310808300972, -0.03009118139743805, -0.035198748111724854, -0.008256077766418457, -0.023506546393036842, -0.08511801064014435, -0.05512509495019913, -0.01147629227489233, 0.018428117036819458, -0.004740148317068815, 0.01640523038804531, 0.04597190394997597, -0.03050358220934868, 0.025350164622068405, -0.02237805165350437, 0.004888640716671944, 0.00023637279809918255, 0.02688874490559101, -0.026547180488705635, -0.008327420800924301, 0.026055950671434402, 0.049096111208200455, 0.04244546964764595, -0.024894626811146736, 0.025277741253376007, 0.06326572597026825, 0.013431881554424763, -0.02022665925323963, 0.040430814027786255, -0.008962691761553288, 0.003964529372751713, -0.0025813509710133076, 0.005670994520187378, -0.00933178048580885, 0.032943498343229294, 0.04185560718178749, 0.05231938883662224, -0.0277188029140234, -0.03119509294629097, 0.025555294007062912, 0.02058841846883297, -0.07105480879545212, -0.0036021561827510595, -0.018081940710544586, 0.0022186734713613987, -0.010729550383985043, 0.005539456382393837, -0.03314891457557678, 0.01666906476020813, 0.01898622140288353, -0.016803201287984848, -0.035409118980169296, -0.006333509460091591, -0.027382293716073036, 0.02491786517202854, -0.02036910131573677, 0.007532897405326366, 0.017574794590473175, -0.0343877375125885, -0.023199064657092094, 0.03763694316148758, 0.04274452477693558, 0.02252229116857052, -0.0060516721569001675, 0.020107856020331383, 0.008563140407204628, 0.011370065622031689, -0.04260849580168724, -0.03704596683382988, -0.006017797160893679, 0.006769580766558647, 0.015450610779225826, -0.024174226447939873, -0.0328957699239254, -0.016615062952041626, -0.010559184476733208, -0.020909801125526428, 0.053347840905189514, 0.058847907930612564, -0.010100249201059341, 0.02309742383658886, -0.021351024508476257, -0.028941964730620384, 0.010516883805394173, -0.007770163007080555, 0.021571863442659378, 0.02552049048244953, 0.028302909806370735, 0.03702741116285324, 0.003718782216310501, 0.03267725557088852, 0.051836978644132614, 0.04214344546198845, 0.0026554910000413656, -0.028791245073080063, 0.05223897099494934, -0.016771452501416206, 0.037115249782800674, 0.0033592546824365854, -0.019377360120415688, 0.003392258659005165, -0.009974132291972637, 0.011801463551819324, -0.001365550677292049, 0.041337642818689346, -0.026741929352283478, 0.00010626920266076922, 0.017441503703594208, -0.011200154200196266, -0.010479610413312912, 0.014043733477592468, 0.027769455686211586, 0.040777962654829025, -0.028972676023840904, -0.01604462042450905, -0.0026984403375536203, 0.0038423766382038593, -0.025922123342752457, 0.0027603355702012777, 0.026893263682723045, -0.0019740320276468992, 0.000913621683139354, 0.0013723833253607154, -0.0002477332018315792, -0.026412010192871094, -0.009526878595352173, 0.0006598911131732166, 0.024734599515795708, 0.01844033971428871, 0.009952964261174202, -0.021889841184020042, -0.035029418766498566, 0.014831881038844585, -0.017977066338062286, -0.022255323827266693], [-0.014065840281546116, 0.04677147790789604, 0.012185284867882729, -0.03711982071399689, 0.027231987565755844, -0.04687205329537392, -0.022315645590424538, -0.024087410420179367, 0.039384931325912476, 0.04529133439064026, 0.010368459858000278, -0.014075345359742641, 0.008525049313902855, 0.04511187598109245, 0.03679954260587692, -0.0071454280987381935, -0.018720153719186783, -0.03105936385691166, -0.06578962504863739, -0.017658747732639313, -0.030740607529878616, 0.02303987927734852, -0.04636744409799576, 0.003523836378008127, -0.00026516304933466017, 0.03637736290693283, 0.02106071263551712, 0.019791940227150917, -0.06327977776527405, -0.055621497333049774, 0.03013468347489834, -0.036915287375450134, 0.005329043138772249, 0.052006132900714874, -0.0006641964428126812, 0.0011235075071454048, -0.027328340336680412, 0.04119111970067024, -0.0031343307346105576, -0.005821526516228914, -0.023201357573270798, -0.006321121472865343, -0.005858105141669512, -0.007160338573157787, 0.004880211781710386, -0.017224431037902832, 0.008584881201386452, -0.021937759593129158, 0.0038738700095564127, -0.010210355743765831, 0.03486789017915726, 0.00858521368354559, 0.024749763309955597, 0.016964372247457504, 0.014611652120947838, -0.02314530499279499, -0.019693097099661827, -0.0018362036207690835, 0.021630259230732918, 0.0025417942088097334, 0.009030607528984547, 0.03150049224495888, -0.031582847237586975, 0.008457928895950317, -0.026133252307772636, 0.011331102810800076, 0.03907695412635803, -0.022646954283118248, -0.015637995675206184, -0.009016458876430988, -0.01839200034737587, -0.0010955401230603456, 0.0036454738583415747, -0.015497421845793724, 0.038858216255903244, -0.0350521020591259, -0.03178747370839119, 0.030886033549904823, 0.05434036627411842, 0.036066070199012756, -0.012309068813920021, 0.013900913298130035, 0.06474535912275314, 0.0063006263226270676, -0.012756461277604103, -0.021531181409955025, -0.02007422037422657, 0.008953191339969635, -0.006796608678996563, -0.019168803468346596, -0.010171530768275261, 0.020800650119781494, -0.0196667667478323, -0.03740837424993515, 0.01569989137351513, 0.04244943708181381, -0.013535888865590096, 0.049521997570991516, 0.002707995939999819, 0.003650351194664836, 0.012304482981562614, -0.004777044989168644, -0.02437215857207775, 0.013474498875439167, 0.012656771577894688, 0.036559607833623886, -0.02956727333366871, 0.03447718545794487, 0.03230469301342964, 0.051244962960481644, 0.018162420019507408, -0.041788648813962936, 0.02718907967209816, -0.008482849225401878, 0.02849869430065155, 0.005086181685328484, -0.015372542664408684, 0.013933690264821053, 0.02187133952975273, 0.0034842609893530607, -0.006441256031394005, 0.006838093977421522, -0.02693767286837101, 0.015627140179276466, -0.00749677000567317, -0.005340804811567068, -0.007672806736081839, -0.005522926338016987, 0.028101200237870216, 0.027945732697844505, -0.03409875929355621, -0.04581187292933464, 0.010962405242025852, 0.0029805165249854326, -0.02601517364382744, -0.01436355896294117, 0.04331609234213829, -0.016125105321407318, 0.00313730351626873, -0.008518449030816555, 0.00022345792967826128, -0.015023520216345787, -0.010428430512547493, 0.005256616044789553, 0.03316698223352432, -0.00938300509005785, -0.025290140882134438, -0.01901082694530487, -0.010097894817590714, -0.01607515662908554, 0.002077314769849181, -0.044492412358522415], [0.03231700882315636, 0.00036491674836724997, -0.03258834406733513, 0.039687272161245346, 0.013112257234752178, 0.002439193893224001, 0.0004088431887794286, -0.03351720795035362, -0.007725505158305168, 0.03504771739244461, -0.061239585280418396, -0.013521376065909863, -0.010517026297748089, 0.02047577127814293, 0.04190432280302048, 0.01338069885969162, -0.029820580035448074, 0.01439621951431036, 0.018545381724834442, 0.006713965442031622, 0.014037749730050564, 0.05746263638138771, 0.0041508181020617485, 0.03476208448410034, -0.029873723164200783, -0.002355703618377447, 0.008337879553437233, 0.002302784938365221, 0.004195825196802616, -0.002486886689439416, -0.021846631541848183, 0.015565019100904465, 0.0007655341760255396, -0.05879773199558258, 0.006230225786566734, 0.012706129811704159, -0.014546982944011688, 0.003512031165882945, -0.03483780100941658, 0.03666570037603378, 0.048224784433841705, -5.832046008436009e-05, -0.01968550868332386, -0.0011808095732703805, -0.02603587508201599, 0.010360941290855408, -0.006064046174287796, 0.007446436211466789, -0.029342085123062134, 0.023756492882966995, -0.03421477973461151, -0.037996556609869, 0.039614997804164886, -0.005221349652856588, 0.054964080452919006, 0.04936574026942253, -0.018172556534409523, 0.002785056596621871, -0.021997077390551567, -0.022291429340839386, 0.025013111531734467, 0.022116094827651978, -0.03339436277747154, -0.008531909435987473, 0.035561803728342056, -0.012714364565908909, 0.01934049464762211, -0.02836429327726364, 0.053555719554424286, -0.013883879408240318, -0.027938520535826683, -0.017748819664120674, -0.019884241744875908, -0.024521762505173683, 0.011662030592560768, -0.027907412499189377, 0.0008335499442182481, 0.040771421045064926, 0.010704193264245987, 0.026938725262880325, -0.00023369120026472956, 0.002882800530642271, 0.040233395993709564, 0.05801190063357353, -0.04785871133208275, 0.008208944462239742, 0.0035661973524838686, 0.031494516879320145, -0.009267056360840797, -0.005832904949784279, -0.024604199454188347, 0.010057228617370129, -0.008116415701806545, 0.020058369264006615, 0.0004519684298429638, 0.03723911941051483, 0.003517268458381295, 0.011365698650479317, 0.0009797501843422651, -0.0014332605060189962, -0.009045897983014584, -0.0028001470491290092, 0.0030253303702920675, 0.02221379615366459, 0.026501605287194252, -0.025868622586131096, -0.021737193688750267, 0.017163800075650215, -0.012483980506658554, -0.040394678711891174, 0.012082181870937347, 0.004863935988396406, 0.017172792926430702, -0.011166168376803398, 0.02051970362663269, 0.020216818898916245, -0.029607536271214485, 0.011216781102120876, -0.019178010523319244, 0.014317438937723637, -0.031093960627913475, 0.012664120644330978, 0.028508447110652924, -0.008090995252132416, 0.006168782245367765, 0.006798426155000925, -0.05340533331036568, 0.0030591513495892286, 0.038335688412189484, 0.01172500941902399, -0.04082987830042839, -0.04590868204832077, -0.004007846582680941, 0.013637498952448368, -0.04633636027574539, -0.023241309449076653, -0.0007222449639812112, -0.01332501508295536, 0.01203194260597229, 0.023622767999768257, 0.02487943321466446, 0.0002058918762486428, 0.01217307336628437, 0.016624821349978447, 0.015615644864737988, -0.029548363760113716, -0.008751282468438148, -0.023833198472857475, 0.012340450659394264, -0.024340033531188965, -0.0247221477329731, -0.029135018587112427], [0.5956364870071411, -0.25312742590904236, 0.7745324969291687, -0.5657047033309937, 0.05808083713054657, 0.16988541185855865, 1.6423271894454956, 0.7330764532089233, 0.49937328696250916, -0.13895852863788605, -0.3777420222759247, -0.23345854878425598, -0.4748713970184326, -0.8199977874755859, -0.25729742646217346, -1.3147591352462769, 0.6835424900054932, 0.02852969616651535, 0.47769516706466675, -0.23469804227352142, -1.27540922164917, -0.3301779329776764, 1.1724028587341309, 1.1984400749206543, 0.08335518091917038, -0.22006215155124664, 0.6367778182029724, -0.9428097009658813, -0.2354871779680252, 0.5192945003509521, 0.3601577877998352, 0.4690053462982178, 0.5634260177612305, 0.30921295285224915, -0.12444626539945602, 0.5996390581130981, -0.08388673514127731, 0.6315260529518127, -0.05304891988635063, -0.650083065032959, -2.13333797454834, 0.05366797745227814, -0.46896594762802124, 1.1345895528793335, -0.5688875913619995, -0.6479145288467407, 0.7720780372619629, -0.8839603662490845, 1.3596477508544922, -0.4268653094768524, -1.0996369123458862, -0.42590826749801636, 1.3175249099731445, 0.6797340512275696, 0.5679733157157898, -0.40613412857055664, -0.26357701420783997, -1.2894929647445679, -0.6035953760147095, 0.8497338891029358, -1.750826120376587, -2.1067349910736084, 0.714827299118042, -0.9358811378479004, 2.0832457542419434, 1.4113954305648804, 2.224841594696045, -1.4708783626556396, -0.18379275500774384, -1.7024706602096558, 0.44942060112953186, 0.5626527667045593, -2.1916282176971436, -0.3370635509490967, 0.9476690888404846, 1.1825140714645386, 1.6215585470199585, 0.05097528174519539, -0.7862929105758667, 0.01585925556719303, 0.02724689617753029, -0.9432660341262817, 2.4439072608947754, 1.6292191743850708, -0.32487431168556213, 0.6651755571365356, -1.4981415271759033, 1.3237719535827637, -2.1898744106292725, -1.6089986562728882, -1.495915174484253, -0.4293504059314728, -1.9467263221740723, -1.0900695323944092, -1.1848050355911255, -0.16631285846233368, -0.3689475953578949, 1.1639692783355713, -0.20743626356124878, -0.15026895701885223, 1.4048271179199219, 0.5108191967010498, -0.202732652425766, -0.40543505549430847, 1.3709137439727783, -1.4062734842300415, -0.9147849678993225, 0.2992215156555176, -1.4847729206085205, 0.362393856048584, 0.3888232707977295, 1.3157830238342285, -0.5563806295394897, -0.28224828839302063, -0.161781907081604, -0.041153691709041595, -0.3500983715057373, -0.5999934673309326, -0.07252094149589539, -1.3840855360031128, -4.268930912017822, 1.358885645866394, 0.70820552110672, -0.6035672426223755, -0.06028737500309944, -0.6715286374092102, 0.7521626353263855, -0.6231091022491455, 0.6536529660224915, 0.5589240193367004, 1.3853150606155396, 1.3663753271102905, -0.27041855454444885, 0.23363405466079712, 0.5319756269454956, -0.9430586695671082, 0.47555476427078247, -1.260869026184082, -0.04641124606132507, 0.9920846819877625, -0.10347893834114075, -0.8023238778114319, 1.101894736289978, 1.3508484363555908, -0.8338329792022705, 0.30340367555618286, 0.6152036190032959, -1.2666338682174683, -1.1219055652618408, 0.43060141801834106, 0.01899353228509426, 0.29936546087265015], [-0.0023437219206243753, 0.02011321671307087, 0.022210750728845596, -0.009440853260457516, 0.0015524610644206405, -0.00797143392264843, 0.005354784429073334, -6.946304347366095e-05, -0.01400193851441145, 0.057078275829553604, -0.016183722764253616, 0.03379157558083534, -0.013479548506438732, 0.0438963882625103, 0.01615624502301216, 0.019023654982447624, -0.037970323115587234, 0.029662614688277245, -0.021592605859041214, 0.004611118230968714, 0.002296080347150564, 0.009482214227318764, 0.01661737449467182, 0.03696110472083092, 0.015050811693072319, 0.017504502087831497, -0.004144100937992334, 0.0062506976537406445, 0.0034172218292951584, -0.029499487951397896, 0.00616450933739543, -0.011635794304311275, -0.0369071364402771, -0.0013633831404149532, -0.01792881265282631, 0.023931996896862984, -0.006448550149798393, -0.03126481547951698, 0.010263378731906414, -0.0073490021750330925, 0.022873686626553535, -0.011028820648789406, -0.02910815365612507, 0.00881385151296854, 0.007351419422775507, -0.011682067066431046, 0.004430477041751146, -0.010683128610253334, -0.023185350000858307, -0.01638214662671089, 0.022401873022317886, 0.007376248482614756, -0.007106014061719179, -0.034048378467559814, 0.03861704096198082, 0.011293869465589523, 0.010678323917090893, -0.020047053694725037, 0.0024500989820808172, -0.0019566447008401155, 0.03489552065730095, 0.01829984225332737, -0.05221712961792946, -0.028272191062569618, -0.020991606637835503, -0.02624712511897087, 0.012783755548298359, -0.0024963240139186382, 0.000713359855581075, -0.032965198159217834, -0.01937040127813816, 0.009480834938585758, 0.010414558462798595, -0.03122340887784958, -0.013875896111130714, -0.025747455656528473, 0.0013979735085740685, 0.035562027245759964, 0.03151557594537735, 0.014247418381273746, -0.005842035170644522, -0.007153237238526344, 0.015940416604280472, 0.042637985199689865, -0.02740488573908806, 0.00977247953414917, 0.011342526413500309, 0.010111063718795776, -0.014451531693339348, -0.039693959057331085, -0.0024246368557214737, 0.018718548119068146, -0.01587759330868721, 0.013889233581721783, 0.0023734653368592262, 0.011087941937148571, -0.011648767627775669, 0.029497941955924034, 0.0006396125536412001, -0.02870362251996994, 0.004282737150788307, -0.02074577286839485, -0.03347957879304886, 0.007170603144913912, 0.010850856080651283, 0.00029864723910577595, -0.017893390730023384, 0.013255812227725983, -0.003747435286641121, 0.006956532131880522, 0.01556209847331047, -0.04654683917760849, 0.018270738422870636, 0.007649547420442104, 0.014976218342781067, -0.012987896800041199, -0.040306199342012405, 0.007553379517048597, -0.008928181603550911, -0.018405715003609657, -0.020932050421833992, 0.010244441218674183, 0.016295762732625008, 0.005567803513258696, 0.009253641590476036, 0.016998931765556335, -0.01096415612846613, -0.01004190742969513, 0.01748780719935894, 0.01209915243089199, -0.03282315284013748, -0.0491328127682209, 0.012112561613321304, 0.022200170904397964, -0.01297288853675127, 0.002152771921828389, -0.008936764672398567, -0.00438297213986516, 0.013464410789310932, 0.01126526203006506, -0.0025813814718276262, 0.020913559943437576, 0.015659485012292862, 0.027148567140102386, 0.01640978269279003, -0.005612712819129229, -0.011056800372898579, -0.000711376138497144, 0.005432456731796265, -0.011345240287482738, -0.003943361807614565, -0.033919304609298706], [-0.013346657156944275, -0.03593242168426514, 0.06410513073205948, -0.04662419110536575, -0.06260821223258972, -0.03462618216872215, -0.04868881404399872, 0.018686464056372643, 0.02470499463379383, 0.03647696226835251, -0.008567438460886478, 0.00014552012726198882, 0.05137048661708832, -0.029757454991340637, -0.019466931000351906, 0.011983798816800117, 0.0034144476521760225, -0.036395758390426636, 0.03245614096522331, -0.002753673819825053, -0.07054860889911652, -0.07271895557641983, 0.05516556277871132, 0.016742631793022156, 0.028973478823900223, -0.13561996817588806, 0.0194480549544096, -0.01675991527736187, -0.10578499734401703, 0.04082006588578224, 0.0698373019695282, 0.011886310763657093, -0.006754577625542879, 0.0917714461684227, 0.06451869010925293, -5.730704287998378e-05, -0.011092201806604862, 0.04334612190723419, 0.007619631476700306, -0.008947004564106464, 0.0734594464302063, -0.01677069254219532, 0.016979316249489784, 0.011884122155606747, 0.029969453811645508, -0.05782845616340637, -0.05891880765557289, -0.026454756036400795, -0.03248601406812668, -0.0003541573532857001, 0.029122423380613327, 0.03303604573011398, 0.030877890065312386, 0.014925767667591572, 0.005538588855415583, 0.051407817751169205, -0.030004963278770447, 0.030731461942195892, 0.03939899057149887, -0.04115324839949608, -0.013783341273665428, -0.017336979508399963, -0.010744296945631504, 0.0006962665938772261, -0.03803811967372894, 0.0051200417801737785, 0.001973699079826474, -0.0014230485539883375, -0.02166423387825489, -0.018270326778292656, -0.03555102273821831, -0.04775971546769142, 0.00030677890754304826, 0.03414815664291382, 0.052399277687072754, -0.006000033114105463, 0.005882189143449068, 0.008460245095193386, -0.06305240094661713, 0.04863773658871651, -0.03911640867590904, -0.0061706919223070145, 0.048221997916698456, -0.000544883543625474, -0.049264777451753616, 0.024875694885849953, -0.002097049495205283, 0.022923175245523453, 0.06929482519626617, 0.001835821196436882, -0.0068556503392755985, 0.018635442480444908, 0.020242460072040558, -0.07479846477508545, -0.033875398337841034, 0.05962054058909416, -0.03840584307909012, 0.024485496804118156, 0.04018668085336685, 0.052949003875255585, 0.002852940233424306, 0.049063704907894135, 0.00445479154586792, 0.028956064954400063, 0.011447714641690254, 0.04640662670135498, -0.0002615635166876018, 0.05354992300271988, 0.027004623785614967, -0.06887196749448776, -0.026068298146128654, -0.024820860475301743, -0.03796830773353577, -0.05714690685272217, -0.056248314678668976, 0.013538544997572899, -0.04661574587225914, -0.015938064083456993, 0.0428001694381237, 0.002927829511463642, 0.035191915929317474, 0.012243871577084064, -0.014498605392873287, 0.022862233221530914, -0.012602404691278934, -0.02776390314102173, -0.036691028624773026, -0.034589700400829315, -0.03039061464369297, 0.0156811885535717, 0.010570177808403969, -0.03597161918878555, 0.062209032475948334, 0.012881910428404808, -0.06504615396261215, 0.03245123103260994, 0.028192372992634773, -6.479155126726255e-05, 0.04645189270377159, -0.010595404542982578, 0.01852043718099594, -0.0018299724906682968, -0.03219999000430107, 0.007262687664479017, -0.008701392449438572, -0.016542766243219376, -0.020139161497354507, -0.010815892368555069, -0.009866598062217236, -0.024173196405172348, -0.03472593054175377, -0.018464339897036552], [0.0055493502877652645, -0.02484327182173729, -0.017910365015268326, -0.017084447667002678, 0.05167578160762787, 0.039622630923986435, 0.008391641080379486, 0.015993276610970497, 0.018558062613010406, -0.04761764779686928, -0.011901656165719032, -0.027888629585504532, -0.003996752202510834, 0.03114311955869198, -0.004626113455742598, 0.00502808066084981, -0.004585982766002417, 0.03199097514152527, -0.013400605879724026, -0.02540251612663269, -0.019321519881486893, 0.0066599128767848015, -0.0860857143998146, 0.018607283011078835, -0.06824076920747757, 0.03330114856362343, -0.07185906916856766, 0.08266846090555191, 0.08479902148246765, -0.01978842169046402, -0.0276260357350111, -0.011097569949924946, -0.0058196173049509525, -0.016782520338892937, -0.010707370005548, -0.04591239616274834, 0.037149861454963684, -0.023340314626693726, -0.018710816279053688, -0.0026316815055906773, -0.01656319946050644, 0.027034545317292213, 0.02580098994076252, -0.03503527119755745, -0.02478717267513275, 0.025913173332810402, 0.044726334512233734, 0.0019398345611989498, 0.06448487937450409, 0.0017935528885573149, 0.019547978416085243, 0.021253718063235283, 0.05310612544417381, -0.052553728222846985, 0.0056886677630245686, -0.03878400847315788, 0.060912858694791794, -0.04298190400004387, -0.036532025784254074, -0.0014979597181081772, -0.00554033974185586, -0.02156718820333481, 0.02171909809112549, -0.00018212014401797205, -0.018314922228455544, -0.011666599661111832, -0.022356722503900528, -0.007873241789638996, 0.02442721650004387, 0.007378365844488144, 0.01838148944079876, -0.0011846787529066205, -0.015885045751929283, -0.0126657048240304, -0.04679174721240997, 0.02033274620771408, 0.00030968236387707293, -0.015574178658425808, 0.005362922791391611, -0.005540986079722643, 0.04463702067732811, 0.018569400534033775, -0.07780950516462326, 0.026877962052822113, 0.04500039294362068, 0.026057884097099304, -0.011064928025007248, 0.003405145835131407, -0.04810042306780815, 0.0120140565559268, 0.024948371574282646, -0.0521797239780426, -0.03599068522453308, 0.04981626197695732, 0.011177453212440014, -0.0028872324619442225, 0.03350747749209404, -0.027111494913697243, -0.034369856119155884, -0.02900606580078602, 0.01100823562592268, -0.0515219047665596, 0.020687591284513474, -0.0019033385906368494, -0.004710102919489145, 0.0023018044885247946, 0.008776047267019749, -0.012951681390404701, 0.0060099526308476925, 0.06476818025112152, 0.04333428665995598, -0.028051279485225677, 0.04334690421819687, 0.021521475166082382, 0.018250437453389168, -0.020528174936771393, 0.03362462297081947, 0.013385974802076817, -0.06889444589614868, 0.026376985013484955, 0.011759890243411064, 0.0016679265536367893, 0.01031288132071495, -0.011389167979359627, 0.009839321486651897, 0.03918449208140373, 0.02528427727520466, 0.010753410868346691, -0.017105761915445328, -0.014173985458910465, 0.005805748049169779, 0.05576348677277565, -0.052041683346033096, -0.02217528410255909, 0.034071266651153564, -0.0029450582806020975, -0.013045288622379303, -0.004512223415076733, -0.053568270057439804, -0.008717409335076809, 0.021853802725672722, 0.022139566019177437, 0.014058697037398815, 0.03025200590491295, -0.018700066953897476, 0.0395875908434391, 0.004453377798199654, -0.01687747798860073, 0.011023936793208122, 0.027745427563786507, 0.0008747980464249849, 0.02815103717148304], [-0.03333098441362381, -0.04983993619680405, -0.12192429602146149, -0.009297367185354233, 0.058369655162096024, -0.04394835978746414, -0.10069896280765533, -0.02484470047056675, 0.13409189879894257, -0.011128503829240799, 0.06096682325005531, -0.032737113535404205, -0.004957921337336302, 0.028181934729218483, 0.0022964668460190296, -0.0008533267537131906, 0.05214378982782364, -0.06631418317556381, -0.006479628849774599, -0.0502997562289238, 0.019173748791217804, 0.0054654935374855995, -0.10651449114084244, 0.11897775530815125, -0.015479343011975288, 0.029659094288945198, -0.01546513568609953, 0.11618845164775848, -0.023259693756699562, -0.018909869715571404, -0.005815000273287296, 0.01744437962770462, 0.09718494862318039, 0.012643960304558277, -0.05043091997504234, 0.03846744820475578, 0.0928163006901741, 0.12041181325912476, -0.04291551932692528, -0.05715807154774666, -0.11086785793304443, 0.08802835643291473, 0.011696089059114456, -0.03795880079269409, -0.022872021421790123, 0.04800965264439583, -0.014198948629200459, 0.07974588125944138, -0.029125714674592018, -0.02274940349161625, 0.06489939987659454, -0.00516948476433754, 0.05951791629195213, -0.1381056010723114, 0.025949236005544662, -0.052116602659225464, -0.04119604825973511, -0.1025049090385437, 0.028918465599417686, -0.015448072925209999, 0.015493366867303848, -0.0014046592405065894, -0.017982136458158493, -0.02209714613854885, -0.03415052965283394, 0.08285621553659439, -0.03233560919761658, -0.0005959453992545605, -0.05324467644095421, -0.005038028582930565, 0.017507674172520638, 0.08774711936712265, 0.01251216046512127, 0.023894626647233963, -0.06909886002540588, 0.0037340999115258455, -0.04665437713265419, -0.02265092544257641, 0.055144645273685455, -0.04192715883255005, 0.0030824379064142704, -0.010312751866877079, -0.061271920800209045, 0.03635784611105919, 0.05343157798051834, 0.006660835817456245, 0.041162360459566116, 0.0008735471637919545, -0.028709519654512405, -0.07553363591432571, 0.04308821260929108, 0.006647564470767975, -0.0006263043032959104, 0.00838315300643444, 0.03433810546994209, -0.034011419862508774, 0.03252951800823212, -0.06385068595409393, -0.07335947453975677, -0.014981814660131931, 0.014515877701342106, -0.05567784607410431, 0.026960456743836403, 0.007375296670943499, 0.00839361920952797, 0.05965908244252205, -0.006748436950147152, -0.07089779525995255, 0.0024118535220623016, 0.05512917414307594, 0.0029350384138524532, -0.029072754085063934, 0.002804690273478627, 0.03254050761461258, 0.0198372732847929, 0.0008293797727674246, 0.06198843568563461, 0.021876968443393707, -0.042469970881938934, -0.015226507559418678, 0.03378501906991005, 0.004383076913654804, -0.06442616134881973, 0.02321138232946396, 0.01873842254281044, 0.02841871790587902, 0.03749830275774002, 0.010218664072453976, -0.005331994500011206, 0.0063674552366137505, -0.008555109612643719, 0.04872017726302147, -0.07224643975496292, -0.019156616181135178, 0.08889294415712357, -0.011500030755996704, -0.05158833786845207, -0.04905388876795769, -0.031318485736846924, 0.0040838997811079025, 0.019709743559360504, 0.027659468352794647, -0.024434823542833328, -0.006966983899474144, -0.003584067104384303, 0.04673844203352928, 0.020604314282536507, 0.009327001869678497, -0.0711473748087883, 0.06065942719578743, 0.027468180283904076, 0.01089541893452406], [0.05181686580181122, 0.019194860011339188, -0.034791864454746246, 0.0172136053442955, -0.1950623095035553, 0.02332165092229843, -0.0028050614055246115, 0.14209477603435516, 0.12388459593057632, -0.12292133271694183, 0.004985522013157606, -0.08203235268592834, 0.013966872356832027, -0.024261964485049248, 0.14411745965480804, 0.04222685843706131, -0.02693619206547737, -0.17931675910949707, 0.07747266441583633, -0.08470723032951355, 0.16385877132415771, 0.013600979931652546, 0.18762609362602234, -0.01342962495982647, 0.35796642303466797, -0.058076485991477966, 0.00528482673689723, -0.12179004400968552, -0.07817178219556808, -0.059415820986032486, 0.09080681204795837, -0.006834809668362141, -0.050575438886880875, -0.0875316634774208, 0.13896146416664124, 0.03832471743226051, 0.07207690924406052, -0.06470483541488647, -0.0680386871099472, 0.09091316908597946, -0.041630420833826065, 0.1399836242198944, 0.07248875498771667, 0.04405719041824341, -0.22845707833766937, 0.05331400781869888, -0.05078999698162079, 0.14927901327610016, -0.18326477706432343, 0.012841088697314262, -0.04030584171414375, -0.13089561462402344, -0.16078849136829376, -0.0013813544064760208, -0.2914782762527466, -0.04477066174149513, 0.015134607441723347, 0.08265697956085205, 0.014299231581389904, -0.0028709995094686747, -0.06533670425415039, -0.09342393279075623, -0.005941085517406464, -0.027885517105460167, -0.11147476732730865, 0.10741064697504044, -0.015452077612280846, -0.004507035482674837, -0.09129363298416138, -0.10262380540370941, 0.01147752907127142, 0.11723056435585022, 0.0013455906882882118, 0.08457675576210022, -0.03492511808872223, -0.001601613243110478, 0.014826507307589054, -0.029888935387134552, -0.022155476734042168, -0.002493845298886299, 0.009711883962154388, 0.03645459935069084, -0.09971071034669876, 0.0938795655965805, 0.003811849746853113, -0.044276610016822815, -0.010367197915911674, 0.042024072259664536, -0.09309087693691254, 0.026173386722803116, 0.013035619631409645, -0.03143416345119476, 0.0036725206300616264, 0.08869743347167969, 0.09412282705307007, -0.0009204017696902156, -0.019894318655133247, -0.08459150046110153, 0.03788015618920326, -0.0492078959941864, 0.05157490447163582, 0.01101710181683302, 0.0409841351211071, 0.1288612186908722, 0.02610083483159542, -0.025834770873188972, 0.10232864320278168, -0.10834124684333801, 0.049468524754047394, -0.10861954838037491, 0.01169656403362751, 0.03095066361129284, -0.08972187340259552, 0.032400019466876984, 0.01588260754942894, 0.08665966242551804, 0.040478792041540146, 0.002318360609933734, -0.06257946789264679, -0.004552002064883709, 0.06472478806972504, -0.0307595357298851, -0.08579389750957489, 0.029461249709129333, -0.039619140326976776, 0.023686395958065987, -0.0004979385994374752, 0.013342553749680519, -0.07649586349725723, -0.005293156486004591, -0.00843107420951128, 0.08012588322162628, 0.024094806984066963, 0.019810209050774574, 0.03271849825978279, 0.00869924109429121, -0.059153590351343155, -0.02117135562002659, 0.008038378320634365, -0.020036468282341957, 0.0755002349615097, 0.04484597221016884, 0.01169950608164072, 0.039341870695352554, -0.03045385703444481, 0.003360210917890072, 0.035748716443777084, 0.02002130076289177, -0.05559295043349266, 0.030892815440893173, -0.03349154070019722, -0.005726075265556574], [-0.029656674712896347, -0.030097488313913345, -0.010013324208557606, 0.06269954144954681, -0.004632013384252787, -0.00523574510589242, 0.07196750491857529, 0.016870398074388504, -0.03702876344323158, -0.039925962686538696, 0.013680770993232727, 0.03154556080698967, 0.005706388968974352, -0.05331140756607056, -0.01985756866633892, 0.030879994854331017, 0.03651559352874756, 0.0016606217250227928, 0.03784932196140289, 0.04995821788907051, 0.01790585368871689, 0.02101670578122139, 0.012977920472621918, 0.0021098966244608164, 0.03029518574476242, -0.028702324256300926, -0.018313396722078323, 0.01403768640011549, 0.011953439563512802, -0.0023339102044701576, 0.003960535861551762, 0.030731964856386185, -3.903544711647555e-05, -0.028579942882061005, -0.02087411656975746, 0.02102050557732582, -0.03377177193760872, -0.00847648549824953, 9.619342745281756e-05, -0.005407499615103006, -0.014071458950638771, -0.020547520369291306, -0.009473806247115135, -0.006837041117250919, 0.0005880623357370496, 0.010141282342374325, -0.04209301248192787, 0.027813849970698357, -0.006916271056979895, -0.035273000597953796, -0.007754315156489611, -0.042523402720689774, -0.003033749759197235, -0.00854476448148489, -0.07840351015329361, -0.0075443643145263195, -0.008938079699873924, -0.023201480507850647, 0.010694573633372784, 0.013429342769086361, -0.02537299133837223, -0.03136333078145981, 0.036037664860486984, -0.006604101043194532, -0.002199462614953518, -0.007378404960036278, -0.018973078578710556, 0.01396110188215971, -0.027480855584144592, -0.0008539112168364227, 0.028780341148376465, 0.022556742653250694, 4.847743639402324e-06, 0.019989140331745148, -0.037401534616947174, 0.010140303522348404, 0.023097030818462372, -0.020847845822572708, -0.05021384730935097, -0.03477900102734566, 0.0068266442976891994, -0.014314670115709305, -0.06582504510879517, -0.00519163254648447, 0.040507424622774124, 0.011622519232332706, 0.0045510148629546165, 0.01652691513299942, -0.0009150347905233502, 0.030638596042990685, 0.0006808114121668041, -0.032861609011888504, -0.0008299864712171257, 0.01684453710913658, 0.021619359031319618, -0.041494522243738174, 0.024744316935539246, -0.04627883434295654, -0.01359562948346138, -0.016203776001930237, 0.031166937202215195, 0.03241821005940437, 0.03817518800497055, 0.0005837594508193433, -0.026418358087539673, -0.015648014843463898, 0.03567519411444664, 0.000893247255589813, -0.0012332204496487975, -0.0022212895564734936, -0.029539816081523895, 0.055102720856666565, -0.022435717284679413, -0.0032608704641461372, 0.001089437399059534, 0.005204018205404282, 0.02778669260442257, 0.001320855924859643, -0.015080018900334835, 0.03734564408659935, 0.0137637322768569, 0.0001935701147885993, 0.026043396443128586, -0.006334970239549875, 0.004808636382222176, 0.013789420016109943, -0.00442993501201272, 0.014380035921931267, -0.019312258809804916, -0.015038124285638332, 0.023064985871315002, 0.05792098864912987, -0.026874780654907227, 0.001269102212972939, 0.026038501411676407, 0.00717884860932827, -0.03718428686261177, -0.002232465660199523, 0.01403243187814951, 0.005610722117125988, 0.014961290173232555, -0.012446080334484577, 0.007364165969192982, -0.026137975975871086, -0.03721265122294426, 0.0011015411000698805, 0.02505892887711525, 0.023315222933888435, 0.0025431113317608833, 0.010364087298512459, 0.0020884592086076736, 0.009835165925323963], [0.040904756635427475, 0.027164403349161148, -0.036503735929727554, -0.007376869674772024, 0.03461272269487381, 0.016062939539551735, 0.02118631638586521, 0.004001877270638943, 0.05184551700949669, 0.04939647391438484, -0.057790711522102356, -0.03713814541697502, -0.02185782417654991, 0.013553005643188953, 0.02868073061108589, 0.06298713386058807, -0.10356799513101578, 0.056907959282398224, -0.07496348023414612, -0.028570886701345444, 0.03159060329198837, 0.03282808139920235, -0.027442559599876404, 8.748076652409509e-05, -0.03784159943461418, 0.08389323949813843, 0.011804856359958649, 0.002033898141235113, 0.059861741960048676, -0.03665298968553543, -0.04006216675043106, -0.008882327005267143, -0.012124644592404366, -0.033308763056993484, -0.04603804647922516, 0.03357329219579697, -0.009356984868645668, -0.04017128795385361, -0.07325390726327896, -0.0074098678305745125, 0.014287352561950684, 0.05903312936425209, -0.011471198871731758, -0.02118843048810959, -0.030338309705257416, -0.025630760937929153, 0.035951945930719376, 0.03772411495447159, -0.010762282647192478, 0.00673041632398963, -0.007540912367403507, -0.008943255990743637, 0.031371839344501495, -0.017965462058782578, 0.026406200602650642, -0.009795792400836945, -0.014139670878648758, -0.006468137726187706, -0.04305479675531387, 0.0012054824037477374, 0.03447027504444122, 0.021500475704669952, -0.05754844471812248, -0.01093236356973648, -0.014753103256225586, -0.025064561516046524, 0.03976541757583618, -0.007543403655290604, 0.04785357043147087, -0.019583802670240402, 0.0005061337724328041, 0.0009174660081043839, 0.0025543831288814545, -0.022285809740424156, -0.031215041875839233, -0.04426185041666031, 0.008636604994535446, 0.036313485354185104, 0.05615832284092903, 0.01754358597099781, 0.012655012309551239, 0.002348516369238496, 0.010995807126164436, 0.07479118555784225, -0.0002202597534051165, 0.0017417167546227574, 0.002140748081728816, 0.035232339054346085, -0.07454625517129898, -0.007187614683061838, -0.0022783083841204643, -0.016641078516840935, -0.033380962908267975, 0.06273210793733597, 0.045891374349594116, -0.0015831991331651807, 0.01166337076574564, 0.0071535976603627205, 0.00047532600001432, -0.03658013418316841, 0.014690076932311058, -0.021829241886734962, -0.02759401872754097, 0.016144149005413055, 0.04288380593061447, -0.0489228181540966, -0.013274023309350014, 0.0018838912947103381, 0.016929343342781067, 0.028370046988129616, 0.04035912826657295, -0.01974550634622574, 0.051471538841724396, 0.010810494422912598, 0.05897146463394165, 0.010810415260493755, -0.03804254159331322, 0.020385771989822388, -0.04710661247372627, 0.007891969755291939, -0.03592853248119354, 0.0023532535415142775, 0.03384178876876831, -0.012877286411821842, -0.004552964586764574, 0.043851982802152634, -0.051938496530056, -0.0019052510615438223, 0.03618219494819641, 0.01113457977771759, -0.03805266320705414, -0.01423182338476181, -0.010796613991260529, 0.003276469651609659, -0.017275961115956306, -0.04417130723595619, -0.021164951846003532, -0.005156242288649082, -0.003475520061329007, 0.009515292942523956, 0.001686185016296804, 0.03738386556506157, 0.037813328206539154, 0.039993785321712494, 0.00797350239008665, -0.018780605867505074, -0.012204195372760296, -0.005738440435379744, 0.01033542025834322, 0.0016962902154773474, -0.010257824324071407, -0.0322546549141407], [0.05909620597958565, -0.013078062795102596, -0.026810603216290474, 0.016511857509613037, 0.018905598670244217, 0.014914784580469131, 0.008583083748817444, 0.011453364044427872, 0.03850683197379112, 0.028487499803304672, -0.02318989858031273, -0.0005808433634229004, -0.0288062933832407, 0.03947591409087181, 0.02474972978234291, 0.04546036943793297, -0.05248885229229927, 0.04284388944506645, -0.021915044635534286, -0.013389624655246735, 0.025957614183425903, 0.011759540066123009, -0.024712830781936646, 0.044540151953697205, 0.011760374531149864, 0.01709658093750477, 0.019443223252892494, -0.024160128086805344, 0.009237045422196388, -0.01957714930176735, -0.04933849722146988, 0.0356283038854599, -0.0014015898341313004, -0.03996464982628822, -0.03759888559579849, -0.012548919767141342, -0.023950345814228058, -0.005352451466023922, -0.04044476896524429, 0.011227834969758987, 0.009841361083090305, 0.03354756906628609, 0.005714794620871544, -0.03898421302437782, -0.030607566237449646, 0.013837449252605438, -0.0034912016708403826, 0.015462058596313, -0.032369960099458694, 0.010665692389011383, 0.011833774857223034, 0.005262786988168955, 0.04436860978603363, -0.04792244732379913, -0.0016981455264613032, -0.007382532116025686, -0.026800140738487244, -0.0074660759419202805, -0.03206668049097061, -0.026272356510162354, 0.05100952833890915, 0.014826213009655476, -0.04162690415978432, -0.051565270870923996, -0.024983089417219162, 0.0025212906766682863, 0.0390016995370388, 0.00439582671970129, 0.0031952590215951204, -0.028484679758548737, -0.018977710977196693, 0.04831739142537117, 0.0177101269364357, -0.01780896633863449, -0.03315909579396248, 0.0022314570378512144, 0.0015905790496617556, 0.019359074532985687, 0.046118609607219696, 0.006397703196853399, -0.022516215220093727, -0.008748647756874561, -0.009232304990291595, 0.06806085258722305, -0.014602185226976871, 0.01427923422306776, 0.012200485914945602, 0.033336885273456573, -0.016225824132561684, -0.040777646005153656, -0.010429231449961662, 0.00613339664414525, -0.004098219331353903, 0.026969490572810173, 0.014232946559786797, -0.006361557170748711, 0.021418865770101547, -0.01951741985976696, -0.006059883162379265, -0.04360851272940636, 0.019943764433264732, -0.0072228796780109406, -0.02514617331326008, 0.009288525208830833, 0.024963507428765297, -0.02422318048775196, 0.025801291689276695, -0.015959089621901512, -0.013621171936392784, 0.0028279197867959738, 0.00898832082748413, -0.0391511395573616, 0.002902430249378085, -0.0005147196352481842, 0.05954473465681076, -0.0009676438057795167, -0.01366553083062172, 0.02090856432914734, -0.012979868799448013, -0.017148597165942192, -0.006635014899075031, -0.007135741878300905, 0.003394391620531678, 0.010867559351027012, 0.007156894076615572, 0.0225202739238739, 0.0015165226068347692, 0.0004380166938062757, 0.024737557396292686, 0.003094824030995369, -0.03296200931072235, -0.01576870121061802, -0.037048809230327606, 0.015539450570940971, 0.011410791426897049, -0.020015446469187737, -0.041635893285274506, -0.03346360847353935, 0.010051175020635128, -0.0023777897004038095, 0.015299566090106964, 0.03303473815321922, 0.026563558727502823, 0.04147530719637871, -0.008614527992904186, 0.0028737725224345922, -0.0034535941667854786, -0.0012113593984395266, 0.002527718897908926, 0.021718144416809082, 0.004076930694282055, -0.027485741302371025], [0.02165205217897892, 0.0030796758364886045, -0.011673122644424438, 0.01244306843727827, 0.009000323712825775, 0.06522078812122345, 0.04556051269173622, 0.03279276564717293, -0.05843041092157364, 0.0020612976513803005, -0.027362463995814323, 0.041699785739183426, -0.0028853723779320717, 0.028722677379846573, 0.008220547810196877, -0.0073478128761053085, 0.0055233752354979515, -0.003739979350939393, 0.035158801823854446, -0.031737081706523895, 0.08459136635065079, 0.04341782256960869, -0.028251834213733673, 0.0029238087590783834, -0.03800627216696739, 0.03920089080929756, -0.01677924580872059, -0.0054071322083473206, 0.10728181898593903, -0.010430769994854927, -0.02449255809187889, 0.014031852595508099, 0.011202534660696983, -0.024157987907528877, -0.0013742456212639809, -0.08912397921085358, -0.022362511605024338, -0.041219983249902725, 0.03740870580077171, -0.028364187106490135, 0.015661312267184258, -0.031699568033218384, 0.016898363828659058, -0.040711719542741776, -0.017090877518057823, -0.013068643398582935, 0.001359168323688209, 0.005069127772003412, -0.014157851226627827, 0.008572889491915703, -0.06084538251161575, -0.04862988367676735, 0.002082688733935356, 0.0019573119934648275, 0.07086297869682312, -0.04980587586760521, 0.025818074122071266, -0.025738496333360672, -0.04130225628614426, 0.02483789250254631, 0.001295963884331286, -0.02600736729800701, 0.0037706492003053427, -0.004432692192494869, 0.03789401426911354, 0.034592922776937485, -0.014093934558331966, 0.00048279494512826204, -0.004362583160400391, 0.03213014453649521, 0.05230569466948509, 0.021491078659892082, -0.0028110872954130173, 0.009061555378139019, -0.017985720187425613, 0.05643469840288162, -0.0006440543802455068, -0.0385599359869957, -0.020373256877064705, -0.006513532716780901, 0.01314566284418106, -0.008469870314002037, -0.021311361342668533, -0.00557478005066514, 0.027942413464188576, -0.00032995009678415954, 0.007508245762437582, -0.055767934769392014, -0.005529728252440691, -3.360125447215978e-06, 0.021447177976369858, -0.013678180985152721, -0.0031673507764935493, 0.029250403866171837, -0.0329066663980484, -0.016251403838396072, 0.05674416944384575, 0.0031239541713148355, -0.009111786261200905, -0.04988180473446846, -0.02666156180202961, -0.006267469841986895, 0.0056111994199454784, -0.012873141095042229, -0.04113628715276718, -0.0274310652166605, 0.046287115663290024, -0.048672519624233246, -0.022283071652054787, 0.0009663488599471748, 0.003388582030311227, -0.004056541249155998, -0.027776097878813744, -0.00016656439402140677, -0.020646030083298683, -0.004907740280032158, 0.01802724413573742, 0.013865599408745766, 0.012661900371313095, -0.011864224448800087, 0.0002711252309381962, -0.01180310919880867, -0.022495536133646965, -0.008882970549166203, -0.008946320042014122, -0.022287724539637566, 0.05532747507095337, 0.004874096252024174, -0.012206695042550564, -0.019105134531855583, 0.04530295729637146, 0.0238592978566885, -0.017717892304062843, -0.014922091737389565, 0.0402238704264164, 0.01446817722171545, -0.02127792313694954, 0.0058812107890844345, -0.0037225608248263597, -0.04110148176550865, 0.004812927916646004, -0.010125338099896908, 0.01225917600095272, 0.005234185140579939, -0.024695098400115967, 0.02628539875149727, -0.0046094851568341255, 0.010034549050033092, 0.00645660562440753, 0.01450497005134821, 0.032322898507118225, 0.03168823942542076], [-0.033740218728780746, 0.009530896320939064, 0.08674082159996033, -0.03727221488952637, 0.05911030247807503, 0.04430808499455452, 0.08403070271015167, 0.14609971642494202, -0.046952277421951294, 0.10277912020683289, -0.07788411527872086, 0.08734635263681412, 0.027253540232777596, -0.05541572719812393, 0.08001632243394852, 0.013569442555308342, -0.07310111075639725, 0.002806734526529908, 0.16298915445804596, 0.1803782731294632, -0.10953540354967117, -0.023110168054699898, 0.207534059882164, -0.12380459904670715, 0.10450763255357742, -0.003599296323955059, -0.03702760115265846, -0.06173379719257355, -0.2307618260383606, 0.011818275786936283, -0.05984608083963394, 0.005967728793621063, -0.02114686369895935, 0.0757761150598526, 0.07003310322761536, -0.05381692945957184, -0.08837323635816574, -0.19313357770442963, -0.0430816151201725, -0.031115490943193436, 0.15472477674484253, -0.11913035064935684, -0.08100353926420212, 0.05177935212850571, 0.021021908149123192, -0.07119235396385193, -0.013803084380924702, -0.051844753324985504, -0.08946500718593597, -0.11468338221311569, -0.058593735098838806, 0.002388671739026904, -0.03703101724386215, 0.1959902048110962, -0.13005442917346954, -0.01887466385960579, -0.0319327786564827, 0.009252168238162994, 0.10701769590377808, -0.0021585922222584486, 0.0160062313079834, 0.05879620090126991, 0.09478047490119934, 0.033579856157302856, 0.020801132544875145, -0.07126510143280029, -0.019047627225518227, 0.048272859305143356, 0.04360971227288246, 0.0645451620221138, -0.017079858109354973, -0.06745194643735886, -0.002844110829755664, -0.03900117054581642, 0.07170398533344269, -0.006708825007081032, -0.002259364351630211, -0.0012133547570556402, -0.11703776568174362, 0.007647309917956591, -0.017191417515277863, -0.034893255680799484, 0.0652884766459465, -0.06066747009754181, -0.03317313641309738, 0.01125500537455082, 0.06588984280824661, 0.032907791435718536, 0.027286775410175323, 0.05863148346543312, -0.03715813532471657, 0.009863721206784248, 0.04511689022183418, -0.06033024191856384, -0.01709691621363163, 0.07530305534601212, -0.08079838752746582, 0.00148886872921139, 0.05736604705452919, 0.0033651075791567564, -0.022448863834142685, 0.09349576383829117, -0.03413764014840126, -0.07543568313121796, -0.032663777470588684, -0.05660566687583923, -0.0029181346762925386, 0.1390743851661682, 0.011412023566663265, -0.08343261480331421, -0.09011708199977875, 0.07821392267942429, -0.09400655329227448, -0.10314813256263733, -0.0849318727850914, 0.003970046993345022, -0.002560494700446725, -0.0024442633148282766, 0.0852268859744072, 0.018350115045905113, -0.009260718710720539, 0.04881380870938301, 0.08570591360330582, 0.02295648120343685, 0.019685588777065277, -0.013134914450347424, -0.01631610095500946, -0.06140484660863876, -0.002072968753054738, 0.01034676842391491, 0.015407539904117584, -0.0164966881275177, 0.038498491048812866, 0.016062652692198753, -0.06993217766284943, 0.014202672988176346, -0.002767308382317424, 0.012616862542927265, 0.10312968492507935, 0.031017040833830833, 0.00824966374784708, -0.06880509853363037, 0.01521141454577446, 0.010458800010383129, -0.020450999960303307, -0.10736776143312454, -0.0006566894007846713, 0.004568171221762896, 0.018108276650309563, -0.019970541819930077, -0.03401502966880798, -0.010422487743198872], [0.010528314858675003, -0.0026035872288048267, 0.020150000229477882, 0.011223722249269485, 0.020726054906845093, -0.004849253222346306, 0.03724932298064232, 0.012040813453495502, -0.04039058834314346, 0.00011040201934520155, -0.009851695038378239, 0.010053846053779125, 0.04161490127444267, -0.04127262905240059, 0.04549911618232727, 0.01613139919936657, 0.03650172799825668, -0.053668346256017685, 0.06945616751909256, 0.030750397592782974, 0.0165602657943964, -0.039868827909231186, 0.03217450901865959, -0.060175832360982895, -0.004085752181708813, -0.00010129804286407307, -0.0024706542026251554, -0.02650219202041626, -0.03593756631016731, 0.07294471561908722, 0.0016432153061032295, -0.03273557126522064, 0.0014894488267600536, 0.02773226611316204, 0.009052935987710953, -0.019565865397453308, 0.021504053846001625, -0.03633697330951691, -0.02413577027618885, -0.03535950183868408, 0.05997399985790253, -0.017860807478427887, -0.044906388968229294, 0.013101988472044468, -0.055485375225543976, -0.03669644519686699, 0.03131181001663208, -0.012879195623099804, 0.01049779076129198, -0.018880071118474007, -0.025620900094509125, 0.03467436134815216, -0.03013794682919979, 0.06543781608343124, 0.016202010214328766, 0.022875728085637093, -0.008743698708713055, -0.022549763321876526, 0.060988880693912506, 0.0005093459039926529, -0.05701673403382301, -0.010859834961593151, 0.04246240854263306, 0.032785944640636444, 0.021360917016863823, -0.00900727417320013, -0.019348332658410072, 0.009527629241347313, 0.005130479112267494, 0.01679776981472969, 0.026104740798473358, -0.06597139686346054, -0.014907975681126118, -0.006671948358416557, -0.00015415326924994588, 0.021849093958735466, 0.019737567752599716, -0.05625903978943825, -0.07612592726945877, -0.002443299163132906, 0.0011677033035084605, -0.0010451608104631305, -0.021923795342445374, -0.08088323473930359, 0.03648154437541962, -0.0033926949836313725, -0.0025139926001429558, -0.019801508635282516, 0.008003768511116505, 0.03959101438522339, -0.021314026787877083, -0.0025664479471743107, 0.009869475848972797, -0.010118124075233936, -0.07803699374198914, -0.015943223610520363, -0.017042985185980797, 0.012619993649423122, 0.03727814927697182, 0.05241827294230461, -0.030925845727324486, 0.03417065739631653, 0.002903464250266552, -0.08006690442562103, -0.039540309458971024, -0.035995692014694214, 0.01980256848037243, 0.027341805398464203, -0.02235722541809082, -0.014063502661883831, -0.00774586945772171, 0.062401145696640015, -0.026569237932562828, -0.018335163593292236, -0.06705787777900696, 0.017821570858359337, 0.027292510494589806, 0.0018750998424366117, 0.03426903113722801, 0.018981780856847763, -0.0021408821921795607, -0.018349019810557365, 0.01398803386837244, -0.008681920357048512, -0.03257545456290245, 0.002633427968248725, -0.0065208179876208305, -0.01245449110865593, -0.024730727076530457, -0.022082986310124397, 0.04507626220583916, 0.029770448803901672, 0.011799926869571209, -0.02310553379356861, -0.0013484859373420477, 0.018579047173261642, 0.015332742594182491, 0.028940388932824135, 0.02792973443865776, -0.0026343793142586946, 0.0010788922663778067, -0.025925882160663605, -0.009088987484574318, -0.006557599641382694, -0.020420586690306664, -0.019447285681962967, -0.010131621733307838, 0.0073797800578176975, 0.05193743482232094, -0.01614285260438919, -0.011731576174497604, 0.01574457436800003], [0.013075029477477074, 0.027785353362560272, 0.07484753429889679, 0.00196277629584074, -0.034595295786857605, -0.052037935703992844, -0.02618042379617691, 0.015997963026165962, 0.03922426328063011, -0.03199503570795059, 0.020641446113586426, -0.027041520923376083, 0.06318176537752151, -0.0705186203122139, -0.0514310821890831, -0.012882638722658157, -0.012086162343621254, -0.053705744445323944, 0.030360599979758263, 0.0012531272368505597, -0.02101888321340084, -0.014392374083399773, -0.03274529427289963, 0.0021777134388685226, 0.02422354370355606, -0.043839190155267715, 0.037100404500961304, 0.02027577906847, -0.05718953162431717, -0.008246124722063541, -0.027453940361738205, -0.03239687904715538, -0.024423880502581596, 0.004879188258200884, 0.024163203313946724, 0.021077163517475128, 0.011201942339539528, 0.010212576948106289, 0.014558378607034683, -0.022746283560991287, -0.02113695815205574, 0.0165324117988348, -0.008454798720777035, 0.04453183710575104, 0.02415482886135578, -0.022828305140137672, 0.06036192178726196, -0.020295264199376106, 0.0019898400641977787, -0.013275002129375935, 0.026762226596474648, 0.018602706491947174, -0.014192482456564903, 0.00616190442815423, -0.03865012153983116, -0.025197545066475868, -0.014082870446145535, 0.006371915806084871, 0.04548715800046921, 0.01735234260559082, -0.030436446890234947, -0.02870294824242592, 0.03726533055305481, 0.02081380970776081, -0.021846408024430275, 0.039968058466911316, -0.008330377750098705, 0.00623138714581728, -0.04228336364030838, 0.016996275633573532, 0.012787805870175362, 0.0032237665727734566, -0.007989514619112015, 0.030719364061951637, 0.010650614276528358, 0.03892450034618378, -0.011803127825260162, -0.01381337083876133, -0.013406726531684399, -0.005943946074694395, 0.01783336140215397, 0.01943720318377018, -0.0017397536430507898, -0.070785753428936, 0.02624022215604782, -0.009795146062970161, -0.01898430660367012, -0.0067154779098927975, 0.03781883046030998, 0.0079125314950943, 0.00798743311315775, 0.0035295223351567984, 0.00011894179624505341, -0.017562441527843475, -0.001803854014724493, -0.01369625423103571, 0.01156950369477272, 0.0180696751922369, -0.0052869124338030815, 0.00210752384737134, 0.023165561258792877, 0.026946188881993294, 0.03251248970627785, 0.0540703684091568, 0.002202293835580349, 0.0564761683344841, 0.0017830149736255407, 0.007768968585878611, 0.04392701014876366, 0.0271349735558033, -0.016937769949436188, -0.030804740265011787, -0.021595515310764313, 0.0033805405255407095, -0.04215255379676819, -8.752994290261995e-06, 0.030971495434641838, -0.007194463163614273, 0.008100807666778564, 0.006033279467374086, 0.031279005110263824, -0.004271235316991806, -0.04685715213418007, 0.01669074222445488, -0.016004225239157677, -0.047873202711343765, 0.04345572739839554, 0.00322734541259706, -0.0337522029876709, -0.01644984260201454, 0.03843483328819275, 0.013136274181306362, 0.01890023797750473, -0.006365834269672632, 0.018930602818727493, 0.04086295887827873, 0.025462985038757324, 0.009874503128230572, -0.0029999969992786646, -0.03393712639808655, -0.015499305911362171, -0.016789168119430542, -0.024026231840252876, -0.038298338651657104, 0.006799354217946529, 0.022698193788528442, 0.013802417553961277, 0.004781309049576521, -0.029462095350027084, 0.005840590689331293, 0.010914577171206474, 0.00800399575382471], [-0.037241432815790176, 0.07251527160406113, -0.07315103709697723, 0.0293099507689476, 0.07086542993783951, 0.0861097127199173, 0.061745624989271164, 0.06451465934515, 0.0020899411756545305, 0.038774289190769196, -0.015741003677248955, 0.014943564310669899, -0.002305807312950492, 0.027619099244475365, 0.004942534491419792, 0.029141811653971672, -0.055448707193136215, 0.04693148285150528, -0.006164468824863434, -0.01242264173924923, 0.00865071453154087, 0.13274046778678894, -0.016815166920423508, 0.02507100999355316, -0.03751281276345253, 0.13159407675266266, 0.00015684773097746074, 0.02712973952293396, 0.10707945376634598, -0.07296651601791382, -0.06912001222372055, -0.03563237935304642, 0.0197322778403759, -0.041555799543857574, -0.05054019019007683, -0.09506524354219437, 0.05918211489915848, -0.10374908149242401, -0.022730883210897446, -0.026023544371128082, -0.060631416738033295, 0.009911867789924145, -0.04359576851129532, -0.025907006114721298, -0.028255175799131393, 0.05508626997470856, 0.05370716750621796, -0.01484724972397089, 0.007359500043094158, -0.03810341656208038, -0.01721472665667534, -0.07927810400724411, -0.03101920895278454, -0.01293978188186884, -0.016420379281044006, -0.013790341094136238, 0.028002506121993065, -0.08867558091878891, -0.012063078582286835, 0.10161876678466797, 0.000753275235183537, 0.0370633602142334, 0.05474412068724632, 0.00963670015335083, 0.035601917654275894, -0.003474503755569458, 0.002217979170382023, 0.033698610961437225, 0.021855082362890244, 0.03795727714896202, 0.05600441247224808, 0.03863333910703659, 0.024649465456604958, -0.044459059834480286, -0.07097407430410385, 0.016734428703784943, -0.04712243378162384, -0.04056335240602493, 0.02882956527173519, -0.06840318441390991, 0.013921761885285378, -0.009213609620928764, -0.05934738740324974, 0.022686850279569626, 0.08083750307559967, -0.0027074895333498716, 0.02773337811231613, -0.028857367113232613, -0.09981384128332138, 0.02592790313065052, 0.06272980570793152, 0.001916404697112739, -0.06690438836812973, 0.0632593110203743, -0.01617559604346752, -0.06250017136335373, 0.04184846580028534, -0.052104026079177856, -0.018137916922569275, -0.07139448821544647, 0.019420268014073372, -0.03263528645038605, 0.0053475406020879745, -0.07991710305213928, -0.046819962561130524, -0.09769650548696518, 0.009345931932330132, -0.08296507596969604, -0.059015728533267975, 0.11659393459558487, 0.028825366869568825, 0.04860984906554222, 0.010089272633194923, 0.024360574781894684, 0.05716446042060852, -0.002424251288175583, 0.08767132461071014, 0.015803981572389603, -0.048406925052404404, -0.012662753462791443, -0.05367352068424225, -0.019024359062314034, -5.4759631893830374e-05, -0.0254836268723011, 0.0037598905619233847, 0.06090257316827774, 0.0630469024181366, 0.05963130295276642, 0.01198299415409565, -0.014136540703475475, -0.006657133344560862, 0.05682653561234474, -0.0779321938753128, -0.022395312786102295, 0.06951877474784851, -0.011781755834817886, -0.038329772651195526, -0.005595327354967594, -0.03475559502840042, 0.0014154361560940742, 0.020706472918391228, 0.0019837652798742056, 0.07490608096122742, 0.010518205352127552, -0.015533369965851307, -0.019199419766664505, -0.01698211207985878, 0.016490954905748367, 0.0416773185133934, 0.04491395875811577, 0.015194710344076157, 0.014062594622373581], [-1.1816954612731934, 0.41789162158966064, 1.2327909469604492, 0.20839941501617432, 0.4194369912147522, -0.04872221499681473, -0.0008066550944931805, 0.36815422773361206, 0.6268662214279175, -1.196743369102478, 0.4590620696544647, 0.3377635180950165, -0.43521955609321594, 0.17478080093860626, 0.25945720076560974, 0.5140515565872192, -1.0979945659637451, -1.3014158010482788, -0.9057125449180603, -1.5863391160964966, -0.1013571172952652, 0.2229526937007904, 1.792944073677063, -0.145077183842659, 0.03960970416665077, 1.7298095226287842, 0.48587220907211304, 0.2956172525882721, -0.9295297265052795, -1.1423065662384033, -0.595012903213501, 0.18047145009040833, 0.9372743368148804, -0.05896014720201492, 0.15818949043750763, 0.40659773349761963, 0.03187599405646324, 0.8846195340156555, 0.22141043841838837, -1.1187740564346313, 0.1584768146276474, 1.079060435295105, -0.2776494026184082, 0.13849754631519318, -0.04661328345537186, 0.17657044529914856, -1.1641626358032227, -0.5623801350593567, 0.7346007227897644, -0.9842798709869385, 0.11997562646865845, 0.15940535068511963, 1.190409779548645, 0.771984338760376, -1.2891534566879272, -0.08562400192022324, 0.8197937607765198, 1.024104356765747, -0.8663228154182434, -0.6183565258979797, -1.7908930778503418, 1.4274473190307617, -2.1335647106170654, 0.4285595715045929, -0.6617225408554077, 1.3693230152130127, -0.08345753699541092, 1.000118374824524, 0.08831433951854706, -4.972777366638184, -0.2445371299982071, -3.1057791709899902, -0.2579527795314789, -1.550121545791626, -1.1325833797454834, -0.6450793743133545, -0.17860043048858643, -1.8077690601348877, 2.2060184478759766, 0.13542824983596802, 1.6759134531021118, 0.20726889371871948, -0.8328778743743896, 0.42626431584358215, -1.1415486335754395, 2.093388080596924, -0.6022992134094238, 0.474768728017807, 0.7852235436439514, 0.9205651879310608, -0.5700166821479797, 1.527787208557129, 1.7461687326431274, -1.4948513507843018, -0.12951506674289703, 1.5763128995895386, 2.7136945724487305, -0.9682268500328064, -0.17054815590381622, -0.9104976654052734, -0.6534971594810486, 2.6234803199768066, 1.4778977632522583, -2.6941356658935547, -2.32277774810791, -1.5435560941696167, -0.9140088558197021, 0.4565345346927643, 2.7880070209503174, -1.500219702720642, -0.9766960144042969, -0.5617831945419312, -0.40856876969337463, -0.09127682447433472, -1.213726282119751, -1.7808856964111328, 1.3726404905319214, -1.5360585451126099, 0.8106833696365356, -1.2847464084625244, 0.7066534161567688, -0.7366559505462646, -0.38196200132369995, -0.4663410782814026, 0.6035794019699097, 1.2352077960968018, -0.6013016700744629, 0.21841919422149658, 0.7929279208183289, -1.8656736612319946, -0.28672024607658386, 0.37027448415756226, 1.3221098184585571, 0.5347377061843872, 1.2397189140319824, -1.48381507396698, -0.6711754202842712, -0.8116492629051208, 3.74159836769104, -0.4491077661514282, 0.28303372859954834, -0.6214752197265625, -0.06912538409233093, 0.6616535186767578, 0.16630369424819946, 1.9950017929077148, 0.09493415057659149, 2.051542043685913, 0.19315798580646515, -0.13922102749347687, -0.6160204410552979, -0.28674381971359253], [0.004184523597359657, -0.0243179053068161, -0.021894443780183792, -0.0145863713696599, -0.042548879981040955, -0.017773447558283806, -0.029201362282037735, -0.0007325708866119385, 0.02607591077685356, -0.0026334032882004976, 0.004788643680512905, -0.022924112156033516, -0.013157796114683151, -0.01269480586051941, 0.007054615765810013, -0.01717265322804451, 0.05330600589513779, 0.022565854713320732, -0.013987763784825802, -0.03909314423799515, -0.002165814395993948, 0.004217927344143391, -0.030838672071695328, 0.0397542305290699, -0.03390157222747803, -0.015500626526772976, 0.041068948805332184, -0.013294204138219357, -0.017124490812420845, -0.021938323974609375, 0.0015397740062326193, 0.03311865031719208, 0.0467156358063221, 0.01788409799337387, 0.04817785322666168, -0.034145232290029526, 0.01563926413655281, 0.030805284157395363, 0.014153337106108665, -0.04154769331216812, -0.012133796699345112, 0.014367093332111835, 0.06422986090183258, -0.0019014901481568813, -0.024013692513108253, -0.013470055535435677, -0.01857566460967064, -0.044876087456941605, 0.014928446151316166, 0.017678601667284966, -0.002036442281678319, -0.027437064796686172, -0.01692323386669159, -0.03296836465597153, -0.003814781317487359, -0.03662995994091034, -0.026660799980163574, 0.032375868409872055, 0.019883718341588974, 0.04338987171649933, -0.03234048932790756, -0.0004439340264070779, 0.007570568937808275, 0.01149460393935442, -0.016782652586698532, 0.026760926470160484, -0.015813153237104416, -0.01015966385602951, -0.042678266763687134, 0.024595262482762337, 0.009628233499825, 0.025929922237992287, -0.005575306247919798, 0.03879793360829353, 0.032273370772600174, 0.015051632188260555, -0.011727861128747463, -0.020167138427495956, 0.020662611350417137, -0.0030649397522211075, 0.006549533922225237, -0.0003763314161915332, 0.0053002904169261456, -0.059389881789684296, 0.043581392616033554, -0.0087067149579525, -0.006438796874135733, -0.040511369705200195, 0.02153858169913292, -0.008112454786896706, -0.007408031262457371, -0.0381455160677433, 0.0073970770463347435, -0.02100648544728756, -0.011240842752158642, 0.016426078975200653, 0.023109164088964462, 0.004800604656338692, -0.013622291386127472, -0.004834346938878298, -0.011040127836167812, 0.022633075714111328, 0.015806887298822403, 0.02267855405807495, 0.014693019911646843, 0.040671076625585556, 0.022735435515642166, -0.007533558178693056, 0.04422324150800705, 0.035180673003196716, -0.0048341997899115086, 0.002371804090216756, -0.03086474910378456, 0.022656112909317017, -0.0011533253127709031, -0.021541357040405273, 0.039428357034921646, 0.009942108765244484, 0.012973451986908913, -0.013829431496560574, 0.032550208270549774, 0.002013198100030422, -0.06094594672322273, 0.0030163945630192757, -0.008506390266120434, -0.021521752700209618, 0.02952161803841591, 0.008129875175654888, -0.012740518897771835, 0.00046216577175073326, 0.04275473207235336, 0.02738083153963089, -0.01313100103288889, -0.012904074043035507, 0.016146890819072723, 0.01343805156648159, 0.009266900829970837, -0.006832508370280266, -0.008459904231131077, -0.029808472841978073, -0.013740785419940948, -0.01535958144813776, -0.009133495390415192, -0.030540132895112038, -0.0004587487783282995, 0.023913439363241196, 0.022115135565400124, -0.008380028419196606, -0.014083831571042538, 0.011975477449595928, 0.020894855260849, 0.02270526811480522], [-0.03136807307600975, -0.06021017208695412, 0.09483034908771515, -0.04776594787836075, -0.07988512516021729, 0.004702504258602858, -0.07621864229440689, 0.012691617012023926, 0.00732869328930974, -0.03614294156432152, 0.004622828681021929, 0.03860621154308319, 0.0612778402864933, -0.024245861917734146, -0.04087338224053383, -0.014687071554362774, 0.04864063486456871, -0.0556529201567173, -0.0036294572055339813, -0.005475410260260105, -0.05999032035470009, -0.09882619231939316, 0.0507240854203701, -0.03168525919318199, -0.003984546754509211, -0.11402197927236557, -0.009711154736578465, -0.023334000259637833, -0.17454078793525696, 0.055508099496364594, 0.08027154952287674, 0.03953475505113602, -0.015016051009297371, 0.0600455142557621, 0.07523184269666672, -0.01176289189606905, -0.037510789930820465, 0.047817472368478775, 0.030867356806993484, 0.019452400505542755, 0.021671487018465996, -0.012991378083825111, 0.03431251645088196, 0.002859120024368167, 0.07487143576145172, -0.08005397021770477, -0.04823707416653633, -0.006599359214305878, 0.006404566578567028, 0.009793849661946297, 0.02355383336544037, 0.05711834132671356, 0.022775374352931976, 0.018322329968214035, 0.033164359629154205, 0.030988013371825218, -0.012017815373837948, 0.042598746716976166, 0.007009642198681831, -0.06069181114435196, -0.022307705134153366, -0.035235874354839325, -0.028817452490329742, -0.010902577079832554, -0.03569456934928894, -0.008380942046642303, -0.0004155802889727056, -0.05246049165725708, -0.015048029832541943, -0.014410356990993023, -0.027916761115193367, -0.040179360657930374, -0.011042950674891472, 0.08313935995101929, 0.07861544191837311, 0.01018565520644188, 0.016927486285567284, 0.0044235060922801495, -0.0782298594713211, 0.05028337612748146, -0.030720742419362068, -0.03306088224053383, 0.07375884801149368, -0.05498507246375084, -0.08147447556257248, 0.023066788911819458, -0.01789712905883789, 0.04085187613964081, 0.10607113689184189, -0.0016242028214037418, -0.025830432772636414, 0.010507128201425076, 0.08785174787044525, -0.08715043216943741, 0.004105076193809509, 0.0766981765627861, -0.04121064022183418, 0.031011145561933517, 0.015281853266060352, 0.04282596334815025, -0.044131722301244736, 0.03721531480550766, 0.001417142222635448, 0.057531751692295074, 0.02439708262681961, 0.09412479400634766, 0.04143830016255379, 0.07050354778766632, 0.025582801550626755, -0.11564791202545166, -0.046392910182476044, -0.010289548896253109, -0.04149676859378815, -0.047276463359594345, -0.08273116499185562, 0.02936794050037861, -0.07196898758411407, -0.022706128656864166, 0.03173474594950676, 0.0038703177124261856, 0.06398133188486099, 0.015440298244357109, 0.013233784586191177, 0.007945387624204159, -0.0013802642934024334, -0.046804822981357574, -0.07480722665786743, -0.03650454431772232, -0.013156043365597725, 0.02278326451778412, 0.01574696972966194, -0.033896103501319885, 0.07706879079341888, 0.020975353196263313, -0.07382012158632278, 0.05129217356443405, 0.04776787385344505, 0.0029488778673112392, 0.00849228072911501, 0.03150124475359917, 0.03402281925082207, -0.004303818102926016, -0.07063012570142746, 0.001204854459501803, 0.0017966644372791052, -0.008107705041766167, -0.005763141438364983, -0.011063299141824245, 0.005815532524138689, -0.03685273975133896, -0.021455446258187294, 0.01604859158396721], [0.1613399237394333, -0.908639669418335, 0.2519875168800354, 0.4901657700538635, 0.44702422618865967, -0.11151324957609177, 0.14709420502185822, -0.0028981296345591545, -0.2103651911020279, 0.7208245992660522, -0.36972302198410034, 0.11375617980957031, -0.39966392517089844, 0.14654771983623505, -0.6811695694923401, 0.1972779482603073, 