{"embedding_instance.weight": [[0.46994003653526306, 0.29749906063079834, 0.2802651822566986, -0.5280795693397522, -0.08597003668546677, -0.3907471001148224, 0.23077799379825592, 0.2632119953632355, 0.8254433274269104, 0.4310164749622345, -0.2481810301542282, -0.0606413260102272, 0.010727914050221443, -1.1451008319854736, -0.39807114005088806, -0.36837390065193176, 0.23424753546714783, 0.5085994005203247, 0.21229785680770874, 0.005702766589820385, 0.27784380316734314, 0.7549962401390076, -1.0283703804016113, 0.1473459154367447, 1.0728925466537476, -0.9376270771026611, 0.8089223504066467, 0.9335246086120605, 0.11330486088991165, -0.18047687411308289, 0.5521149635314941, 0.7086882591247559, 0.46478787064552307, 0.3669776916503906, -0.3040115237236023, 0.052126094698905945, 0.051960986107587814, 0.3311885893344879, 0.6678236722946167, -0.4299694299697876, -2.1074581146240234, 0.8483375310897827, -0.20307184755802155, 0.07552510499954224, -0.29849305748939514, -0.5856648683547974, 0.3643035888671875, 0.22967161238193512, 0.2580457031726837, -0.1482226848602295, -0.3222881853580475, -0.6037355065345764], [-0.5998586416244507, -0.6485178470611572, 0.18812185525894165, 1.0073927640914917, 0.2287079244852066, 0.617397129535675, -0.28074076771736145, -0.5104221105575562, 0.4022109806537628, -0.44870057702064514, -0.5848667025566101, -0.7310308814048767, -0.04887884855270386, -0.08905300498008728, 0.12653832137584686, -0.24943986535072327, -0.8044371008872986, -0.4698445796966553, 0.04666135460138321, -0.13802304863929749, 1.5939030647277832, -0.37480559945106506, 0.7198940515518188, -0.23247934877872467, 0.3176485598087311, -0.941637396812439, -0.03088107332587242, 0.20511044561862946, 0.45338529348373413, -0.04467742517590523, 0.7933552861213684, -0.2936060130596161, -0.24489296972751617, 0.8666807413101196, -0.10230962932109833, -0.9411173462867737, 0.10398472845554352, 0.004671586211770773, 0.7123159766197205, 0.41187378764152527, -1.1261341571807861, -0.023779725655913353, 0.15265923738479614, 0.5992346405982971, 0.630258321762085, 1.0444570779800415, 0.062201716005802155, -0.3824099898338318, 0.3737625479698181, 0.6127515435218811, -0.19040514528751373, -0.4566830098628998], [0.1634451448917389, 0.12616214156150818, -0.1318746656179428, -0.11852281540632248, -0.3140188455581665, -0.4345396161079407, 0.3900269567966461, -0.3026012182235718, 0.5281026363372803, -0.5118137001991272, -0.5562108755111694, -0.031013069674372673, 0.36052390933036804, 0.5045204758644104, 0.17617087066173553, 0.13873325288295746, 0.0368153378367424, 0.05997457355260849, -0.2846726179122925, 1.043271541595459, 0.058482345193624496, -0.11497250944375992, -0.07578550279140472, -0.19696767628192902, -0.32685381174087524, -0.17528404295444489, 0.009595380164682865, -0.02010185644030571, -0.015647660940885544, -0.029988037422299385, 0.5913917422294617, -0.18861760199069977, -0.3715192973613739, -0.6191891431808472, 0.28553974628448486, 0.4329773485660553, -0.43395987153053284, 0.31310760974884033, -0.23420052230358124, -0.7308847904205322, -0.19545260071754456, -0.02778271958231926, 0.23288074135780334, 0.07278688251972198, 0.24341918528079987, 0.19281324744224548, 0.2679543197154999, 0.025935238227248192, -0.007919245399534702, 0.06198682263493538, -0.051080334931612015, 0.03430059924721718], [0.044630926102399826, -0.07581271976232529, -0.22296598553657532, 0.03629540652036667, 0.07371337711811066, -0.34080374240875244, 0.0728980079293251, 0.5081297159194946, -0.028213920071721077, 1.1908767223358154, -0.13972750306129456, -0.5433940887451172, -0.3777494430541992, 0.5226812958717346, 0.43310433626174927, 0.1647862046957016, -0.17837125062942505, -0.34318265318870544, 0.16119293868541718, -0.1006842777132988, 0.373925119638443, -0.14230313897132874, -1.0516663789749146, 0.5406489968299866, -0.6897941827774048, 0.9194650650024414, 0.5332021713256836, 0.404873251914978, 1.292636752128601, 1.2448641061782837, -0.7950802445411682, 0.7877881526947021, 0.8820659518241882, -1.2563506364822388, -0.8189865350723267, 0.45012784004211426, 0.2229761928319931, -0.6256622672080994, 0.291996568441391, -1.9621436595916748, 0.20237495005130768, -0.4011269807815552, -0.12509450316429138, 0.7114410996437073, 0.22724950313568115, 0.6486902832984924, -0.039857376366853714, -0.28704583644866943, 0.22377502918243408, -0.8903861045837402, -0.6687964797019958, -0.29163509607315063], [0.016140583902597427, 0.9272387027740479, 0.852140486240387, 0.18171508610248566, -0.3725270628929138, -0.12074373662471771, -0.12675753235816956, 0.06752430647611618, -0.4140223264694214, 0.35507965087890625, -0.1382351666688919, 0.6338262557983398, 0.6622786521911621, 0.0776025578379631, -0.11361014097929001, 0.20334690809249878, -0.09438307583332062, -0.19625212252140045, 0.02055971510708332, 0.21294613182544708, -0.6096017956733704, 0.631637454032898, -0.1521649807691574, 0.5272413492202759, -0.19276148080825806, -0.21551525592803955, 0.15012827515602112, -0.08107548952102661, -0.5957658886909485, -0.06680778414011002, 0.0878748893737793, 0.16618533432483673, 0.984428882598877, 0.4772937595844269, -0.35876551270484924, 0.4878925681114197, -0.6078336238861084, -0.6543155312538147, -0.2591671943664551, 0.43961194157600403, 1.8554461002349854, 0.14606772363185883, -0.09185177832841873, 0.07936567813158035, -0.15782935917377472, -0.1299096941947937, 0.054423101246356964, -0.5142236351966858, -0.5901055932044983, -0.6520711183547974, -0.6640892028808594, -0.20709970593452454], [0.4163585305213928, 0.614163339138031, -0.14836522936820984, 0.08518879860639572, 0.6209034323692322, 0.47658270597457886, 0.16960009932518005, 0.6411513090133667, -0.6360865235328674, -0.1123659685254097, 0.9373394250869751, 0.6615439057350159, -0.0038235634565353394, 0.46029192209243774, 0.28061673045158386, 0.8103646636009216, -0.4934242367744446, 0.6125262379646301, 0.08489089459180832, -0.6512579917907715, 0.90885329246521, -0.8749982714653015, -0.11624844372272491, 0.6492670178413391, -0.6717305183410645, -0.09117908030748367, -0.9972255229949951, -0.2803589403629303, 0.3363288342952728, 0.30295082926750183, -0.8960205912590027, -0.07587679475545883, 0.25560250878334045, 0.28231939673423767, 0.23026703298091888, -0.7123476266860962, -0.030501581728458405, 0.12188383936882019, -0.7590935826301575, -0.6667542457580566, 0.5405749678611755, 0.1252211481332779, 0.29036420583724976, -0.4377978444099426, -0.10278923064470291, -0.40107136964797974, -0.669486939907074, 0.12061154842376709, 0.1946786642074585, 0.3295395076274872, -0.5312827825546265, -0.8226852416992188], [0.06811191886663437, -0.9355786442756653, 0.46671363711357117, 0.42982378602027893, -0.3056672513484955, 0.22323518991470337, -0.2988629639148712, 0.3861556649208069, 0.721507728099823, 0.008207682520151138, -0.45716729760169983, 0.12631264328956604, 0.3698199689388275, -0.5820584893226624, -0.49728724360466003, -0.3407735824584961, -0.42820537090301514, 0.4974440038204193, 0.2668862044811249, 0.3134753108024597, -0.7118803858757019, 0.018510956317186356, 0.07567101716995239, -0.054743584245443344, -0.6547119617462158, -0.20147541165351868, 1.4177614450454712, -0.23281972110271454, -0.22808538377285004, 0.5391495227813721, -0.3084958493709564, -0.10137954354286194, 0.22214370965957642, -0.07877910137176514, 0.8102308511734009, -0.6586400866508484, -0.6025274991989136, 0.2560918629169464, -0.06925945729017258, 0.413640558719635, -1.0003443956375122, 0.09634080529212952, 0.42019861936569214, -0.6949194073677063, 0.7415781021118164, 0.2613019347190857, -1.5860295295715332, 0.44824710488319397, -0.7537790536880493, -0.19313393533229828, 0.2695601284503937, 0.4000336229801178], [-0.6519744992256165, -0.23144695162773132, 0.6694220900535583, -0.3570117950439453, -0.7667007446289062, 0.4180569052696228, 0.12935200333595276, -0.46921974420547485, 0.7300308346748352, -0.8183168172836304, -0.68477863073349, -0.6012841463088989, 0.005488620139658451, 0.20933599770069122, -0.4622769355773926, 0.26472941040992737, -0.4473772943019867, 0.11101590842008591, 0.056806501001119614, -0.9205676913261414, 0.14696578681468964, 0.1296875923871994, -1.1134732961654663, 0.4918367266654968, 0.6214075088500977, 0.7305779457092285, 0.2890143096446991, 0.7059361338615417, -0.41672948002815247, 0.2799254059791565, 0.2418992519378662, -0.16463053226470947, 0.48477837443351746, -0.4020116627216339, 0.26916053891181946, -0.2601446807384491, 0.21026451885700226, 0.1962232142686844, -0.1672011911869049, -0.24484780430793762, 0.36021390557289124, -0.2188272774219513, 0.20578038692474365, -0.20521022379398346, 0.2650386393070221, -0.28819581866264343, 0.45302465558052063, 0.44016098976135254, 0.41791632771492004, 1.2484499216079712, -0.6592023372650146, 0.2953914701938629], [-0.4078066349029541, -0.3479659855365753, 0.3795802891254425, 0.2660370171070099, -0.4481807053089142, -0.6289342045783997, 0.35296139121055603, 0.09436848014593124, -0.45451050996780396, -0.2322966605424881, -0.04274643957614899, -0.6830080151557922, 0.3074565529823303, 0.22557534277439117, -0.28628644347190857, -0.6738205552101135, -0.054911624640226364, 0.20366956293582916, -0.7114176154136658, -0.29607221484184265, 0.3273988366127014, -1.219329595565796, -0.2861879765987396, 0.2028340846300125, 0.5717821717262268, -0.3846448063850403, 0.05465953052043915, 0.25000235438346863, -0.10421282052993774, 0.49256667494773865, -0.036921970546245575, 0.6171668171882629, 0.08182656764984131, -0.3708811104297638, 0.15615886449813843, -0.7674350142478943, 0.4385015368461609, 0.3319268524646759, -0.5093868970870972, -0.6428695321083069, -0.9817994236946106, -0.010216070339083672, 0.4179759919643402, 0.3896176218986511, -0.4278232157230377, 0.2000226527452469, 0.14551259577274323, 0.4272752106189728, 0.6640220880508423, 0.1869269460439682, 1.0271880626678467, -0.7151910662651062], [0.19684235751628876, 0.1208912804722786, -0.062024571001529694, -0.036649562418460846, 0.04248517006635666, 0.15600711107254028, 0.07260438054800034, 0.3042912781238556, 0.07322654128074646, -0.33269667625427246, 0.2325364053249359, 0.2440372258424759, 0.5008856058120728, 0.45516178011894226, -0.1492520421743393, -0.44722649455070496, -0.4808177053928375, 0.5215292572975159, 0.09939824044704437, 0.32072287797927856, 0.021903859451413155, -0.29512128233909607, -0.22650955617427826, -0.5098221302032471, -0.22250883281230927, 0.9626608490943909, 0.7129777669906616, -0.6277182102203369, -0.2264268845319748, -0.8784487843513489, -0.8482996821403503, -0.5812550783157349, -0.8123595118522644, -0.5649787783622742, 0.4324225187301636, 0.3191622197628021, -0.1316906064748764, -1.151368260383606, -0.6662224531173706, -0.18392854928970337, -0.0844021588563919, -0.5600274801254272, 0.3386889100074768, 0.25142398476600647, 0.0804227665066719, 0.13081809878349304, -0.5971572995185852, -0.7740198969841003, 0.6947716474533081, 0.08336552232503891, 0.30531230568885803, -0.40655821561813354], [-0.2747756838798523, 0.31487488746643066, 0.6785616874694824, 0.5020648837089539, -0.01791292428970337, -0.5480580925941467, 0.4972843527793884, -0.12263298034667969, -0.052163805812597275, 0.13020531833171844, -0.005070781335234642, 0.15276791155338287, -0.2859153747558594, -0.4624217748641968, -0.03195548430085182, 0.6302838921546936, 0.2569173574447632, -0.07939691096544266, 0.3858383297920227, 0.012497495859861374, -0.5670446753501892, -0.694612443447113, 0.12594974040985107, 0.1497168391942978, -0.014560586772859097, -0.04752996563911438, -0.242767333984375, 0.9796814918518066, 0.4101586937904358, -0.15495207905769348, -0.15714576840400696, -0.7277979850769043, -0.9844590425491333, -0.09165547043085098, -0.4806705415248871, -0.3332875370979309, -1.1967988014221191, -0.0691761001944542, 0.18490326404571533, -0.34513452649116516, 0.4447970688343048, 0.271610289812088, 0.17098256945610046, 0.04623686894774437, -0.10070789605379105, -0.01711449772119522, 0.029281847178936005, 0.14747115969657898, -0.8275471329689026, -0.2786066234111786, 0.14313742518424988, 0.09305622428655624], [-0.31047412753105164, -0.0553959421813488, 0.5667829513549805, -0.1742776334285736, -0.38193976879119873, 0.06526575982570648, 0.40825578570365906, -0.1800236701965332, -0.7938459515571594, 0.09012259542942047, 0.14821401238441467, -0.32416480779647827, 0.05923435837030411, -0.2633551359176636, -0.5461963415145874, -0.38547182083129883, 0.031540900468826294, -0.8319222331047058, -0.15803615748882294, -0.0680404081940651, -0.8870956897735596, -0.97319495677948, -0.16445669531822205, -0.4981568157672882, -0.10536905378103256, 0.5779514908790588, -0.29456257820129395, 0.3230547606945038, -0.28414803743362427, -0.10143640637397766, -0.12026263028383255, 0.21564394235610962, -0.9238205552101135, 0.7433947920799255, 0.720506489276886, 0.521443784236908, -0.5551000833511353, 0.8498507738113403, 1.659101963043213, -0.4992111623287201, -0.04967532679438591, 0.5451679229736328, 0.5755068063735962, 0.16157843172550201, 0.26224079728126526, 0.32700687646865845, -0.5073444247245789, 0.08883876353502274, -0.13899126648902893, 0.4421880543231964, -0.007170753087848425, -0.09174644201993942], [-0.04244236648082733, 0.01906886138021946, 0.013540931046009064, 0.04282408580183983, 0.10895677655935287, 0.0934569463133812, -0.09972294420003891, -0.05224493145942688, -0.10139032453298569, 0.0964474007487297, 0.02508375234901905, -0.012436346150934696, -0.009143895469605923, -0.012742924503982067, -0.11099504679441452, -0.095587819814682, 0.12476403266191483, 0.04634258896112442, 0.09306467324495316, -0.11088265478610992, 0.0035811271518468857, 0.005190875846892595, -0.03051781840622425, -0.010943182744085789, -0.012783863581717014, -0.007656672969460487, 0.007033062633126974, 6.245714757824317e-05, 0.003054200205951929, -0.00039070393540896475, 0.04185474291443825, 0.00379705848172307, -0.006082224193960428, -0.01925777643918991, 0.042848315089941025, 0.036754824221134186, -0.036229878664016724, 0.007057306822389364, -1.1159487257828005e-05, 0.04162920266389847, -0.00792417861521244, -0.005582399200648069, -0.002288756426423788, 0.02003748156130314, 0.013460920192301273, 0.024384405463933945, 0.010949993506073952, -0.003219436388462782, 0.009910129010677338, 0.012934299185872078, -0.004565120674669743, -0.00644339295104146], [-0.02675243280827999, -0.010433501563966274, -0.0068942708894610405, -0.12129417061805725, -0.043337151408195496, 0.026354385539889336, 0.005424405448138714, 0.005343036726117134, 0.0613868422806263, 0.12101038545370102, 0.033401526510715485, 0.012854145839810371, 0.017877912148833275, 0.1081523671746254, 0.04977492615580559, -0.022869301959872246, -0.004898597486317158, 0.0015815236838534474, -0.043160583823919296, -0.09329568594694138, -0.007185852620750666, -0.006874416954815388, 0.0022356025874614716, -0.0024850897025316954, -0.012876597233116627, -0.0019672606140375137, -0.004229280166327953, 0.009318344295024872, -0.020644141361117363, -0.00800357386469841, -0.025162456557154655, -0.007732711266726255, -0.011239656247198582, -0.0028673959895968437, -0.02048856019973755, -0.020357908681035042, 0.013877490535378456, -0.001427860464900732, -0.00825777743011713, -0.01634545810520649, -0.01567537896335125, -0.01070857048034668, 0.008055536076426506, 0.00866424385458231, -0.001526534091681242, 0.002434719819575548, -0.00017836588085629046, -0.004412301816046238, -0.01911752298474312, 0.0077112033031880856, 0.0046712919138371944, -0.004231126047670841], [-0.8727644085884094, 0.8195515871047974, -0.7279548645019531, -0.39049381017684937, -0.09786823391914368, -0.07141414284706116, 0.10236755758523941, 0.1792001873254776, 0.059628985822200775, 0.4640272259712219, -0.49380379915237427, 0.9316093325614929, -0.8267092704772949, -0.14496789872646332, 0.08287739008665085, 0.12169394642114639, 0.4768470525741577, 0.029097052291035652, 0.009580987505614758, 0.4073330760002136, 0.3452361822128296, 0.07496335357427597, 0.478191614151001, 0.033393677324056625, -0.07241331040859222, 0.8516561388969421, -0.04974575713276863, 0.6340757608413696, -1.2146687507629395, -0.06639048457145691, 0.2991252839565277, -0.9109600186347961, 0.35349240899086, -0.1770506203174591, -0.6663811206817627, 0.3667100667953491, -0.34518998861312866, -0.07905159145593643, 0.5688663721084595, -0.2328357845544815, -0.7089359760284424, 0.596588134765625, -0.45744529366493225, -1.5379830598831177, -0.8631224632263184, 0.22225643694400787, -0.3914714455604553, 1.5379526615142822, 0.5577771067619324, 0.2224704623222351, 0.35486623644828796, 0.18920019268989563], [-0.4109879732131958, 0.15271878242492676, -0.5107280015945435, -0.10075035691261292, 0.4664502739906311, -0.43576082587242126, -0.5637957453727722, 0.23346449434757233, 0.49605464935302734, 0.06505358219146729, -0.7888572812080383, -0.2670048475265503, -0.07588603347539902, -0.41857969760894775, 0.4565027058124542, -0.5067217946052551, -0.7225929498672485, 0.089031882584095, -0.4372166693210602, 0.7210210561752319, -0.7786601781845093, 0.2812027633190155, 0.5177658200263977, 0.16447460651397705, 0.18378473818302155, -0.13821741938591003, -0.3858245015144348, 1.282899022102356, 0.28907930850982666, 0.8982541561126709, -0.253545343875885, -0.3541002571582794, 0.31392714381217957, 0.5930488109588623, 0.8641030192375183, 0.4444747269153595, 0.19550761580467224, 0.8507518172264099, -0.5533677935600281, -1.4928680658340454, -0.57945317029953, 0.17091751098632812, -0.2379554808139801, 0.2885674238204956, 0.8480437397956848, 0.009539565071463585, 0.4157991111278534, -0.9187711477279663, 0.6042892336845398, -0.7556679844856262, 0.8956717848777771, 0.3942664861679077], [-0.188113272190094, -0.02068137377500534, 0.072377048432827, 0.047104962170124054, 0.023968195542693138, 0.05721168592572212, 0.04980224743485451, -0.16647599637508392, -0.030590146780014038, -0.02518138289451599, 0.1680743247270584, 0.00811672117561102, -0.08189129084348679, -0.051778797060251236, -0.026167433708906174, -0.08848767727613449, -0.034272052347660065, 0.11451239138841629, -0.022923829033970833, 0.016065049916505814, 0.026675550267100334, 0.0057383449748158455, -0.0029475006740540266, -0.0010783239267766476, 0.00013106311962474138, 0.006533748470246792, 0.0024900624994188547, 0.003039452014490962, 0.009318895637989044, 0.009830387309193611, 0.0035133245401084423, 0.010670523159205914, 0.019516877830028534, -0.006381439045071602, 0.006853345315903425, 0.02841680683195591, -0.006934797391295433, 0.03460044413805008, 0.042395733296871185, 0.02117672935128212, -0.012675532139837742, -0.01619471237063408, -0.004374018404632807, -0.007483729626983404, 0.0014436193741858006, 0.01446791272610426, -0.010452089831233025, -0.007753882557153702, 0.0002322129439562559, -0.016131406649947166, -0.019483888521790504, -0.010242056101560593], [0.2052914798259735, 0.04555033892393112, -0.4501432180404663, -0.9956229329109192, 0.020341234281659126, -0.15182600915431976, -0.19306491315364838, -0.38207700848579407, -0.23918931186199188, 0.5540651679039001, -0.38324886560440063, -0.012901714071631432, 0.26006168127059937, -0.18544624745845795, -0.7401264309883118, -0.3202434182167053, 0.9814223051071167, -0.04976873844861984, -0.025121187791228294, 0.14623966813087463, -0.13428524136543274, 0.2939269244670868, 0.2040688544511795, -1.2806614637374878, 0.450910359621048, 0.18788640201091766, 0.08712710440158844, -0.872606635093689, -0.025853805243968964, 0.7805823087692261, 0.118771992623806, -0.4056868553161621, 0.699747622013092, 1.603988766670227, 0.15464356541633606, 0.5553801655769348, -0.7604643106460571, 0.307478129863739, 0.10252294689416885, -0.820941686630249, -0.19243478775024414, 0.5406380891799927, -0.579171895980835, -0.07899727672338486, 0.9049233198165894, -0.4494706094264984, -0.19065329432487488, -0.15005044639110565, 0.36474668979644775, -0.0304454043507576, -0.6588878035545349, 0.009372723288834095], [-0.0261674914509058, -0.011768464930355549, -0.03680199757218361, -0.04911227524280548, -0.017089810222387314, 0.03857169672846794, 0.04168158024549484, 0.05507034808397293, -0.0039553395472466946, 0.10285698622465134, 0.022403590381145477, 0.011273742653429508, 0.03483913093805313, 0.040853895246982574, 0.018141107633709908, -0.02541346102952957, -0.05457506328821182, -0.036613430827856064, 0.014179109595716, -0.08797609806060791, 0.002148338360711932, 0.002846172545105219, 0.0034226777497678995, 0.000471361301606521, 0.006031451281160116, 0.004196199122816324, 0.00468868063762784, 0.003981522284448147, -0.006425242871046066, -0.004111629910767078, -0.009719434194266796, -0.0039459820836782455, -0.01126720942556858, -0.002802529837936163, -0.003971520345658064, -0.01896294392645359, 0.01770670711994171, -0.009956606663763523, -0.024108294397592545, -0.015940910205245018, 0.0037597904447466135, 0.0076712677255272865, 0.0023510989267379045, -0.0005102475406602025, -0.005925153847783804, -0.004549413453787565, -0.011240247637033463, -0.004890721756964922, -0.017620647326111794, 0.0006192703149281442, 0.0033382053952664137, 0.005350953433662653], [0.5224098563194275, 0.4338203966617584, -0.3693983256816864, -0.022880258038640022, 0.1270075887441635, -0.09272854775190353, -0.2785581946372986, -0.5254076719284058, -0.005506053101271391, -0.30994802713394165, 0.4798845946788788, 0.4142053425312042, -0.5094202756881714, 0.33066192269325256, -0.12245427817106247, 0.23992256820201874, -0.7065784931182861, 0.12239021062850952, 0.2786202132701874, -0.577440619468689, -0.6707704663276672, -0.9764023423194885, 0.004618294537067413, -0.32155895233154297, 0.24418242275714874, -0.8709152936935425, 1.3535683155059814, 1.2710734605789185, -0.7146454453468323, 0.3431582450866699, -1.0167657136917114, 0.9209491610527039, 0.30453619360923767, -0.2996257543563843, -0.011488024145364761, 1.3345394134521484, 0.3679341971874237, 0.016662906855344772, -0.6836323738098145, 0.07954709231853485, -0.08075015246868134, 0.20780222117900848, 0.2710173726081848, 0.38973820209503174, 1.0895391702651978, -0.0679546371102333, 0.16174127161502838, 0.5524455904960632, -0.46225979924201965, 0.6245107650756836, -0.6971759796142578, -0.2783271372318268], [-0.032073065638542175, 0.0933443084359169, 0.05008915066719055, 0.05258655548095703, 0.05042528733611107, -0.053609270602464676, 0.07718393951654434, -0.02882561646401882, -0.09174005687236786, -0.10593464225530624, 0.030297663062810898, -0.09074334800243378, -0.06030939891934395, -0.06666643917560577, -0.05935105308890343, 0.031243281438946724, -0.0737018957734108, 0.007673954591155052, 0.06611409038305283, 0.08714935928583145, 0.004147747997194529, -0.005012097768485546, 0.002763847354799509, 0.00819013174623251, 0.00536213768646121, -6.822394789196551e-05, -0.004032502882182598, -0.006735038012266159, 0.01643182709813118, 0.009979802183806896, -0.019152088090777397, -0.006458587013185024, 0.008824844844639301, 0.011877286247909069, 0.00927229318767786, 0.015973128378391266, -0.01125841774046421, -0.008733309805393219, 0.011488641612231731, 0.011947560124099255, 0.004275945480912924, -0.01370836328715086, -0.01223745010793209, -0.01270437240600586, -0.005423013120889664, -0.005805732682347298, 0.00471722986549139, -0.005509350448846817, 0.008235008455812931, -0.011453262530267239, -0.01058598980307579, -0.009076752699911594], [0.12822970747947693, 0.04532662406563759, -0.11994452774524689, -0.12839379906654358, 0.2565547823905945, -0.4237753748893738, 0.23477210104465485, -0.31321510672569275, -0.19315741956233978, -0.01740308851003647, -0.03859904408454895, -0.1525089293718338, -0.5054927468299866, -0.22817492485046387, 0.26177576184272766, 0.37329351902008057, 0.36337023973464966, -0.31232795119285583, -0.06304369866847992, -0.267600417137146, -0.029236560687422752, 0.625456690788269, -0.8686276078224182, 0.14446109533309937, -0.7618297338485718, 0.4386369585990906, -0.21198545396327972, -0.4436417818069458, -0.24871918559074402, -0.12473095953464508, -0.5986601710319519, 0.35645318031311035, 1.918355107307434, 0.6851163506507874, -0.49307429790496826, 0.12508311867713928, -1.1679693460464478, 0.7255232930183411, -0.04448218271136284, 0.5837781429290771, -0.5266739130020142, 0.03388582170009613, -0.6684588193893433, 0.9043382406234741, -0.033111754804849625, 0.7205594182014465, 0.2161843478679657, 0.09882984310388565, 0.34736713767051697, 0.9319584965705872, 0.10186441987752914, 0.01849406026303768], [-0.05242675170302391, 0.6288995146751404, 0.1775827705860138, 0.7576030492782593, 0.1708698570728302, -0.40149226784706116, -0.002201107330620289, -0.17559397220611572, 0.356861412525177, -0.519344687461853, 0.548978328704834, 0.517109215259552, -0.4872277081012726, 0.26211029291152954, -0.031146923080086708, 0.47528162598609924, 0.24169987440109253, -0.6723806262016296, 0.01969621330499649, 0.36448878049850464, -0.4322708547115326, 1.161447286605835, 0.02278728038072586, -0.6728209853172302, 0.32370156049728394, 0.27146777510643005, 0.6339944005012512, 0.7874742746353149, 0.11650700122117996, -0.22533656656742096, -1.1835994720458984, -1.4825382232666016, 0.1843004673719406, -0.881856381893158, -0.005434398073703051, -0.025099163874983788, -0.2632467448711395, 1.1797089576721191, -0.17180666327476501, -0.14129020273685455, 0.2744852602481842, 0.3599483370780945, -0.6757243871688843, -0.07983316481113434, -0.21840903162956238, -0.38481277227401733, -0.613376796245575, -0.3414439857006073, -0.38433387875556946, -0.1557876169681549, 0.32282933592796326, -0.17713956534862518], [0.41625747084617615, -0.16222958266735077, 0.6203449368476868, -1.3432804346084595, 0.49311843514442444, 0.5601470470428467, 0.07882098853588104, 0.0984082743525505, -0.5380818247795105, 0.7635225057601929, 0.38639700412750244, -0.40441998839378357, 1.1125528812408447, -1.1655125617980957, 0.6511998176574707, 0.4676164984703064, -0.018104935064911842, 0.21734872460365295, -0.8067082166671753, 0.14737477898597717, -0.05530199036002159, -0.04720573127269745, -0.20366759598255157, -0.4375768303871155, 1.3240978717803955, -0.6210169196128845, -0.6045665144920349, 0.3676222264766693, 0.2424371987581253, 0.061650581657886505, 0.3540123701095581, -0.29307347536087036, 0.06506720185279846, -0.2720411717891693, 0.14466780424118042, 0.03872453048825264, -0.4459089934825897, -0.9574010372161865, -0.9481930732727051, -0.007253910414874554, -0.3834066390991211, -0.22215642035007477, -0.03599758446216583, 0.30915284156799316, -1.146849274635315, 0.46868976950645447, 0.2770913243293762, -0.7852838039398193, 0.46378058195114136, 0.14522545039653778, -0.4326156675815582, 0.09542347490787506], [-0.7319014072418213, -0.0983518660068512, -0.3314988315105438, 0.04105821251869202, 0.44019344449043274, 0.1750488132238388, 0.7033141255378723, 0.23968149721622467, 0.630309522151947, 0.6263481974601746, -0.39215633273124695, 0.02177787944674492, 0.11091598123311996, 0.3604845404624939, 0.6287969946861267, 0.38900530338287354, 0.22232753038406372, -0.5740803480148315, -0.6320123672485352, -0.8196607232093811, -0.8563265204429626, -0.2459406703710556, -0.9601575136184692, 0.3086789846420288, 0.4323524236679077, -0.5442034006118774, 0.194501131772995, -0.4118754267692566, -0.15115521848201752, 0.06906446069478989, 1.3209741115570068, 0.49873724579811096, 0.17765983939170837, -0.3970447778701782, -1.0555384159088135, -0.38195037841796875, -0.7379985451698303, 0.02134748175740242, 0.32938313484191895, -0.026215102523565292, -0.23344510793685913, 0.5342819690704346, 0.1703740507364273, 0.08613910526037216, 0.31265610456466675, -0.7337453365325928, -0.1650194376707077, -0.4531329572200775, 0.47811219096183777, -0.24647532403469086, -0.03331836685538292, -0.021305741742253304], [0.46729686856269836, -0.46216732263565063, -0.40821292996406555, 0.0768360048532486, -0.2955982983112335, 0.6188521981239319, 0.16407077014446259, 0.7124691605567932, -0.2175641655921936, 0.17691385746002197, 0.03959060460329056, -0.5966519117355347, 0.16675902903079987, 0.755731999874115, -0.21620342135429382, 0.5876363515853882, -0.5006248354911804, 0.6611838936805725, 0.279947966337204, 0.551415205001831, 0.24825763702392578, 0.6144469380378723, -0.3891785442829132, -0.6639007329940796, 0.0012657265178859234, 0.2033110111951828, 0.46943822503089905, 0.2331690788269043, 0.5509811043739319, -0.3808170557022095, 0.013960989192128181, 0.7915195226669312, 0.26805034279823303, 0.12486959248781204, -0.6984919905662537, -0.06344246864318848, -0.6131908297538757, 0.1984763890504837, 0.24438510835170746, -0.3194635808467865, 0.47911134362220764, -0.20403628051280975, -0.9131198525428772, -0.41061684489250183, 0.42229902744293213, -0.14300031960010529, 0.47383761405944824, -0.22246801853179932, -0.5989618301391602, -0.43926045298576355, -0.14082662761211395, 0.4680347442626953], [-0.03772600740194321, 0.03452245891094208, 0.07608682662248611, 0.02863367088139057, -0.0437539666891098, -0.17770154774188995, 0.05067430064082146, -0.09366393089294434, 0.0030781077221035957, -0.12186121195554733, 0.02298562042415142, -0.027087006717920303, -0.07289546728134155, -0.052849166095256805, 0.043271057307720184, 0.16316860914230347, -0.05304577574133873, 0.05663563683629036, -0.01788770966231823, 0.12578929960727692, 0.011246861889958382, -0.0032769881654530764, 0.00657724728807807, 0.007369795348495245, 0.0014300912152975798, 0.016425853595137596, -0.0038792516570538282, -0.004984945058822632, 0.02257830649614334, 0.016539238393306732, 0.0005100602866150439, -0.002542850561439991, 0.006776079069823027, 0.026619544252753258, -0.002310648560523987, 0.01356452889740467, 0.008430696092545986, 0.01052884105592966, 0.02617504447698593, -0.03445517644286156, -0.0022240907419472933, -0.01804305799305439, -0.005369245074689388, -0.006555359344929457, -0.0011697382433339953, 0.0026070913299918175, 0.0019022229826077819, 0.0013359076110646129, 0.0039042974822223186, -0.0068018389865756035, -0.011434290558099747, -0.0029359012842178345], [-0.527992844581604, 0.22465461492538452, 0.2808329463005066, -0.035817842930555344, 0.19212746620178223, 0.3599329888820648, -0.3829208314418793, 0.20675913989543915, 0.6218649744987488, 0.07173296064138412, -1.2502351999282837, 0.007735820487141609, -0.047687966376543045, 0.2518373429775238, -0.2357410043478012, 0.24702169001102448, -0.05912751704454422, -0.17156359553337097, 0.10252860933542252, 0.15719065070152283, -0.19959326088428497, -0.45070669054985046, -0.9588668942451477, 0.057447317987680435, 0.30278220772743225, 0.07164940237998962, 0.5420803427696228, -0.7438648343086243, 0.9225476980209351, 0.2165534496307373, -0.8437547087669373, 1.3637447357177734, -0.7887833118438721, 0.8397868871688843, -0.872860312461853, -0.49604344367980957, -0.1391887664794922, 1.4148476123809814, -0.5805874466896057, 0.1690317541360855, -0.5026792883872986, -0.1301824003458023, -0.1251888871192932, -0.09239723533391953, -0.020076464861631393, 1.0181461572647095, 1.3511760234832764, -0.688102126121521, -0.4230571389198303, -0.1301947385072708, 0.4454013407230377, -0.33232367038726807], [-0.04158905893564224, -0.012874355539679527, 0.023166436702013016, -0.0850735455751419, -0.01441703736782074, 0.032335635274648666, 0.061860427260398865, -0.020141353830695152, 0.0001995365892071277, 0.03939511626958847, 0.03968970477581024, 0.00993852037936449, -0.017391037195920944, 0.07893000543117523, 0.016277242451906204, -0.025742745026946068, -0.05700413137674332, 0.020991310477256775, 0.008770791813731194, -0.026082929223775864, 0.0025061252526938915, 0.0010711576323956251, 0.00845537893474102, -0.005048877559602261, -0.0013146762503311038, -0.0006389843765646219, 0.00021978803852107376, 0.01234318595379591, -0.005713440477848053, -0.00047848958638496697, -0.007739426102489233, 0.009901665151119232, 0.0012941081076860428, 0.005003246478736401, -0.007095664739608765, -0.008482073433697224, 0.02266889251768589, 0.008716456592082977, -0.011099886149168015, -0.0037042039912194014, -0.010859261266887188, 0.0028366786427795887, 0.012237200513482094, -0.0010696061654016376, -0.00206026085652411, 0.00010201396798947826, 0.0015248303534463048, -7.607144652865827e-05, -0.013785328716039658, 0.006688467226922512, 0.0023956666700541973, 0.0045656561851501465], [0.008435845375061035, -0.04148651659488678, 0.0211959145963192, -0.03460387513041496, -0.04398903623223305, -0.0312688834965229, -0.05382892116904259, -0.03242512792348862, 0.13339896500110626, 0.12439662963151932, -0.014936027117073536, 0.055659081786870956, 0.004152408801019192, 0.04504835605621338, 0.061180926859378815, 0.04721130430698395, 0.058331895619630814, 0.04526936635375023, -0.09218741208314896, -0.09398236870765686, -0.004271585959941149, -0.004812364000827074, -0.0034358578268438578, -0.002697659656405449, -0.005473408382385969, 0.008260834030807018, -0.0010028444230556488, 0.014304911717772484, 0.0027165941428393126, 0.0008688868256285787, 0.016207357868552208, -0.013837250880897045, -0.02244710922241211, 0.002044669119641185, -0.012710025534033775, 0.004968536552041769, 0.000998754403553903, 0.005389983765780926, -0.00780800636857748, -0.028301356360316277, -0.005413588136434555, -0.0010411253897473216, 0.01718522235751152, 0.015975207090377808, 0.011320081539452076, 0.005645810626447201, 0.010833083651959896, 0.007572996895760298, -0.010131239891052246, 0.010717533528804779, 0.005424426402896643, 0.0013501545181497931], [0.1670391708612442, 0.6751809120178223, 0.5833443999290466, -0.11416799575090408, 0.33438146114349365, 0.21074889600276947, 0.16848088800907135, 0.5565892457962036, -0.07754196226596832, 0.3355181813240051, 0.4341663718223572, 0.3856586217880249, 0.6767765283584595, -0.02833913080394268, 0.5804517865180969, 0.5787047743797302, 0.3779430091381073, 0.2385149896144867, 0.3076417148113251, 0.6251338720321655, -0.060712214559316635, 0.05135849490761757, -0.03922243416309357, -0.14083322882652283, 0.34343478083610535, -0.01702507957816124, 0.014847466722130775, -0.1652136892080307, -0.4161984324455261, -0.06442148983478546, 0.24548909068107605, 0.0375172384083271, 0.5029364824295044, 0.398624986410141, 0.10555756837129593, 0.4535861015319824, 0.051658399403095245, -0.021230733022093773, 0.3522677421569824, 0.3706369996070862, 1.9850376844406128, -0.19381773471832275, -0.1274263560771942, -0.37249520421028137, -0.6817403435707092, -0.4885678291320801, -0.07853102684020996, -0.389998197555542, 0.010826253332197666, 0.03251513093709946, -0.43557974696159363, -0.391777366399765], [0.026978226378560066, 0.10374274849891663, -0.043092817068099976, 0.05907529219985008, 0.018265657126903534, -0.01385856419801712, 0.09847541153430939, -0.12868304550647736, -0.013353991322219372, -0.15876297652721405, -0.016702136024832726, -0.08415704220533371, 0.041183266788721085, -0.0565534345805645, -0.010014778934419155, 0.0323338657617569, -0.09710478037595749, 0.10843178629875183, 0.009602840058505535, 0.16514022648334503, 0.002576823579147458, 0.008900534361600876, 0.003490185597911477, -0.0012405025772750378, 0.007384889759123325, 0.005585893988609314, -0.002067687688395381, -0.004095745272934437, 0.006121452432125807, -0.006282394286245108, -0.01691598817706108, -0.022792764008045197, 0.013065828010439873, 0.003092107828706503, 0.001451305579394102, -0.0077429888769984245, 0.009207207709550858, 0.005821609869599342, 0.016905302181839943, -0.025270041078329086, 0.012687531299889088, -0.004354480654001236, -0.00309797003865242, -0.011315950192511082, 0.004389028064906597, 0.003580837743356824, 0.008984721265733242, 0.0023311427794396877, 0.002719996962696314, 0.010827681981027126, -0.0034126038663089275, 0.004313598852604628], [-0.26832789182662964, 0.09932724386453629, -0.3678782284259796, -0.03981361538171768, 0.9013671278953552, -0.628412127494812, -0.5632382035255432, -0.1940859854221344, 0.09392420202493668, -0.002033686963841319, 0.32473689317703247, -0.6688605546951294, 0.03873533383011818, 0.1177578717470169, -0.04124073311686516, -0.45906510949134827, 0.14755094051361084, -0.4838559329509735, -0.210082545876503, 0.09297246485948563, 0.24129755795001984, -0.1598796248435974, -0.5088368654251099, 0.865541398525238, -0.18029703199863434, 0.1269347220659256, 0.02756260707974434, -0.07931593060493469, -0.4594660699367523, 0.04179692268371582, -0.39678889513015747, 0.7171486020088196, 0.46054139733314514, 0.1822061985731125, -0.6960827112197876, 1.3862179517745972, -0.015338645316660404, 0.9522714018821716, -0.08197560161352158, -0.4746835231781006, 0.04938342794775963, -0.34295719861984253, 0.44007423520088196, 0.4338221549987793, -0.9016773700714111, -0.09924540668725967, 0.08448181301355362, -0.2188814878463745, -0.05463426187634468, 0.4039876163005829, -0.4637337028980255, -0.22002853453159332], [-0.11575981229543686, -0.08139722794294357, 0.023460250347852707, 0.01234406977891922, -0.04447263106703758, -0.024372810497879982, 0.07292728871107101, -0.04796842113137245, -0.18463513255119324, -0.029842423275113106, 0.09301808476448059, 0.0690520778298378, -0.04361060634255409, -0.019614752382040024, 0.031637322157621384, 0.011865969747304916, -0.0615607425570488, 0.020040348172187805, 0.13369707763195038, 0.015521211549639702, 0.023160666227340698, 0.01271163858473301, 0.0008166542393155396, 0.00017545229638926685, 0.0028312799986451864, 0.002779196947813034, 0.012915256433188915, 0.001370138837955892, 0.012554138898849487, 0.01075215358287096, 0.0278562493622303, 0.023043375462293625, 0.015046997927129269, 0.003036248730495572, 0.019119830802083015, 0.013138361275196075, 0.002077658660709858, 0.032232616096735, 0.02216310426592827, 0.00646198121830821, -0.00015780195826664567, -0.004743007477372885, -0.011222252622246742, -0.005822756793349981, -0.001427548355422914, 0.010714685544371605, -0.013647121377289295, -0.010404855944216251, -0.00022399517183657736, -0.010493426583707333, -0.01935441792011261, 0.0014517080271616578], [-0.019844716414809227, 0.006574075203388929, 0.035149287432432175, 0.03070760890841484, -0.02658567763864994, -0.0075797731988132, 0.002462847391143441, -0.09723671525716782, -0.058945994824171066, -0.06802575290203094, -0.003826931118965149, -0.013307307846844196, -0.042785223573446274, -0.03913091868162155, 0.014857430011034012, -0.02171018347144127, -0.00717767421156168, 0.06139698997139931, 0.025023039430379868, 0.0574367493391037, 0.013733532279729843, 0.00098327302839607, -0.01211419329047203, -0.0065457783639431, 0.004051731433719397, -0.006902496796101332, -0.005206785164773464, -0.003975437022745609, 0.003914160653948784, -0.00023281012545339763, 0.012132017873227596, 0.006869031582027674, 0.015870651230216026, -0.0041702138260006905, -0.0010985330445691943, 0.01603948324918747, 0.0011258089216426015, 0.010283869691193104, 0.025047503411769867, 0.015389962121844292, -0.006540861912071705, -0.009706111624836922, -0.00395355885848403, -0.00785717274993658, -0.006205608136951923, -0.0008005175041034818, -0.0015472357627004385, -0.0010697620455175638, -0.004317623097449541, -0.01771482825279236, -0.012641340494155884, -0.002182310214266181], [-0.2812381386756897, 0.2279837727546692, 0.1972665637731552, 0.802853524684906, -0.6768178343772888, 0.46421676874160767, 0.06993503123521805, 0.43851083517074585, 0.5748461484909058, -0.5319268703460693, -0.45187854766845703, -0.35362544655799866, 0.15372596681118011, -0.26611387729644775, -0.38146987557411194, 0.45963039994239807, 0.26648446917533875, 0.4887232184410095, 0.6441181302070618, 0.04767680913209915, 0.6300275921821594, -0.5060928463935852, 0.8879267573356628, -0.057412195950746536, -0.021482594311237335, 1.5782101154327393, 0.4617654085159302, 0.45293864607810974, -0.6321762800216675, 0.2918570339679718, 0.8451806902885437, -0.14997291564941406, 0.7759494781494141, -0.15005937218666077, 0.6902080178260803, -1.1296812295913696, -0.4491393268108368, 0.09957823902368546, -1.2501779794692993, 1.0259413719177246, -0.6438065767288208, 0.8188412189483643, -0.29946818947792053, -0.2843034267425537, -0.6019096970558167, -0.3500605821609497, -0.4489867389202118, -0.8841379284858704, -0.5564197897911072, 0.2709149420261383, -0.12301423400640488, 0.6369385719299316], [0.08489730954170227, 0.037697240710258484, 0.01953587308526039, 0.03200284019112587, -0.06503979116678238, -0.21975190937519073, 0.06978120654821396, -0.13265283405780792, 0.09114161878824234, -0.046108316630125046, -0.061930060386657715, -0.0324777215719223, -0.00934501551091671, -0.04662352800369263, 0.06704157590866089, 0.22857749462127686, -0.08823792636394501, 0.12077932804822922, -0.08138769865036011, 0.0791923999786377, -0.016741786152124405, 0.0013325419276952744, 0.015088948421180248, 0.005306404083967209, 0.013190367259085178, 0.006812995299696922, -0.0022980982903391123, -0.026932479813694954, -0.001682583475485444, -0.0032585239969193935, -0.014282956719398499, 0.006380068603903055, 0.003079173620790243, 0.02805265225470066, -0.01851593516767025, -0.03179103508591652, 0.044618599116802216, 0.005065939389169216, 0.0034856041893363, -0.061526842415332794, 0.0027088066563010216, 0.02678729221224785, 0.014167733490467072, -0.0015548875089734793, -0.0011447506258264184, -0.012698361650109291, 0.0016459808684885502, 0.005591904744505882, 0.010171291418373585, 0.005018525291234255, 0.00596881378442049, 0.008251353166997433], [0.38812583684921265, -0.06270988285541534, -0.3592347800731659, -0.7535891532897949, -0.11578989773988724, 0.26806166768074036, -0.7229047417640686, 0.23174907267093658, 0.11969710141420364, -0.14986155927181244, 0.13539133965969086, -0.30568525195121765, -0.343742311000824, -0.7541369199752808, -0.13374581933021545, 0.05565038323402405, -0.7396172881126404, 0.07963430881500244, -0.11880293488502502, -0.6648590564727783, 0.3654550611972809, 0.6212252974510193, -0.2255217730998993, -0.7929620146751404, 0.8451674580574036, -0.606788694858551, -0.10352586209774017, 0.01798008754849434, 0.2582889795303345, 0.02523883804678917, 0.6534116268157959, 0.20482797920703888, -0.26482439041137695, -0.7357409000396729, -0.392611026763916, 0.29550284147262573, -0.3062382936477661, 0.04629127308726311, -0.1678045243024826, -0.9215325713157654, -0.8400574922561646, 0.42639753222465515, 0.5837668180465698, 0.8051596283912659, -0.12307530641555786, 0.750923216342926, 0.5698104500770569, -0.2780225872993469, 0.261348158121109, -0.16546684503555298, 0.574467122554779, 0.2348216474056244], [0.01888277754187584, -0.5743910074234009, -0.6555971503257751, -0.20948655903339386, -0.7778705954551697, 0.9444478750228882, 0.39612624049186707, -0.39483508467674255, -0.19757014513015747, 0.5462788343429565, -0.6606557369232178, -0.5182480216026306, -0.7161168456077576, 0.2623261511325836, -0.46818533539772034, 0.8789687156677246, 0.08119864761829376, -0.2698058784008026, -0.8334874510765076, 0.5292363166809082, -0.44520407915115356, 1.073155403137207, 0.027213772758841515, 0.9087982773780823, 0.4607856869697571, 0.15083947777748108, 0.901181697845459, -0.13342684507369995, -0.7480732798576355, -0.06334336847066879, 0.08319278806447983, -0.3533822298049927, -0.6394644379615784, -0.027771273627877235, -0.48571810126304626, -0.33577948808670044, -0.049209482967853546, 0.44779929518699646, -0.4494694471359253, 0.09095816314220428, -0.9374036192893982, 0.5138528943061829, 0.09037809818983078, 0.6215481162071228, 0.7347649931907654, 0.38967275619506836, -0.07075580954551697, -0.11905588209629059, -0.375203013420105, -0.8146978616714478, 0.697363018989563, -0.17764756083488464], [0.7977792024612427, 0.25304871797561646, -0.27932602167129517, -0.3519596755504608, -0.4704562723636627, -0.383765310049057, -0.36326074600219727, -0.3663323223590851, -0.2799922525882721, 0.8273208737373352, 0.43043363094329834, -0.005749931093305349, -0.23632116615772247, -0.17665418982505798, -0.26818451285362244, -0.4351562559604645, -0.3535331189632416, -0.6187937259674072, -0.702584981918335, 0.599516749382019, -0.4370695948600769, 0.4985639452934265, -1.2965857982635498, 0.11763979494571686, -0.5925296545028687, 0.3098178803920746, -0.1700289249420166, 0.1823171228170395, 0.1798977553844452, 0.07405704259872437, 0.6719419360160828, -0.03986617550253868, -0.3752082586288452, -0.12198571860790253, -0.2891117334365845, -0.07729779183864594, -0.05123260244727135, -0.616327166557312, -0.613904595375061, -0.0015781132970005274, -0.6809138059616089, 1.0206005573272705, 0.4995035231113434, -0.4957762360572815, 0.038952067494392395, 0.04939229413866997, 0.4779711663722992, -0.2671492099761963, 0.28895103931427, 0.05452950298786163, 0.36918747425079346, 0.32948189973831177], [-0.2817366421222687, 0.2931618094444275, -0.09795919060707092, -0.02452208288013935, 0.6425034999847412, 0.5420200824737549, 0.9888659715652466, 0.32622525095939636, 0.10194529592990875, -0.11750733107328415, 0.47990018129348755, -0.07508490979671478, 0.08501893281936646, -0.24774201214313507, 0.3860089182853699, 0.21081861853599548, -0.038083720952272415, 0.7122880220413208, 0.5195782780647278, -0.03047075867652893, -1.3877513408660889, 0.6525166630744934, 0.45972707867622375, -0.4019452631473541, -1.085432767868042, -0.5172761678695679, 0.619956374168396, 0.36042195558547974, 0.6255245208740234, 0.8947083353996277, 0.7831746339797974, -0.3612292408943176, -0.6325046420097351, 1.0801687240600586, -1.3296406269073486, -0.3530806601047516, 0.3022639751434326, -0.9417282938957214, -1.1753976345062256, -0.5098188519477844, 0.2062883973121643, 0.8411097526550293, -0.5237222909927368, -0.36014994978904724, -0.6647257804870605, 0.803059995174408, -0.3283230662345886, -0.18624788522720337, 0.008069580420851707, -0.14600124955177307, -0.5740070939064026, -0.006108601577579975], [0.0004633382195606828, 0.015629040077328682, -0.02696956880390644, 0.038354236632585526, 0.04999077692627907, -0.054272741079330444, -0.01242117304354906, -0.00035044190008193254, 0.025078296661376953, 0.03223811089992523, 0.004317349288612604, -0.011087018996477127, 0.029764289036393166, -0.030159898102283478, -0.04471360892057419, 0.06693731248378754, 0.013570372015237808, 0.01088942214846611, -0.012972132302820683, -0.02854335494339466, -0.00030832161428406835, 0.0034477445296943188, -0.0027155231218785048, -3.5123910038237227e-06, 0.0014166106702759862, 0.007550427690148354, 0.006896389648318291, 0.0018514635739848018, 0.0032861256040632725, 0.004999666474759579, 0.006071579176932573, 0.007315265014767647, -0.0036015796940773726, 0.0049768914468586445, 0.011631478555500507, -0.0004427059320732951, -0.013862727209925652, 0.0012432495132088661, -0.0036507167387753725, -0.009484239853918552, 0.011183138005435467, 0.0055805593729019165, -0.0033972475212067366, 0.004662908613681793, 0.004840484354645014, 0.002036352874711156, 0.0021490799263119698, 0.00384302600286901, 0.004503146279603243, 0.0017108203610405326, -0.004674704745411873, 0.0016600536182522774], [0.2678556442260742, -0.03740385174751282, 0.055186543613672256, 0.010473934933543205, 0.0020220791921019554, 0.03932292014360428, 0.11899294704198837, 0.12489484250545502, 0.5583509802818298, -0.5591031312942505, 0.4391029477119446, -0.5366569757461548, 0.01631815917789936, 0.6510794758796692, 0.39578258991241455, -0.06541011482477188, -0.18559220433235168, -0.045394957065582275, 0.20690631866455078, -0.32730406522750854, -1.3202272653579712, 0.2735351622104645, -0.07262121886014938, -0.21841515600681305, -0.21763922274112701, -0.033545054495334625, -0.3907620310783386, -0.303067684173584, 0.18552106618881226, -1.1921416521072388, -1.2104524374008179, -0.2911759614944458, 0.565462052822113, -0.7452912926673889, -0.4372597932815552, 0.13564755022525787, 0.2184954732656479, 0.34246256947517395, -0.7332172393798828, 0.03347419574856758, 0.1285022795200348, 0.6119814515113831, 0.3982113003730774, -0.5155283808708191, 0.038885779678821564, 0.7458030581474304, 0.3309175968170166, -0.4817890524864197, 0.15178699791431427, -0.8939640522003174, 0.1397673487663269, -0.1531337946653366], [0.04465552791953087, 0.0024991862010210752, 0.019068162888288498, 0.04834165424108505, -0.011583925224840641, 0.006487240083515644, 0.0038154134526848793, -0.01731790602207184, -0.03574351966381073, -0.038919441401958466, -0.04329957440495491, -0.002839220454916358, -0.02375405840575695, -0.039954982697963715, 0.0038552400656044483, -0.014095256105065346, -0.0021704614628106356, 0.01332129631191492, 0.02847396768629551, 0.03189566358923912, 0.009357077069580555, 0.0033099791035056114, -0.0046776095405220985, 0.0018781947437673807, 0.0005578981363214552, -0.0031008978839963675, -0.0027488102205097675, -0.002740082796663046, 0.010864587500691414, -0.005879012402147055, 0.019712692126631737, 0.010456844232976437, 0.01090384740382433, -0.0006469186046160758, 0.005863478872925043, 0.01783234067261219, 0.0029208248015493155, 0.00978873297572136, 0.0062935748137533665, 0.013468900695443153, -0.0032391652930527925, -0.005090388935059309, -0.004287877585738897, -0.0007669233018532395, -0.0014578582486137748, 0.00032046405249275267, 0.0018030143110081553, 0.005493325646966696, 0.003011031076312065, -0.007522041443735361, 0.009513629600405693, -0.002252940321341157], [0.02411741204559803, -0.014347942546010017, -0.026128826662898064, 0.025141874328255653, 0.023645302280783653, 0.027580831199884415, 0.0012767328880727291, 0.0069898138754069805, 0.035266656428575516, -0.028430242091417313, -0.010478469543159008, 0.006731156259775162, 0.017850903794169426, -0.01589668169617653, -0.02738000825047493, -0.02556442841887474, -0.00756789930164814, -0.0006004090537317097, -0.04268540441989899, 0.0180596224963665, -0.002575125778093934, 0.004892642609775066, 0.004891686141490936, 0.0010125635890290141, 0.006186997517943382, -0.007720571011304855, -0.003441029926761985, -0.008210897445678711, -0.008259867317974567, -0.010983044281601906, -0.009160441346466541, 0.005026351194828749, 0.010706448927521706, -0.007850497961044312, -0.006588106043636799, -0.017588995397090912, 0.004133792128413916, -0.001405104878358543, 0.0011973937507718801, 0.007226856425404549, 0.0032135704532265663, 0.01557240542024374, 0.0011669488158077002, -0.006157179828733206, -0.004955552984029055, -0.010689598508179188, -0.005043188109993935, 0.006550990976393223, 0.006156365852802992, -0.0038290563970804214, 0.007459958083927631, 0.002435948932543397], [0.4190160632133484, 0.24304552376270294, -0.04625321179628372, 0.21427781879901886, 0.05914465710520744, 0.10318286716938019, 0.4964420199394226, 0.48810243606567383, 0.1863488256931305, 0.35327857732772827, 0.435713529586792, 0.15905702114105225, -0.01690656505525112, 0.4365624785423279, 0.20966707170009613, 0.5144733190536499, 0.25736701488494873, 0.27410438656806946, 0.6382302641868591, 0.3456539511680603, -0.3153381943702698, -0.28009432554244995, -0.00880209170281887, 0.31887394189834595, 0.16623570024967194, -0.4066055119037628, -0.47977250814437866, -0.4862215220928192, -0.5165426731109619, 0.42418691515922546, -0.242951899766922, -0.3300058841705322, 0.12423361092805862, 0.31031352281570435, 0.3184449076652527, 0.02753257565200329, -0.07902957499027252, -0.17322155833244324, 0.5267957448959351, 0.15294373035430908, 1.8217636346817017, -0.6527082324028015, -0.3403365910053253, -0.36543387174606323, -0.5444496870040894, -0.05444582551717758, -0.5218998789787292, -0.4124130308628082, 0.009578581899404526, -0.11023362725973129, -0.4460323452949524, -0.24999593198299408], [-0.5925180315971375, -0.3551473617553711, 0.4651091992855072, 0.5098890066146851, 0.3849997818470001, -0.20070429146289825, 0.0754375010728836, 0.46958890557289124, 0.08685540407896042, -0.4778940677642822, 0.3231644928455353, 0.389350026845932, -0.13474078476428986, -0.04471374303102493, -0.19230499863624573, 0.4570547044277191, -0.00548881571739912, 0.08240631222724915, 0.2701420187950134, 0.0504201240837574, -0.30340081453323364, 0.22698408365249634, -0.3005034327507019, -1.0852638483047485, 0.13172875344753265, 0.2085873782634735, -0.8064612746238708, 0.09033847600221634, -0.5263631343841553, -0.2464025467634201, 0.2864254415035248, -0.11710499227046967, -0.5338000059127808, -0.9551271796226501, -0.6628243923187256, -0.3264210522174835, -0.06196338310837746, -0.7629369497299194, -0.4674326479434967, 0.21972166001796722, 0.4582379460334778, -0.1631404310464859, -0.6490877866744995, 0.022174661979079247, 0.8808160424232483, -0.09302756190299988, -0.6181676387786865, 0.3409147560596466, -0.3047191798686981, 0.4979768395423889, 0.013911460526287556, 0.03570312261581421], [0.07366476207971573, -0.013560964725911617, 0.028481068089604378, 0.014628628268837929, -0.0090460991486907, -0.004998252261430025, -0.0056281485594809055, -0.03244822472333908, -0.05624585971236229, 0.01889992132782936, -0.06956162303686142, 0.008147550746798515, -0.03327598422765732, -0.01642940193414688, 0.004233834333717823, -0.010732755996286869, -0.008698411285877228, 0.0198814757168293, 0.04046116769313812, -0.02456553466618061, -0.0008835775661282241, -0.00433832174167037, -0.0113533278927207, -0.0016571704763919115, -0.0005648766527883708, -0.008045765571296215, -0.006060845218598843, -0.009493406862020493, -0.0037778287660330534, -0.008026916533708572, -0.00290587916970253, 0.011727147735655308, 0.010134493932127953, -0.011097749695181847, -0.0063935015350580215, -0.002034809673205018, 0.026975343003869057, -0.0011253274278715253, -0.0030370664317160845, 0.012128773145377636, -0.008108973503112793, 0.009962270967662334, 0.0013649477623403072, 0.0024086041375994682, -0.007798060309141874, -0.0075735365971922874, -0.009163941256701946, -0.004934246651828289, -0.006481302436441183, -0.007071789354085922, 0.004183153621852398, 0.000380508485250175], [0.13892093300819397, -0.5304898023605347, -0.3064405918121338, 0.6557208299636841, 0.32489073276519775, 0.3659089505672455, 0.3109833896160126, 0.09688208997249603, 0.5083135366439819, 0.20283719897270203, -0.042864445596933365, -0.3590320348739624, -0.1313566416501999, 0.1652957946062088, -0.07381385564804077, 0.657060444355011, 0.4054892063140869, 0.11172407120466232, 0.4775685966014862, 0.3996788561344147, 0.22239486873149872, 0.230120450258255, 0.6454480886459351, -0.2536570727825165, 0.7613429427146912, 0.41770192980766296, -0.6571974158287048, -0.16284631192684174, -0.365662157535553, 0.6304750442504883, 0.17784647643566132, 1.5309313535690308, 0.3135914206504822, -0.7566601037979126, -0.17023323476314545, -1.361425518989563, -0.18760687112808228, -0.7266790866851807, -1.1250132322311401, -0.31828033924102783, -0.24586009979248047, -0.557895839214325, 0.04007588326931, -0.8321724534034729, 0.08039574325084686, -0.328586220741272, -0.4394058287143707, -0.1155809685587883, 0.1448996514081955, 0.5033217668533325, 0.21855485439300537, 0.3465423583984375], [-0.44823145866394043, 0.28563085198402405, -0.2183622270822525, 0.08981934934854507, -0.05566096305847168, 0.04176813364028931, -0.23167890310287476, 0.30385276675224304, 0.4826006591320038, 0.3012825846672058, -0.09298110753297806, -0.2084866166114807, -0.2603012025356293, -0.11131156235933304, -0.4781178832054138, 0.05053746700286865, -0.3600333034992218, 0.14484229683876038, 0.41401371359825134, 0.4327925443649292, -0.008883249014616013, -0.8053892850875854, 0.750777542591095, -0.21415448188781738, 1.3700631856918335, -0.5321124196052551, -0.5563923120498657, -0.020895827561616898, 1.4129732847213745, -0.11256095767021179, -0.1591121256351471, 0.45387569069862366, 0.07643983513116837, -0.1935681253671646, 0.1266726553440094, -0.22213910520076752, 0.03965970128774643, 0.654879093170166, -0.17596960067749023, -0.25666338205337524, 0.09655243158340454, 0.10956519842147827, 0.6571540832519531, 0.400179922580719, -0.1365492194890976, -0.11906205862760544, -0.7170593738555908, -0.13538040220737457, 0.8360694646835327, 1.2257219552993774, -0.5906175971031189, -0.2951385974884033], [0.318293958902359, 0.3207319974899292, 0.38578706979751587, 0.3451656997203827, -1.0093187093734741, 0.15655909478664398, 0.2978613078594208, 0.06241818889975548, -0.06755498051643372, -0.56004399061203, -0.07421249151229858, 0.41766199469566345, 0.29702484607696533, 0.2728615403175354, -1.2304767370224, -0.37500783801078796, 0.006390415597707033, 0.11504384130239487, -0.3165992498397827, -0.2586044371128082, -0.0519690066576004, 0.1813860982656479, 0.678676426410675, 0.8488102555274963, -1.0632379055023193, -0.4023628234863281, -0.666102409362793, -0.04872766509652138, -0.5462048649787903, 0.15825319290161133, -0.7293637990951538, 0.5814069509506226, 0.5419227480888367, 0.35265618562698364, -0.008839648216962814, 0.23487131297588348, 0.7883843183517456, 0.8166142106056213, -0.3069271147251129, -0.284775972366333, -1.1788935661315918, -1.3344372510910034, -0.13659891486167908, -0.17423835396766663, -0.32675644755363464, -0.35870081186294556, -0.17914927005767822, -0.12029387056827545, 1.28193199634552, -0.1843947321176529, -0.02785841003060341, 0.5229264497756958], [-0.039426833391189575, -0.025797514244914055, 0.023454248905181885, 0.03687624633312225, -0.017600243911147118, 0.07164420187473297, 0.009029841981828213, -0.086909219622612, -0.05027401074767113, 0.04435819014906883, 0.016306346282362938, 0.025857724249362946, -0.023691657930612564, -0.01999540440738201, 0.01860089972615242, -0.07357922941446304, -0.001856568269431591, 0.07102396339178085, 0.03830692917108536, -0.055799830704927444, 0.02056441828608513, 0.005706717260181904, -0.015045661479234695, -0.0024044394958764315, 0.00023744119971524924, 0.005445747636258602, 0.01167084090411663, 0.005980635993182659, 0.011845284141600132, 0.006661116145551205, 0.034261371940374374, 0.007794318255037069, 0.0026163284201174974, -0.016446761786937714, 0.012126258574426174, 0.030689692124724388, -0.0009576513548381627, 0.02076023817062378, 0.006472459528595209, 0.02508339285850525, 0.002522375201806426, 0.0018984361086040735, 0.0046182433143258095, 0.007506743539124727, 0.007878788746893406, 0.012554941698908806, -0.001088439836166799, -0.011577766388654709, -0.001761227031238377, 0.0006270597223192453, -0.016390105709433556, 0.0020659654401242733], [0.014659625478088856, 0.013383230194449425, 0.0036111583467572927, 0.08042263239622116, 0.002836764557287097, -0.07993477582931519, -0.07143772393465042, -0.02688678167760372, 0.07633408159017563, 0.02368786931037903, -0.0086980564519763, -0.018707286566495895, -0.01008799858391285, -0.07364937663078308, -0.0111846923828125, 0.08142340183258057, 0.0678076520562172, 0.03715268149971962, -0.07791613042354584, -0.029661063104867935, -0.0035428600385785103, 0.005811779294162989, -0.002674630843102932, 0.004788310267031193, 0.0030714564491063356, 0.0021011359058320522, 0.00235805194824934, -0.01363757997751236, -0.007470682263374329, -0.009398848749697208, 0.004737509414553642, 0.014049828983843327, 0.0062502543441951275, -2.4923058390413644e-06, 0.0013116422342136502, -0.017975959926843643, -0.010122379288077354, -0.002507017459720373, 0.003122471272945404, -0.0103140939027071, -0.005016334820538759, 0.021745555102825165, 0.005595538765192032, -0.00025651694159023464, -0.00732918456196785, -0.007592502050101757, -0.005126242525875568, 0.007389797829091549, 0.011033338494598866, -0.0008163222228176892, 0.005884258076548576, 0.0011415703920647502], [-0.4056161642074585, 0.14151930809020996, -0.28568437695503235, 0.06328768283128738, -0.2837725281715393, -0.08885037153959274, -0.265444815158844, 0.601537823677063, 0.025097455829381943, -0.640477180480957, 0.23725125193595886, -0.009135720320045948, 0.4077233076095581, -0.4457385241985321, -0.009890977293252945, 0.20433203876018524, 0.37129950523376465, 0.08107353746891022, -0.08992461860179901, -0.17650391161441803, 0.9537035822868347, -0.47592300176620483, 0.3882814347743988, -0.37371769547462463, -0.5806877017021179, -0.4593963325023651, 0.6358745694160461, -0.021463708952069283, -0.8549669981002808, -1.0428508520126343, 0.19717387855052948, 0.35862383246421814, -0.5187144875526428, 0.9680695533752441, 0.2043239325284958, 0.20478194952011108, 0.2797802984714508, -0.37870320677757263, 0.21644847095012665, -0.1770756095647812, 1.4113638401031494, -0.45626410841941833, 1.2816935777664185, -0.8161548376083374, 0.14008532464504242, 0.10979101061820984, -0.33117613196372986, -1.042394995689392, 0.28360435366630554, 0.4636579155921936, 0.5730096101760864, 0.12116169929504395], [0.4644571840763092, 0.6102948784828186, 0.21801429986953735, -0.011757172644138336, -0.14878644049167633, -0.1887398213148117, 0.3610000014305115, 0.11400321125984192, -0.03481809049844742, -0.41409075260162354, 0.3294364809989929, 0.32126399874687195, 0.3907865285873413, 0.05923077464103699, 0.5131401419639587, 0.3429515063762665, 0.4245351254940033, 0.17569038271903992, -0.5676894187927246, 0.13434167206287384, 0.7954418063163757, 1.0894560813903809, -0.21997317671775818, 0.9024795889854431, 0.785183310508728, 0.3481713831424713, 0.3068189322948456, 0.08829796314239502, -0.6413111686706543, -0.36805763840675354, -0.1425982415676117, 0.157581627368927, -1.2247458696365356, 0.36721572279930115, 0.6238868832588196, -0.16789884865283966, -0.6063794493675232, 0.1558101922273636, -0.2319806069135666, -0.33391380310058594, 0.5319788455963135, -0.29822367429733276, -0.4480930268764496, -0.1318025439977646, -0.5759690999984741, 0.4714408218860626, -0.5870670676231384, -0.04066721349954605, -0.3770409822463989, -0.3326756954193115, -0.9632903337478638, 0.616055965423584], [0.5446588397026062, -0.47410374879837036, 0.02467537671327591, 0.41826048493385315, 0.10793983936309814, 0.38001424074172974, -0.5043345093727112, -0.27953624725341797, 0.41483816504478455, 0.16983622312545776, -0.4842780828475952, 0.553515613079071, -0.26399630308151245, -0.49037966132164, -0.21428248286247253, -0.037632524967193604, 0.6665240526199341, 0.2722828686237335, -0.3354995846748352, -0.23950950801372528, 0.2941499650478363, -0.2519721984863281, 0.43783462047576904, 0.21030384302139282, -0.21213100850582123, -0.05581989139318466, 0.7407844662666321, 0.2812209725379944, -0.40723520517349243, 0.29173412919044495, -0.39483827352523804, 0.007976132445037365, 0.017435595393180847, -0.19560372829437256, -0.026082441210746765, -1.062223196029663, -0.6759515404701233, -0.2575215995311737, -0.03895583748817444, -0.03251313790678978, 0.22688008844852448, -0.573417603969574, 0.24920672178268433, -0.40817299485206604, -0.05549483373761177, 0.004235522821545601, 0.2069164663553238, -0.6191245913505554, -0.18668648600578308, 0.35734879970550537, -0.4517914950847626, -0.04739226773381233], [0.5093986988067627, -0.3634699285030365, 0.34221792221069336, -0.11531092971563339, -0.4228992760181427, 0.48602837324142456, 0.042332764714956284, -0.103317990899086, 0.1580798327922821, 0.008387873880565166, 0.10745295882225037, -0.044424742460250854, -0.00429556192830205, -0.16253161430358887, -0.3754482567310333, -0.470077246427536, -0.28399500250816345, -0.08563534170389175, -0.29637062549591064, -0.15631775557994843, 0.12411709129810333, 0.4342411458492279, -0.4753935933113098, -1.2477673292160034, -0.6218385696411133, 0.24324162304401398, 0.46026086807250977, 0.11366758495569229, -1.1829546689987183, 0.014602753333747387, -0.11644384264945984, -0.1819380670785904, 0.2988399267196655, -0.6281259655952454, 0.9508335590362549, -0.17090480029582977, 0.8188921809196472, 0.9039376378059387, -0.5460241436958313, 0.11391884833574295, -0.23194444179534912, 0.41481754183769226, -0.6962875127792358, 0.3621758222579956, 0.35765695571899414, 0.4488755762577057, 0.10173074901103973, 0.1666063517332077, 0.576442539691925, -0.07010597735643387, -0.9318912029266357, -0.7963401675224304], [0.007635647431015968, 0.00418012123554945, -0.044364504516124725, -0.04655218496918678, -0.0006997509044595063, 0.005419755820184946, 0.0768980160355568, 0.021981975063681602, 0.06426410377025604, 0.04085328429937363, 0.00995431188493967, 0.005490812938660383, 0.05813311040401459, 0.03467429801821709, 0.004633491393178701, 0.0003954852872993797, -0.07786771655082703, -0.012719533406198025, -0.04212568700313568, -0.01339241024106741, -0.014947677031159401, -0.005411067977547646, 0.00685966806486249, 0.00026682359748519957, -0.002652736147865653, -0.005996469873934984, -0.005453202873468399, -0.0009713020990602672, -0.011123850010335445, -0.005109421908855438, -0.03119228594005108, -0.021731900051236153, -0.011043467558920383, 0.010124708525836468, -0.00769647303968668, -0.020021088421344757, 0.01603306084871292, -0.007386138197034597, -0.014687994495034218, -0.02549511380493641, 0.0006350242765620351, -0.008770723827183247, 0.00038144810241647065, -0.0020762209314852953, -0.002240917179733515, -0.011216200888156891, 0.0027549739461392164, -0.00026226419140584767, -0.007361958269029856, 0.001611173152923584, 0.009205634705722332, -0.0038105743005871773], [-0.4553612172603607, 0.5192073583602905, 0.07598046213388443, 0.8507333993911743, 0.051528215408325195, -0.47579166293144226, 0.1907542198896408, 0.828384280204773, 0.06089800223708153, 0.48463475704193115, 0.5772053599357605, -0.1585664451122284, -0.12688317894935608, -0.25670892000198364, 0.4228231906890869, 0.26459360122680664, -0.0049190400168299675, -0.4298225939273834, -0.5811648368835449, -0.5337043404579163, 0.1944887787103653, -0.23000404238700867, -0.13981427252292633, -0.09890008717775345, -0.13179023563861847, -0.4638952612876892, 0.03101050853729248, 0.1218353733420372, -0.43817606568336487, 0.5865761041641235, -0.19735810160636902, -0.8972722887992859, -0.06781235337257385, -0.874832808971405, -0.33514782786369324, 0.16458064317703247, 0.13136054575443268, 0.03712515905499458, 1.165602445602417, 0.18361279368400574, -0.5046517848968506, -0.04150550439953804, 0.4868004024028778, 0.14790655672550201, 0.1913951188325882, 0.13198228180408478, 0.33697310090065, 0.015050776302814484, -0.27343475818634033, 0.33552947640419006, -0.4292224943637848, 0.06819382309913635], [-0.08483266085386276, -0.4820886254310608, 0.23237623274326324, 0.20369888842105865, -0.3801761269569397, -0.608588695526123, 0.5498666167259216, -0.11852326989173889, -0.2712066173553467, -0.2622242867946625, 0.44322946667671204, -0.31689852476119995, 0.5536779165267944, 0.43096792697906494, -0.0561056025326252, 0.1499655395746231, 0.04826318845152855, 0.5746254324913025, -0.18459001183509827, -0.15426787734031677, -0.4566480219364166, 0.9033055305480957, 0.5552316904067993, 0.3795152008533478, -0.24847519397735596, 0.21942158043384552, -0.23965413868427277, -0.09824186563491821, -0.1761295199394226, -0.1987038403749466, -0.7882664799690247, 1.208114743232727, -0.6063381433486938, -1.2427866458892822, 0.9895869493484497, 0.4318297505378723, -1.5248900651931763, 0.004224155563861132, 0.15426471829414368, 0.19255918264389038, 0.244770348072052, 0.49878808856010437, -0.2572554051876068, -0.3145536780357361, -0.5820755362510681, -0.07003732770681381, 0.433228462934494, 0.3780536353588104, 0.2663746774196625, 0.17105185985565186, 0.05805598944425583, -0.445587694644928], [-0.02322288788855076, -0.03344827890396118, -0.030818961560726166, -0.0988270714879036, 0.11709121614694595, -0.0904603824019432, 0.037694159895181656, -0.08597229421138763, -0.05096696317195892, 0.01039597112685442, 0.04315725341439247, 0.032684244215488434, 0.03408202528953552, 0.09975465387105942, -0.10732726007699966, 0.10476981103420258, -0.034343477338552475, 0.08006864041090012, 0.04691182076931, 0.008299799636006355, -0.013976863585412502, 0.004003881011158228, 0.007414135616272688, -0.007915157824754715, -0.010118979029357433, -0.006656353361904621, 0.0038424311205744743, -0.006850572768598795, -0.007227287627756596, -0.009446726180613041, -0.010985031723976135, 0.002222534501925111, -0.010815282352268696, 0.0011638838332146406, 0.0071371751837432384, -0.03052375651896, 0.011136522516608238, 0.007591567933559418, 0.0001248654880328104, -0.02469063363969326, 0.0006005098694004118, 0.011620643548667431, 0.0024654273875057697, -0.0009827365865930915, 0.009157714433968067, 0.007765212096273899, 0.000812647573184222, 0.0025020104367285967, 0.0028747462201863527, 0.007677349261939526, 0.005971014034003019, 0.002252309350296855], [0.11821147054433823, 0.11844386905431747, 0.8944153189659119, -0.34482574462890625, 0.05059586092829704, -0.3040497899055481, -0.22544939815998077, -0.323845237493515, 0.6835444569587708, -0.15965548157691956, 0.3537669777870178, -0.1340055614709854, 0.9104123115539551, -0.8523203730583191, -0.12899520993232727, 0.019024377688765526, 0.22248545289039612, -0.3786521553993225, 0.40489423274993896, -0.3682575821876526, 0.8872658014297485, -0.08734311908483505, 0.6082589626312256, -0.18418221175670624, -0.020940488204360008, -0.19493818283081055, 0.7714132070541382, -0.8610326647758484, -0.7143155336380005, -0.2809857130050659, 1.0255053043365479, -0.19789007306098938, -0.026526693254709244, 0.0758054181933403, -0.8832548260688782, -0.2713107168674469, -0.39799365401268005, 0.7227969169616699, 0.7763908505439758, 0.29135677218437195, 0.9202665686607361, -0.1833401322364807, -0.4522887170314789, -0.7940847277641296, 0.10871719568967819, 0.2926274240016937, 0.17227035760879517, -0.18418267369270325, 0.6978354454040527, 0.8331260085105896, -0.10915997624397278, -0.38622477650642395], [-0.49663951992988586, -0.16432952880859375, -0.2600869834423065, -0.052986159920692444, 0.8356789350509644, 0.22825634479522705, 0.18168291449546814, -0.7283030152320862, 0.09472301602363586, -0.43789681792259216, -0.14998072385787964, -0.2830510139465332, 0.18275105953216553, -0.10737858712673187, 0.19875375926494598, -0.08822506666183472, -0.2556881308555603, 0.11802083253860474, 0.28318268060684204, 0.2925092279911041, 0.25629106163978577, -0.48990675806999207, -1.027975082397461, -1.1206625699996948, -0.7850303649902344, 0.02461424469947815, -0.43121063709259033, 0.6915112733840942, 0.5627930164337158, 0.3836967349052429, -0.7504400014877319, -0.05670352652668953, -0.45366498827934265, 0.10502520203590393, -0.27624887228012085, 0.1128067672252655, -0.23171155154705048, 0.8909953236579895, -0.6662144064903259, 0.4231848120689392, 0.38951581716537476, -0.2926776707172394, 1.1465158462524414, 0.9080992937088013, 0.39185503125190735, 0.45202139019966125, -0.11027366667985916, 1.0636709928512573, 0.24706929922103882, -0.679341733455658, -0.48697197437286377, -0.05031317099928856], [0.32771557569503784, -0.4807427227497101, 0.19670580327510834, 0.46208715438842773, -0.3300115168094635, 0.15633410215377808, -0.22076967358589172, 0.31357210874557495, 0.4084838628768921, -0.6290656328201294, 0.05108023062348366, -0.6045775413513184, -0.009833117015659809, -0.41042986512184143, 0.07726073265075684, -0.2321421355009079, -0.0262316782027483, -0.06297062337398529, 0.44674670696258545, 0.08896342664957047, 0.8071978092193604, 0.00847954023629427, -1.4678651094436646, -0.30034613609313965, 0.1230846494436264, -0.7670959830284119, 0.36820346117019653, -0.21952928602695465, -0.5974162220954895, 0.2493554651737213, -1.11711847782135, 0.6178500056266785, -0.24997246265411377, -0.650259792804718, -0.00243839668110013, 0.3190743327140808, 0.10923057794570923, -0.23042282462120056, -0.5259815454483032, 0.6092556715011597, 0.8971711993217468, -0.1640394777059555, -0.9303354024887085, 0.6343508958816528, 0.05720554292201996, -0.1351829320192337, 0.08029267936944962, -0.7220533490180969, -0.01392925065010786, 0.3090020716190338, 0.36496061086654663, 0.3897337019443512]], "embedding_instance.bias": [-0.439435750246048, 0.0004260360437911004, -0.4247555732727051, -0.2144603282213211, -0.8842324018478394, -0.773027777671814, 0.5821481347084045, 0.002653429051861167, 1.0492181777954102, 0.910787045955658, 0.4327108860015869, 0.49115127325057983, -0.01695716381072998, -0.019023321568965912, 0.12435461580753326, -0.279590368270874, -0.0032408868428319693, 0.7296246886253357, -0.0023864787071943283, -0.8307812809944153, 0.024726737290620804, -0.7941865921020508, 0.1495809108018875, 0.3677676022052765, 0.517471432685852, -0.8672528266906738, 0.00809275358915329, -0.10943426936864853, -0.006914847530424595, -0.026664961129426956, -1.0596368312835693, 0.018029918894171715, 0.9130735397338867, 0.009127683937549591, 0.007648734841495752, -0.6263766288757324, 0.0013517504557967186, 0.9876934289932251, 0.7124769687652588, 1.018364667892456, -0.7012899518013, 0.0035364001523703337, 0.8343890309333801, 0.001991461729630828, -0.004417384974658489, -1.032651424407959, 0.7972335815429688, -0.0001753417745931074, -0.6317649483680725, -1.085874319076538, 0.889320969581604, 0.003989771939814091, -0.016936589032411575, -0.3029060959815979, -0.8967447876930237, 1.0356359481811523, 0.8048838973045349, -0.006896215490996838, -0.5013630390167236, -0.289787232875824, -0.014690933749079704, -1.065950870513916, -0.4056002199649811, 0.6932748556137085], "embedding_X.weight": [[0.31567415595054626, 0.4666328430175781, 0.508464515209198, 0.23580732941627502, 0.6270080804824829, 3.662523522507399e-05, 0.3125254809856415, -0.5437600612640381, 0.026185238733887672, 0.8209761381149292], [-0.09255535155534744, 0.26148077845573425, -0.24657805263996124, -0.35533180832862854, -0.06579790264368057, -0.617626428604126, -0.5785817503929138, -0.17980019748210907, -0.3711669147014618, 0.27419984340667725], [0.40659794211387634, 0.559138298034668, 0.30981138348579407, 0.5999692678451538, 0.10914409905672073, -0.28583982586860657, 0.5198489427566528, 0.002394858980551362, -0.5428064465522766, 0.1459151953458786], [0.4219594895839691, 0.13552826642990112, 1.2306137084960938, 0.4357947111129761, -0.2647864520549774, -1.0728530883789062, -0.5283754467964172, 0.5431693196296692, 0.7594904899597168, -0.2677929997444153], [-0.45887619256973267, -0.40715715289115906, 0.3510684669017792, -0.5387319326400757, -0.35140836238861084, 0.13473965227603912, 0.04294376075267792, -0.5205479264259338, -0.27648258209228516, -0.49027019739151], [-0.7883884310722351, -0.08017093688249588, 0.005898164585232735, -0.4524773359298706, -0.6049847602844238, -0.9848595261573792, 1.202445149421692, -0.25709596276283264, 0.8068457841873169, 0.6639946699142456], [-0.0013078940100967884, 0.0013934317976236343, -0.0017130873166024685, 0.0006267923163250089, -0.002639839192852378, -0.0013789295917376876, 0.0012695319019258022, 0.00041142842383123934, -0.0009312197216786444, -0.0010498907649889588], [0.4353989362716675, -0.5354760885238647, 0.5865427851676941, -0.48833751678466797, 0.33330172300338745, -0.08489301055669785, 0.31229662895202637, 0.7307550311088562, -0.4878782033920288, 0.7770543098449707], [0.21982114017009735, -0.559624433517456, -0.04977058991789818, 0.3023640215396881, -0.7471737265586853, 0.017099931836128235, -0.017276747152209282, 0.1393745243549347, -0.5707365274429321, -0.5819091796875], [0.39420071244239807, -0.7285747528076172, -0.6430075168609619, 0.12328426539897919, 0.6267207264900208, -0.6957338452339172, 0.2591516077518463, -0.5184081792831421, 0.285048246383667, -0.4374066889286041], [1.0870426893234253, 0.13550230860710144, -0.11779431998729706, -0.4783158302307129, -0.29230767488479614, 0.4776633679866791, -0.12409310042858124, 0.16326454281806946, 0.6442016959190369, 0.30191177129745483], [0.7135966420173645, 0.4836331605911255, 0.6637848019599915, 0.0513223335146904, -0.3410167098045349, 0.32753854990005493, 0.6086324453353882, -0.7543495297431946, -0.1681419014930725, -0.25331348180770874], [-0.11816994845867157, 0.0840766504406929, 0.6249761581420898, 0.12216892093420029, 0.4751359820365906, 0.3271711766719818, 0.0637548416852951, 0.11200832575559616, 0.5263053178787231, -0.6044679880142212], [0.20159390568733215, 0.7020744681358337, -0.13258406519889832, -0.9038424491882324, 0.7414653897285461, 0.19105736911296844, 0.5015535354614258, 0.724732518196106, -0.11027056723833084, -0.8471750020980835], [0.3095064163208008, -0.14045929908752441, -0.03799986466765404, -0.5580236315727234, 0.2684386372566223, -0.26266536116600037, -0.47566235065460205, -0.49993929266929626, -0.4837992787361145, 0.00289853080175817]], "embedding_X.bias": [-0.9835707545280457, 1.166287899017334, -1.0848920345306396, -0.9928202033042908, 1.2421290874481201, 0.19344249367713928, -0.0030594959389418364, -0.9510288834571838, 1.246714472770691, 0.888058602809906, -0.9563525319099426, -0.801619291305542, -1.0319640636444092, -0.5092257857322693, 1.1419545412063599], "embedding_uncern.weight": [[-1.53764808177948, 0.41519561409950256, 0.8951456546783447, -0.3838482201099396, -0.22538752853870392, 0.6673005819320679, -0.7789636254310608, 0.46379244327545166, -0.5402801036834717, 0.46785953640937805], [-0.15700815618038177, -0.6169265508651733, 0.142936110496521, -0.563193142414093, 0.48360809683799744, -0.35426658391952515, -0.19228103756904602, -0.2571712136268616, 0.2904655635356903, 0.17074830830097198], [0.0911528617143631, 1.3867753744125366, 0.569868803024292, 0.6842504143714905, -0.7667340636253357, -0.8593775033950806, 0.2805858254432678, -0.20405352115631104, -0.44796988368034363, 0.043276235461235046], [-0.5894522666931152, 0.16447389125823975, -1.319401741027832, -0.9311214685440063, -0.04700459912419319, 0.16248106956481934, 0.8533927798271179, 0.5164521336555481, -0.6128668189048767, -0.7591246962547302], [-0.18957045674324036, 0.4971884787082672, -0.09360559284687042, 0.0038800272159278393, -0.01433049887418747, 0.06260772049427032, 0.14023950695991516, -0.4105919301509857, 0.7429282069206238, -0.08537086099386215], [0.6937349438667297, -0.253136545419693, 0.3031372129917145, 0.109669029712677, -0.4130215346813202, 1.1892398595809937, -0.5699895620346069, -0.47862914204597473, -1.1181739568710327, -0.7927563786506653], [0.39364802837371826, -0.7665222883224487, 0.22213374078273773, -0.10693574696779251, -1.32906973361969, 0.39809730648994446, 0.937738299369812, 0.2559318244457245, -0.102501280605793, 0.7241343259811401], [0.6524993181228638, 0.10872301459312439, -0.01977744698524475, -0.3747882843017578, -0.19940930604934692, -0.41702723503112793, -0.45450469851493835, -0.840359628200531, 0.3087994456291199, 1.0429706573486328], [-0.5801327228546143, -1.0069708824157715, -0.35934749245643616, 1.3360321521759033, -0.3169453740119934, -0.40643709897994995, -0.6136785745620728, 0.5739678144454956, 0.28354984521865845, -0.5312014222145081], [-0.7963683009147644, -0.17510992288589478, -1.4134042263031006, 0.6552073359489441, 0.14731384813785553, 0.19295985996723175, 0.13084375858306885, -0.9212944507598877, -0.9674957394599915, 0.48362594842910767], [0.20787088572978973, -0.18511435389518738, -0.09088029712438583, -0.6918584108352661, -0.6015256643295288, -0.8295610547065735, -0.7721133232116699, 0.21960030496120453, -0.6881008148193359, -0.2003517895936966], [0.6418749094009399, 0.6622411608695984, -1.4789831638336182, 0.03142625093460083, -0.37100592255592346, 0.6509246826171875, -0.8379666805267334, 0.5856135487556458, 0.5752824544906616, 0.5368858575820923], [0.18386919796466827, -0.0578886978328228, -0.674014151096344, -0.0936214029788971, 0.07951301336288452, -0.9268251657485962, -0.2533392608165741, 0.5564090609550476, -0.9884409308433533, 0.034420475363731384], [-0.07929939776659012, 0.2827474772930145, -0.09724034368991852, -0.029542535543441772, -0.17116554081439972, -0.10657323896884918, 0.48367276787757874, 0.43613266944885254, 0.4327191114425659, -0.40611428022384644], [-0.8384280204772949, 0.3232795000076294, -0.4158857464790344, -0.3075839579105377, -0.9661529064178467, 0.35986432433128357, -0.04585464671254158, -1.227521300315857, 0.9595184922218323, -0.8504527807235718]], "embedding_uncern.bias": [0.08404431492090225, -0.4942507743835449, -0.1286889612674713, 0.3317248821258545, 0.5975516438484192, 0.17813801765441895, -0.0981922298669815, 0.24803666770458221, 0.27047717571258545, 0.28758546710014343, 0.5291435718536377, -0.2000158727169037, -0.7423826456069946, 0.5616821050643921, -0.7467629313468933], "fc1.weight": [[0.03278633952140808, -0.2302951067686081, -0.1068473532795906, -0.6522339582443237, -0.6843324303627014, -0.04095476493239403, -1.4569101333618164, 0.11772719025611877, -0.3271830677986145, -0.5537394285202026, -0.12975895404815674, 0.5783647894859314, -0.01153890322893858, 0.025017738342285156, -0.4797215163707733, 0.23037345707416534, 0.03539483994245529, 0.9697886109352112, -0.022511061280965805, -0.06104123219847679, 0.028912167996168137, 1.1610053777694702, 0.01773145981132984, 0.17459815740585327, 0.22383175790309906, 0.49338799715042114, 0.011271278373897076, 0.47942355275154114, 0.004302752669900656, -0.02993023954331875, -0.17362403869628906, -0.03596135228872299, 0.29235631227493286, 0.0008332901634275913, 0.031674161553382874, 0.5714369416236877, -0.013098258525133133, -1.0612226724624634, 0.7755430340766907, 0.8375542163848877, -1.2829355001449585, -0.03949376195669174, -0.5972509980201721, 0.023220347240567207, 0.01264177542179823, -1.03059720993042, -0.25260770320892334, 0.031510140746831894, -0.05220779776573181, 0.7593035697937012, 1.0152742862701416, -0.04260551184415817, 0.008837522938847542, -0.22778452932834625, -0.5335296988487244, -0.3008982241153717, -0.3313739597797394, 0.026060014963150024, -0.06774850189685822, 0.18570861220359802, -0.028868328779935837, -1.571321964263916, 0.23025846481323242, -0.20543184876441956, 0.3493461012840271, -2.3319644927978516, 0.31661349534988403, -0.05803385749459267, 0.25769105553627014, -0.5164651870727539, -0.003311265492811799, -0.18020394444465637, 0.2792550027370453, -1.2303510904312134, 0.42430320382118225, 0.5190693140029907, 0.7713130712509155, -0.8990175724029541, -1.1710205078125, -0.6567798852920532, 1.1234561204910278, 0.9375374913215637, 0.45001715421676636, -1.0584080219268799, -3.2267446517944336, 0.5469842553138733, -0.1315688043832779, -1.445093035697937, -0.36714765429496765, -0.3469851315021515, -0.4118029773235321, 2.153355121612549, -0.5743096470832825, 0.2647306025028229], [0.6429046988487244, -0.36277976632118225, 0.2725353538990021, -0.0012769709574058652, -0.12382178008556366, 0.0716138556599617, 0.04503438249230385, 0.7098304033279419, 0.6643879413604736, 0.24451963603496552, -0.14131902158260345, 0.287416011095047, -0.032076023519039154, 0.032365620136260986, 0.5677995681762695, -0.811481237411499, 0.01758890226483345, -0.6981564164161682, 0.017981145530939102, 1.1197401285171509, -0.02349582500755787, -0.8686003684997559, -1.8468482494354248, -0.12657567858695984, -0.3327404260635376, -0.23326344788074493, -0.017063722014427185, 1.2304123640060425, 0.008984800428152084, -0.033095479011535645, -0.8096904754638672, -0.060732144862413406, -0.10070496052503586, 0.019945407286286354, 0.026663852855563164, -0.3458196222782135, -0.009848510846495628, 0.16614332795143127, 0.5505796670913696, 0.2858829200267792, 0.3496483862400055, -0.03712800145149231, -0.009589234367012978, -0.01414509303867817, 0.01724652200937271, 0.3504909574985504, -0.0776093378663063, 0.03644408658146858, 0.2403503805398941, 0.290928453207016, 0.17346011102199554, -0.03241924196481705, 0.01906612329185009, 0.6241456866264343, 0.20855557918548584, 0.05652763694524765, 0.48217716813087463, -0.0018451663199812174, -0.8135242462158203, -0.39025455713272095, -0.002040565712377429, -0.271261066198349, -0.4985327124595642, -0.14993725717067719, -0.5463564395904541, 0.023376448079943657, 0.060772623866796494, -0.3833089768886566, -0.3770049214363098, 0.2763597369194031, 0.005308086983859539, -1.4302046298980713, -1.5234181880950928, -1.963945746421814, 0.6816653609275818, 0.10085970908403397, -0.08921755105257034, 0.43452975153923035, -0.8094653487205505, 0.10967829078435898, 0.5204018950462341, 2.3186569213867188, -0.0036740596406161785, -0.21154001355171204, 0.5990873575210571, -2.476734161376953, -0.2531636953353882, -0.9875617623329163, -0.7280560731887817, 0.5499116778373718, 0.9647332429885864, 0.8110585808753967, -0.6256977915763855, 1.7321006059646606], [-0.047641023993492126, 0.014523133635520935, -0.041666194796562195, 0.0643949881196022, 0.0068554687313735485, -0.10279805213212967, 0.06261827051639557, -0.009733215905725956, 0.10179116576910019, -0.06174246221780777, -0.06266625225543976, -0.09365681558847427, -0.05643473565578461, -0.00723346509039402, -0.020571472123265266, -0.010947522707283497, 0.0372004508972168, 0.02955757826566696, 0.04402364045381546, -0.008991706185042858, -0.09721466153860092, 0.059281330555677414, 0.006771263666450977, 0.05224858224391937, -0.048417847603559494, 0.05376923084259033, -0.06603535264730453, -0.045559436082839966, -0.06160280480980873, 0.08710610866546631, -0.07463899999856949, -0.02243945561349392, -0.0029503093101084232, 0.06997053325176239, -0.006016604136675596, -0.021724680438637733, -0.02394644357264042, 0.05969685688614845, 0.03347189724445343, 0.06526893377304077, 0.06016048789024353, 0.12285075336694717, 0.027318553999066353, 0.053658805787563324, -0.033243466168642044, 0.041199132800102234, 0.020011233165860176, -0.04383036494255066, 0.09281405806541443, -0.03643307089805603, -0.021733585745096207, 0.03933287784457207, 0.03348973020911217, 0.03410404920578003, 0.0205637589097023, 0.005347607657313347, -0.09454800933599472, -0.12065426260232925, 0.00589278107509017, 0.06332294642925262, 0.00012781022815033793, -0.00782956462353468, 0.06528280675411224, -0.09377709031105042, -0.0007505148532800376, -0.00874578021466732, -0.14351631700992584, 0.0832282304763794, -0.01326067466288805, 0.019080305472016335, 0.09339409321546555, 0.0340014211833477, -0.14181262254714966, -0.08226801455020905, -0.0282161682844162, 0.07457706332206726, -0.04241741821169853, 0.004196538589894772, 0.06755758821964264, -0.054864611476659775, 0.07747942954301834, 0.08024919778108597, -0.10381336510181427, -0.15201112627983093, -0.05022191256284714, -0.1523957997560501, -0.17268894612789154, -0.1490878313779831, 0.06860921531915665, -0.12988902628421783, 0.06868372112512589, 0.0995105654001236, -0.2052505612373352, 0.19215436279773712], [0.09826217591762543, -0.1335669457912445, -0.105786994099617, -0.233043372631073, 0.1866079568862915, -0.3146737813949585, 0.2982950210571289, -0.004286589100956917, 0.3824595808982849, 0.33662062883377075, 0.08885790407657623, 0.20203974843025208, -0.004787089303135872, 0.0001758556318236515, 0.48525717854499817, 1.363166332244873, 0.01400893833488226, -0.264421284198761, 0.0044212038628757, 0.7381673455238342, 0.0015873743686825037, 0.6820735931396484, -0.19298623502254486, -0.7874477505683899, 0.19430691003799438, 0.018287470564246178, -0.018521085381507874, 0.7430392503738403, 0.008339964784681797, -0.012333204969763756, -0.4819190204143524, 0.0007480549975298345, 0.2377651482820511, 0.001557396724820137, -0.0022254029754549265, -0.2104625701904297, -0.014999392442405224, 0.26759544014930725, 0.11078622192144394, -0.6256218552589417, -0.6941404342651367, -0.006789518985897303, -0.10723946988582611, 0.007658665534108877, 0.010850358754396439, -1.1438636779785156, 0.3785659372806549, 0.0069762952625751495, 0.041465651243925095, -0.9864372611045837, -0.01510691735893488, 0.005761340726166964, -0.0006887530907988548, -0.12839101254940033, -0.8245941996574402, -0.16113631427288055, 0.2225901186466217, 0.0013849415117874742, 0.0741075798869133, 0.45477068424224854, -0.0002807358978316188, -0.20323815941810608, -0.049211543053388596, 0.4061603248119354, -0.4651145339012146, -0.36493203043937683, -0.412706583738327, -0.26620936393737793, -0.16333486139774323, -1.3760583400726318, 0.01572560705244541, 0.5692186951637268, 0.3332260847091675, -0.05888038128614426, -0.24880017340183258, -0.7581961154937744, 0.6419865489006042, 0.4901755154132843, 0.6883676648139954, 0.5027192831039429, -0.12134960293769836, -0.024940045550465584, 0.056191783398389816, 0.38339316844940186, 0.6759629249572754, -0.6200966835021973, 0.22826290130615234, -0.3943202495574951, 0.06368036568164825, -0.0158439502120018, 0.6166417002677917, -0.5946907997131348, 0.25199902057647705, 0.15824070572853088], [0.8975561857223511, 0.1620713770389557, -0.024915384128689766, -1.0079054832458496, -0.08157838135957718, -0.28973761200904846, 0.23086340725421906, 0.7792357802391052, 0.155747652053833, -0.22139425575733185, 0.0392642579972744, -0.47284194827079773, -0.001960408641025424, -0.021865475922822952, 0.07368872314691544, -0.256483793258667, -2.8161874070065096e-05, 0.2883797883987427, -0.00011900749814230949, 0.3672085106372833, -0.004471211694180965, 0.3185794949531555, 0.14394386112689972, 0.10849148035049438, -0.0675085037946701, -0.0057207862846553326, 0.00299962074495852, -0.12526550889015198, -0.004385628271847963, 0.00783325545489788, -0.0020418388303369284, 0.03525138646364212, -0.16324114799499512, -0.005793826188892126, -0.012798995710909367, 0.1852462738752365, 0.026611847802996635, 0.21410322189331055, 0.9114575386047363, -0.42905744910240173, 0.6524351835250854, 0.0199158675968647, -0.29519787430763245, -0.00903065875172615, 0.0016269488260149956, -0.8147091269493103, -0.8326612114906311, -0.014429550617933273, -1.0512993335723877, 0.0350363589823246, -0.4978581666946411, 0.025139473378658295, 0.0037213428877294064, -0.05392302945256233, 0.5467268824577332, 0.23977790772914886, -0.32117438316345215, -0.015415841713547707, 0.0771271362900734, -0.09331122040748596, 0.007383250165730715, 0.009155657142400742, -0.0996972844004631, -0.05160395801067352, 0.03701920807361603, -0.7428326606750488, 1.5074836015701294, -0.27503734827041626, -0.6984692811965942, 0.6790328621864319, -0.009331641718745232, 1.1030192375183105, 0.45827606320381165, 0.31822285056114197, 0.12840679287910461, 0.8277252912521362, -0.06670286506414413, 0.8468600511550903, -0.8415039777755737, 2.5679805278778076, 0.5083208680152893, -0.7938380241394043, -2.7597124576568604, -0.33859729766845703, 0.6753780841827393, -1.4572840929031372, 0.8010421991348267, 0.6365185379981995, -0.6990593075752258, 0.2143360823392868, 2.213693141937256, 0.21447749435901642, -0.7570185661315918, -0.009592894464731216], [0.41306638717651367, 0.04719007387757301, -0.1877470761537552, 1.125789999961853, -0.8184012770652771, 0.6812293529510498, -0.24210859835147858, 0.5154640078544617, -0.9552682638168335, -0.252335786819458, -0.24615761637687683, -0.21251867711544037, 0.003304879181087017, -0.007439244072884321, -0.4434523582458496, 0.09701381623744965, -0.010408641770482063, 0.6125564575195312, -0.003779482562094927, 0.15943416953086853, -0.018181152641773224, 0.35292109847068787, -0.2018609344959259, -0.7497014403343201, 0.4536657929420471, 0.7198405861854553, -0.025225572288036346, 0.9056400060653687, 0.006702073384076357, -0.0020311942789703608, -0.3369225263595581, -0.0071593946777284145, 0.031556807458400726, 0.00484668742865324, -0.003102250397205353, -0.2990701198577881, 0.013192238286137581, 0.3675246238708496, -0.23893755674362183, -0.6481186151504517, 0.6749328970909119, 0.005494789220392704, 0.11140795052051544, 0.005940710194408894, 0.01504204235970974, -0.7254317998886108, 0.003019818104803562, 0.004555076826363802, -0.11596831679344177, 0.25444647669792175, -0.25727397203445435, 0.0008199895964935422, 0.017424490302801132, 0.04925093799829483, -0.506259024143219, 0.2043350636959076, -0.4775661826133728, -0.009518587961792946, -0.06812804192304611, -0.33788061141967773, 0.0082878852263093, -0.18273140490055084, 0.05843691900372505, -0.4180612564086914, 0.03068712167441845, 2.4290199279785156, 0.9239856600761414, 0.6985560059547424, 0.6047849059104919, -0.2808256149291992, -0.02059578150510788, -0.6844912171363831, 0.41680002212524414, 0.571649432182312, -0.9587714076042175, 0.5756921172142029, -0.4880239963531494, 0.08322681486606598, 1.6406136751174927, -0.13877183198928833, -0.20324236154556274, 0.10025881975889206, -0.1358257234096527, 0.42002564668655396, -0.3649560809135437, -0.412751704454422, 0.1948595643043518, -0.15736514329910278, -0.34820249676704407, -0.25536200404167175, 0.5829972624778748, -0.495802104473114, 0.22598108649253845, 0.03968163579702377], [-0.30694204568862915, 0.1753881722688675, 0.023550130426883698, -0.129226952791214, -1.3367938995361328, -0.20035335421562195, 0.6074478626251221, -0.5325092077255249, -0.3544229567050934, 0.04803778603672981, 0.3441307246685028, -0.07667899131774902, -0.007410543970763683, 0.00485344510525465, 0.8225281238555908, 0.03497834503650665, -0.00011783713125623763, 0.653634250164032, 0.00441826693713665, -0.8484780788421631, 0.004127209540456533, 0.34383925795555115, 0.16192905604839325, 0.20272231101989746, -0.09814997762441635, 1.1391364336013794, 0.00720641016960144, -0.26455190777778625, 0.002955792238935828, -0.007048248313367367, -0.8837550282478333, -0.0004402686608955264, 0.14517025649547577, -0.0029897084459662437, 0.007453735452145338, 0.44459375739097595, -0.00046163061051629484, 0.09249574691057205, 1.5317234992980957, 0.23979182541370392, 0.8292658925056458, -0.0064929211512207985, -0.7659568190574646, -0.0027887446340173483, -0.0030664221849292517, -0.904252290725708, 0.17777343094348907, 0.0060978238470852375, 0.12672436237335205, -0.6996086835861206, -0.34807631373405457, -0.007746499497443438, -0.00373981986194849, -0.28110408782958984, -0.7575575113296509, -0.16143184900283813, -0.138077974319458, 0.003203427419066429, -0.23201480507850647, -0.08698202669620514, -0.0015001619467511773, -0.14522503316402435, 0.0073319594375789165, -0.20475558936595917, -0.820030689239502, -1.9739189147949219, 0.8436880707740784, 0.0016803015023469925, 0.06362010538578033, -0.480821430683136, -0.006179830990731716, -1.4295861721038818, 0.7827035188674927, -0.46973204612731934, -1.5125761032104492, 0.7099459171295166, 1.2679555416107178, 0.4408947229385376, -1.8148068189620972, 0.06063860282301903, 0.14574669301509857, 0.014142794534564018, -0.5096442699432373, -0.4539388418197632, 0.20400114357471466, 0.01609986461699009, -1.0611623525619507, -0.12361025810241699, -0.1681315302848816, -0.40700042247772217, 0.18625964224338531, 0.2184298187494278, -0.36593857407569885, 0.5146809220314026], [-0.003416284453123808, 0.7268468737602234, -0.07774117588996887, 0.4275601804256439, -0.20828436315059662, 0.03856666013598442, -0.34502142667770386, -0.11151101440191269, 0.5218499302864075, 0.1769901067018509, -0.26921138167381287, -0.7528632283210754, -0.004664839245378971, 0.011363941244781017, -0.29742300510406494, 0.7011945247650146, 0.01178403664380312, 0.0723506435751915, 0.008195440284907818, -0.637199878692627, -0.010184592567384243, -0.2131408452987671, 0.12620621919631958, -0.06409479677677155, -0.33984580636024475, 0.4244704246520996, -0.01803472265601158, 0.12874408066272736, 0.010434627532958984, -0.00022196481586433947, -0.3881807327270508, -0.005047899670898914, 0.7526644468307495, -0.00793531909584999, -0.0022712815552949905, 0.1263510137796402, -0.0017937379889190197, 0.11727426946163177, 0.08915510028600693, 0.29977312684059143, 0.21704937517642975, -0.004187038168311119, 0.7121323347091675, -0.0037128969561308622, 0.014578389935195446, -0.5324887633323669, -0.43791741132736206, 0.003407942596822977, 0.04853503778576851, -0.10103702545166016, 0.623221755027771, 0.0008381450898014009, 0.008465209044516087, -0.033433206379413605, -0.3107200860977173, 0.27964720129966736, 0.24026554822921753, 0.005224279128015041, -0.006745967548340559, -0.2171468734741211, 7.315503899008036e-05, -0.2664436399936676, 0.07547896355390549, 0.12194514274597168, 0.028681792318820953, 0.7302820682525635, 0.16429929435253143, 0.3842276632785797, 0.6385464072227478, 0.1912350207567215, -0.011038973927497864, 0.6824811100959778, 0.7550832033157349, 0.1983027160167694, -0.10323251783847809, 0.2977067232131958, 0.12368693202733994, 0.7608762979507446, 0.764981210231781, -0.38220250606536865, -0.30152398347854614, -0.36887648701667786, -0.8409132957458496, 0.4587995409965515, -0.09367311745882034, 0.5699649453163147, 0.734799861907959, 0.34269464015960693, 0.10929041355848312, 0.17801329493522644, -0.5896850824356079, -0.5581557750701904, 0.35193395614624023, -0.4100150465965271], [0.10633065551519394, -0.11456799507141113, 0.25682541728019714, -0.12995591759681702, 0.5774309635162354, -0.08924873918294907, -0.24220526218414307, 0.1824972927570343, 0.38185593485832214, -0.211014062166214, -0.43230393528938293, 0.3392910361289978, -0.039256345480680466, 0.0020442092791199684, -0.1179390549659729, -0.17265452444553375, 0.02874346263706684, 0.28581154346466064, 0.029074786230921745, -0.20160013437271118, -0.036261264234781265, 0.6395233273506165, 0.1634192168712616, 0.037841908633708954, 0.43804869055747986, -0.3930990397930145, -0.02651834860444069, -0.653895914554596, 0.04060814902186394, -0.022991977632045746, -0.3204330503940582, 0.001309557817876339, 0.8078083395957947, 0.0578601211309433, -0.012332268059253693, 0.42180904746055603, 0.040416110306978226, 0.33014267683029175, 0.45059630274772644, -0.3750443458557129, -0.1592434048652649, -0.019514799118041992, -0.0604722835123539, 0.0333087332546711, 0.03402251377701759, -0.21317514777183533, -0.04106796160340309, 0.018068833276629448, 0.16262643039226532, -0.4181629419326782, -0.278618723154068, 0.015670478343963623, 0.02367057278752327, 0.689598560333252, 0.2656920552253723, -0.3046856224536896, -0.3469841182231903, -0.018915168941020966, -0.34221145510673523, -0.05144231766462326, 0.022580716758966446, 0.14714932441711426, -0.33761727809906006, -0.31746891140937805, 0.32988694310188293, -0.13597708940505981, 0.5838658809661865, 0.12668269872665405, -0.46757450699806213, 0.05005289614200592, -0.0210767462849617, 0.45653036236763, -0.9444584846496582, 0.0997314378619194, -0.2361670881509781, -0.3031723201274872, 0.6062523722648621, 0.028913268819451332, -0.13451285660266876, -0.3180926740169525, 0.5692015886306763, -0.6404380798339844, 0.9914519190788269, -0.3976602256298065, -0.38222306966781616, 0.1024317666888237, -0.013639694079756737, -0.37485530972480774, -0.6551727056503296, 0.7227175235748291, 2.0747241973876953, 0.6454082727432251, -0.3641238510608673, 0.8098901510238647], [-0.07288216054439545, 0.082394078373909, 0.012345350347459316, 0.08596221357584, -0.07856422662734985, 0.07641371339559555, 0.02804548665881157, -0.07553194463253021, -0.03568556159734726, 0.04272586107254028, -0.04847348481416702, 0.033737897872924805, 0.022907454520463943, 0.00438976613804698, -0.01610686630010605, -0.05937684699892998, 0.12789182364940643, -0.0053423927165567875, -0.016370080411434174, -0.017731066793203354, 0.06924107670783997, -0.05670449882745743, 0.019755609333515167, 0.0764806941151619, -0.07611394673585892, -0.012891357764601707, 0.04370390996336937, -0.03899337351322174, 0.02093678154051304, 0.009175230748951435, -0.023844502866268158, -0.01882150024175644, 0.00923007819801569, 0.1080532819032669, -0.12496758997440338, -0.05630762130022049, 0.08147280663251877, 0.06665005534887314, 0.04607534408569336, -0.022330213338136673, -0.002937308279797435, -0.007882283069193363, -0.10112006217241287, 0.06554236263036728, 0.026460163295269012, -0.0701812282204628, -0.10885019600391388, -0.026323188096284866, 0.07391729950904846, 0.04053739085793495, 0.10696885734796524, 0.04543687030673027, 0.001008755061775446, -0.049551814794540405, -0.035462386906147, -0.05545379966497421, -0.018615618348121643, -0.07407186180353165, 0.011234891600906849, 0.003608772996813059, 0.08572924137115479, 0.04054909199476242, 0.03173210844397545, 0.03313741087913513, -0.04766514152288437, -0.06520546227693558, -0.03814772889018059, 0.04522618278861046, 0.05883113294839859, 0.02987443469464779, -0.05422086641192436, -0.01810738444328308, -0.029933298006653786, -0.07160843908786774, -0.04785112664103508, 0.01530609093606472, -0.12013024836778641, 0.03855583444237709, 0.1132311224937439, -0.12221114337444305, 0.1548759639263153, 0.10538465529680252, -0.11434988677501678, -0.05238001048564911, 0.003745502093806863, -0.03026234544813633, -0.16294045746326447, -0.049288906157016754, -0.11873581260442734, -0.043589282780885696, 0.06609227508306503, 0.1919899433851242, -0.15473762154579163, 0.1639229655265808], [0.6622287034988403, 0.07242374867200851, 0.07792449742555618, -0.49080905318260193, -0.5810307264328003, 1.1512542963027954, 0.4016357362270355, -0.13509294390678406, 